\data\
ngram 1=4791
ngram 2=11241
ngram 3=13099

\1-grams:
-4.096154	<unk>	0
0	<s>	-0.27131432
-2.2035944	</s>	0
-3.3231564	młodzi	-0.2046036
-3.3231564	naukowcy	-0.10575287
-3.9808235	pytali	-0.05056847
-3.6813443	noblistów	-0.14686829
-2.3488803	o	-0.09036936
-3.9808235	receptę	-0.05056847
-1.8512107	na	-0.15482132
-3.526887	sukces	-0.05056847
-3.2486253	tym	-0.05056847
-3.0803967	jak	-0.070971966
-3.4131832	prowadzić	-0.10575287
-3.2486253	działania	-0.0892576
-2.864942	naukowe	-0.26061633
-1.353278	,	-0.27202392
-3.526887	by	-0.05056847
-3.8105571	osiągnąć	-0.05056847
-3.9808235	spektakularny	-0.05056847
-3.9808235	budować	-0.05056847
-3.9808235	nowoczesny	-0.05056847
-3.6813443	zespół	-0.0505685
-3.6813443	badawczy	-0.0505685
-2.1513054	oraz	-0.071343176
-3.9808235	przekuwać	-0.05056847
-3.9808235	porażki	-0.05056847
-1.5188903	w	-0.20202585
-3.6813443	kolejny	-0.0505685
-3.8105571	krok	-0.05056847
-2.0323486	do	-0.10102623
-3.9808235	odkrywania	-0.05056847
-2.742426	naukowych	-0.25439036
-3.9808235	tajemnic	-0.05056847
-3.9808235	dyskutowało	-0.05056847
-3.1295702	dziś	-0.09589669
-1.9161775	z	-0.11878064
-3.8105571	laureatami	-0.05056847
-3.6813443	Nobla	-0.05056847
-3.9808235	fizyki	-0.05056847
-3.6813443	chemii	-0.05056847
-1.630286	i	-0.07466685
-3.8105571	medycyny	-0.0505685
-3.4131832	blisko	-0.15738505
-3.8105571	300	-0.05056847
-2.864942	młodych	-0.3332576
-2.7215836	naukowców	-0.19996266
-3.6813443	całej	-0.0505685
-2.7215836	Polski	-0.27352434
-1.4241143	.	-1.4143633
-2.0901377	-	-0.13153407
-3.9808235	Dzisiejsze	-0.05056847
-3.9808235	wyjątkowe	-0.05056847
-3.526887	wydarzenie	-0.05056847
-2.3943107	to	-0.09202398
-3.4131832	spotkanie	-0.05056847
-3.9808235	młodzieńczego	-0.05056847
-3.9808235	entuzjazmu	-0.05056847
-3.9808235	dojrzałą	-0.05056847
-3.9808235	mądrością	-0.05056847
-3.9808235	najambitniejszych	-0.05056847
-3.8105571	uczniów	-0.05056847
-3.8105571	mistrzami	-0.05056847
-3.8105571	największego	-0.05056847
-3.9808235	formatu	-0.05056847
-3.9808235	wyjątkowa	-0.05056847
-3.8105571	okazja	-0.20442493
-3.2486253	tak	-0.05056847
-3.9808235	potrzebnego	-0.05056847
-3.3231564	nauce	-0.15341136
-3.9808235	dialogu	-0.05056847
-3.1295702	między	-0.112340786
-3.6813443	młodym	-0.0505685
-3.6813443	dojrzałym	-0.0505685
-3.9808235	pokoleniem	-0.05056847
-3.8105571	mówiła	-0.05056847
-2.742426	minister	-0.360916
-3.526887	Barbara	-0.1887668
-3.6813443	Kudrycka	-0.05056847
-3.3231564	podkreśliła	-0.1376568
-3.6813443	że	-0.0505685
-2.2491179	jest	-0.07622765
-3.8105571	okazją	-0.05056847
-2.5833254	nie	-0.15189752
-3.4131832	tylko	-0.07478692
-3.9808235	ciekawej	-0.05056847
-3.9808235	partnerskiej	-0.05056847
-3.6813443	debaty	-0.0505685
-3.8105571	ale	-0.05056847
-2.5983849	też	-0.107315585
-3.9808235	kolejną	-0.05056847
-3.9808235	szansą	-0.05056847
-2.2923372	dla	-0.16438574
-3.9808235	zdobycie	-0.05056847
-3.9808235	inspiracji	-0.05056847
-3.9808235	pomysłów	-0.05056847
-3.6813443	swojej	-0.0505685
-2.9961414	pracy	-0.13118535
-3.036229	naukowej	-0.22411422
-3.9808235	Moje	-0.05056847
-3.8105571	pokolenie	-0.0505685
-3.8105571	drodze	-0.05056847
-3.8105571	demokratycznych	-0.05056847
-3.9808235	protestów	-0.05056847
-3.9808235	ciężkiej	-0.05056847
-3.9808235	przeprowadziło	-0.05056847
-3.6813443	Polskę	-0.14686829
-2.3664865	przez	-0.11461078
-3.9808235	okres	-0.05056847
-3.9808235	transformacji	-0.05056847
-3.9808235	ustrojowej	-0.05056847
-3.526887	właśnie	-0.05056847
-3.8105571	młode	-0.20442493
-3.9808235	zmienia	-0.05056847
-3.9808235	konkurencyjny	-0.05056847
-3.9808235	dostrzegany	-0.05056847
-3.9808235	arenie	-0.05056847
-3.9808235	globalnej	-0.05056847
-3.8105571	kraj	-0.05056847
-3.6813443	ludzi	-0.0505685
-3.9808235	wykształconych	-0.05056847
-3.9808235	ambitnych	-0.05056847
-3.9808235	Jestem	-0.0505685
-3.9808235	dumna	-0.05056847
-3.9808235	przyjechało	-0.05056847
-2.9594433	ich	-0.05056847
-3.9808235	Warszawy	-0.05056847
-3.3231564	aż	-0.0505685
-3.2486253	wielu	-0.05056847
-3.6813443	zaznaczyła	-0.05056847
-2.4671378	nauki	-0.26707095
-3.9808235	Jednak	-0.05056847
-2.5833254	programu	-0.09719663
-3.6813443	badawczego	-0.0505685
-3.185031	a	-0.05056844
-3.2486253	co	-0.0505685
-2.7016962	za	-0.09814461
-3.9808235	idzie	-0.05056847
-3.9808235	sama	-0.05056847
-3.9808235	nagroda	-0.05056847
-3.9808235	zazwyczaj	-0.05056847
-3.9808235	efekt	-0.05056847
-3.185031	działań	-0.08422876
-3.6813443	zespołu	-0.14686829
-3.4131832	międzynarodowych	-0.0505685
-3.185031	badaczy	-0.11419358
-3.9808235	Pamiętajcie	-0.05056847
-3.6813443	trzeba	-0.0505685
-3.1295702	być	-0.0505685
-3.9808235	otwartym	-0.05056847
-3.036229	współpracę	-0.20998332
-3.8105571	innymi	-0.05056847
-3.9808235	rzadko	-0.05056847
-3.9808235	osiąga	-0.05056847
-2.0625076	się	-0.18967143
-3.9808235	pojedynkę	-0.05056847
-3.9808235	zaznaczył	-0.05056847
-3.8105571	Theodor	-0.20442493
-3.6813443	W.	-0.0505685
-3.8105571	Hänsch	-0.05056847
-3.9808235	który	-0.0505685
-3.9808235	podkreślał	-0.05056847
-3.9808235	Nagroda	-0.05056847
-3.4131832	celem	-0.0505685
-3.6813443	samym	-0.0505685
-3.8105571	sobie	-0.05056847
-3.9808235	Najbardziej	-0.05056847
-3.9808235	ekscytujące	-0.05056847
-3.9808235	samo	-0.05056847
-3.8105571	odkrycie	-0.05056847
-3.9808235	dotrzeć	-0.05056847
-2.925606	tego	-0.08422876
-3.9808235	momentu	-0.05056847
-3.8105571	zajmować	-0.20442493
-3.9808235	tematami	-0.05056847
-3.8105571	które	-0.057095032
-3.6813443	naprawdę	-0.0505685
-3.6813443	nas	-0.0505685
-3.9808235	interesują	-0.05056847
-2.4786153	są	-0.09111994
-3.9808235	naszą	-0.05056847
-3.9808235	pasją	-0.05056847
-3.9808235	stwierdził	-0.05056847
-3.9808235	Nie	-0.05056847
-3.9808235	zrażajcie	-0.05056847
-3.9808235	porażkami	-0.05056847
-3.9808235	radziła	-0.05056847
-3.1295702	prof	-0.72382534
-3.526887	rozpocznie	-0.12071874
-3.6813443	dyskusja	-0.0505685
-3.9808235	noblistami	-0.05056847
-3.9808235	prowadzona	-0.05056847
-3.9808235	trójkę	-0.05056847
-2.664461	polskich	-0.23171486
-3.9808235	członków	-0.05056847
-3.1295702	Rady	-0.05056847
-3.6813443	Młodych	-0.14686829
-3.9808235	Naukowców	-0.05056847
-3.185031	laureatów	-0.05056847
-3.1295702	programów	-0.14070563
-3.4131832	konkursów	-0.05056847
-3.185031	ministra	-0.16534612
-2.8942158	szkolnictwa	-0.73444545
-3.8105571	wyższego	-0.05056847
-3.9808235	Wydarzeniem	-0.05056847
-3.9808235	towarzyszącym	-0.05056847
-3.9808235	Szczytowi	-0.05056847
-3.6813443	Akademia	-0.14686829
-3.9808235	Obywatelska	-0.05056847
-3.9808235	czyli	-0.05056847
-3.9808235	platforma	-0.05056847
-3.4131832	wspólnych	-0.15738505
-3.8105571	warsztatów	-0.05056847
-3.9808235	aktywnych	-0.05056847
-3.9808235	politycznie	-0.05056847
-3.9808235	społecznie	-0.05056847
-3.185031	osób	-0.10575287
-3.9808235	dyskutujących	-0.05056847
-3.9808235	wyzwaniach	-0.05056847
-3.8105571	stoją	-0.20442493
-3.2486253	przed	-0.05056847
-3.9808235	Europą	-0.05056847
-3.8105571	Carol	-0.20442493
-3.6813443	Greider	-0.12071874
-3.8105571	dyrektorem	-0.05056847
-3.6813443	Wydziału	-0.14686829
-3.9808235	Biologii	-0.05056847
-3.8105571	Molekularnej	-0.20442493
-3.9808235	Genetyki	-0.05056847
-3.9808235	Johns	-0.05056847
-3.9808235	Hopkins	-0.05056847
-3.0803967	University	-0.1376568
-3.9808235	School	-0.05056847
-3.2486253	of	-0.07728474
-3.9808235	Medicine	-0.05056847
-3.9808235	Baltimore	-0.05056847
-3.9808235	1983	-0.05056847
-2.9594433	r.	-0.06819549
-3.526887	otrzymała	-0.05056847
-3.8105571	licencjat	-0.20442493
-3.9808235	California	-0.05056847
-3.9808235	Santa	-0.05056847
-3.9808235	1987	-0.05056847
-3.8105571	doktorat	-0.05056847
-3.9808235	Berkeley	-0.05056847
-3.9808235	1984	-0.05056847
-2.9961414	r	-0.84876406
-3.036229	we	-0.21472184
-2.9594433	współpracy	-0.15031952
-3.9808235	Elizabeth	-0.05056847
-3.9808235	Blackburn	-0.05056847
-3.9808235	odkryła	-0.05056847
-3.9808235	telomerazę	-0.05056847
-3.8105571	enzym	-0.05056847
-3.9808235	utrzymujący	-0.05056847
-3.6813443	telomery	-0.05056847
-3.9808235	zakończenia	-0.05056847
-3.9808235	chromosomów	-0.05056847
-3.8105571	1988	-0.05056847
-3.8105571	przeniosła	-0.05056847
-3.9808235	Cold	-0.05056847
-3.9808235	Spring	-0.05056847
-3.9808235	Harbor	-0.05056847
-3.9808235	Laboratory	-0.05056847
-3.9808235	gdzie	-0.05056847
-3.9808235	sklonowała	-0.05056847
-3.9808235	scharakteryzowała	-0.05056847
-3.8105571	RNA	-0.05056847
-3.9808235	wchodzące	-0.05056847
-3.9808235	skład	-0.05056847
-3.6813443	telomerazy	-0.14686829
-3.8105571	następnie	-0.05056847
-3.9808235	rozszerzyła	-0.05056847
-3.8105571	zakres	-0.05056847
-2.541047	badań	-0.28415108
-3.0803967	nad	-0.05056847
-3.9808235	telomerami	-0.05056847
-3.9808235	uwzględniając	-0.05056847
-3.526887	rolę	-0.05056847
-3.9808235	długości	-0.05056847
-3.8105571	telomerów	-0.05056847
-3.9808235	starzeniu	-0.05056847
-3.6813443	komórek	-0.12071874
-3.9808235	śmierci	-0.05056847
-3.9808235	nowotworach	-0.05056847
-3.4131832	wraz	-0.46855283
-3.9808235	Calvinem	-0.05056847
-3.9808235	Harleyem	-0.05056847
-3.8105571	wykazała	-0.20442493
-3.4131832	u	-0.05056847
-3.9808235	człowieka	-0.05056847
-3.9808235	skracają	-0.05056847
-3.9808235	stopniowo	-0.05056847
-3.9808235	komórkach	-0.05056847
-3.9808235	pierwotnych	-0.05056847
-3.8105571	Praca	-0.0505685
-3.526887	ta	-0.05056847
-3.9808235	przyczyniła	-0.05056847
-3.9808235	przyjęcia	-0.05056847
-3.9808235	poglądu	-0.05056847
-3.8105571	telomeraza	-0.05056847
-2.925606	mogą	-0.07873744
-3.9808235	odgrywać	-0.05056847
-3.8105571	istotną	-0.05056847
-3.9808235	procesie	-0.05056847
-3.9808235	starzenia	-0.05056847
-3.0803967	rozwoju	-0.05056847
-3.9808235	nowotworów	-0.05056847
-3.9808235	1992	-0.05056847
-3.526887	została	-0.05056847
-3.8105571	zastępcą	-0.05056847
-3.9808235	kierownika	-0.05056847
-2.242315	(	-0.076695904
-3.9808235	Associate	-0.05056847
-3.8105571	Investigator	-0.20442493
-2.2225232	)	-0.37541044
-3.9808235	1994	-0.05056847
-3.9808235	objęła	-0.05056847
-3.526887	stanowisko	-0.05056847
-3.6813443	szefa	-0.14686829
-3.9808235	1997	-0.05056847
-3.6813443	swoje	-0.0505685
-3.526887	laboratorium	-0.05056847
-3.8105571	1999	-0.05056847
-3.9808235	mianowana	-0.05056847
-3.6813443	profesorem	-0.0505685
-3.8105571	biologii	-0.05056847
-3.9808235	molekularnej	-0.05056847
-3.8105571	genetyki	-0.20442493
-3.9808235	2001	-0.05056847
-3.9808235	onkologii	-0.05056847
-3.9808235	kontynuowała	-0.05056847
-2.864942	badania	-0.08693433
-3.6813443	dziedzinie	-0.06707259
-3.9808235	biochemii	-0.05056847
-3.9808235	określiła	-0.05056847
-3.9808235	drugorzędową	-0.05056847
-3.9808235	strukturę	-0.05056847
-3.9808235	ludzkiej	-0.05056847
-3.9808235	Analizując	-0.05056847
-3.9808235	modele	-0.05056847
-3.9808235	dysfunkcji	-0.05056847
-3.9808235	myszy	-0.05056847
-3.9808235	najkrótszy	-0.05056847
-3.9808235	telomer	-0.05056847
-3.9808235	komórce	-0.05056847
-3.9808235	wyzwala	-0.05056847
-3.9808235	reakcję	-0.05056847
-3.6813443	odpowiedzi	-0.2467041
-3.9808235	uszkodzenia	-0.05056847
-3.9808235	DNA	-0.05056847
-3.6813443	profesor	-0.05056847
-3.9808235	laureatką	-0.05056847
-3.6813443	nagród	-0.0505685
-2.925606	prace	-0.23059526
-3.9808235	telomerazą	-0.05056847
-2.3237412	:	-0.20036241
-3.9808235	Gardiner	-0.05056847
-3.4131832	Award	-0.28567684
-3.9808235	1998	-0.05056847
-3.9808235	Rosenstiel	-0.05056847
-3.9808235	Passano	-0.05056847
-3.9808235	Foundation	-0.05056847
-3.9808235	Richard	-0.05056847
-3.9808235	Lounsbery	-0.05056847
-3.6813443	2003	-0.05056847
-3.9808235	wybrana	-0.05056847
-3.8105571	National	-0.05056847
-3.8105571	Academy	-0.20442493
-3.8105571	Sciences	-0.05056847
-3.8105571	American	-0.05056847
-3.9808235	Arts	-0.05056847
-3.526887	and	-0.05056847
-3.6813443	2009	-0.14686829
-3.9808235	Jackiem	-0.05056847
-3.9808235	Szostakiem	-0.05056847
-3.6813443	Nagrodę	-0.2467041
-3.9808235	fizjologii	-0.05056847
-3.9808235	chroni	-0.05056847
-3.9808235	stopniowym	-0.05056847
-3.9808235	skracaniem	-0.05056847
-3.8105571	Brian	-0.05056847
-3.9808235	K.	-0.05056847
-3.6813443	Kobilka	-0.0505685
-3.9808235	Wydziale	-0.0505685
-3.9808235	Fizjologii	-0.05056847
-3.9808235	Komórkowej	-0.05056847
-3.8105571	Stanford	-0.20442493
-2.6826797	także	-0.0572637
-3.9808235	współzałożycielem	-0.05056847
-3.9808235	ConfometRx	-0.05056847
-3.8105571	firmy	-0.05056847
-3.9808235	biotechnologicznej	-0.05056847
-3.9808235	działającej	-0.05056847
-3.9808235	receptorów	-0.05056847
-3.9808235	sprzężonych	-0.05056847
-3.9808235	białkami	-0.05056847
-3.9808235	G	-0.05056847
-3.6813443	otrzymał	-0.0505685
-3.9808235	Minnesota	-0.05056847
-3.9808235	Duluth	-0.05056847
-3.9808235	zawodowy	-0.05056847
-3.9808235	tytuł	-0.05056847
-3.9808235	lekarza	-0.05056847
-3.9808235	M.D.	-0.05056847
-3.9808235	cum	-0.05056847
-3.9808235	laude	-0.05056847
-3.9808235	Yale	-0.05056847
-2.7215836	po	-0.21716295
-3.9808235	ukończeniu	-0.05056847
-3.9808235	rezydentury	-0.05056847
-3.8105571	wewnętrznej	-0.05056847
-3.9808235	Barnes-Jewish	-0.05056847
-3.9808235	Hospital	-0.05056847
-3.4131832	in	-0.05056847
-3.8105571	St	-0.20442493
-3.9808235	Louis	-0.05056847
-3.9808235	Missouri	-0.05056847
-3.8105571	prowadził	-0.20442493
-3.526887	pod	-0.05056847
-3.9808235	kierownictwem	-0.05056847
-3.9808235	Roberta	-0.05056847
-3.9808235	Lefkowitza	-0.05056847
-3.9808235	ramach	-0.05056847
-3.9808235	stażu	-0.05056847
-3.9808235	podoktoranckiego	-0.05056847
-3.9808235	Duke	-0.05056847
-3.526887	tam	-0.05056847
-3.8105571	rozpoczął	-0.20442493
-3.9808235	klonowaniem	-0.05056847
-3.9808235	receptora	-0.05056847
-3.9808235	adrenergicznego	-0.05056847
-3.9808235	β2	-0.05056847
-3.9808235	1989	-0.05056847
-3.9808235	przeniósł	-0.05056847
-3.526887	Uniwersytetu	-0.0505685
-3.9808235	Stanforda	-0.05056847
-3.526887	latach	-0.05056847
-3.9808235	1987-2003	-0.05056847
-3.9808235	pełnił	-0.05056847
-3.9808235	funkcję	-0.05056847
-3.9808235	Howard	-0.05056847
-3.9808235	Hughes	-0.05056847
-3.9808235	Medical	-0.05056847
-3.8105571	Institute	-0.05056847
-3.9808235	HHMI	-0.05056847
-3.526887	został	-0.05056847
-3.9808235	laureatem	-0.05056847
-3.9808235	Society	-0.05056847
-3.4131832	for	-0.05056847
-3.9808235	Pharmacology	-0.05056847
-3.9808235	Experimental	-0.05056847
-3.9808235	Therapeutics	-0.05056847
-3.8105571	John	-0.05056847
-3.9808235	J.	-0.05056847
-3.9808235	Abel	-0.05056847
-3.9808235	farmakologii	-0.05056847
-3.3231564	2012	-0.1887668
-3.526887	wspólnie	-0.37164283
-3.9808235	Robertem	-0.05056847
-3.9808235	Lefkowitzem	-0.05056847
-3.8105571	pracę	-0.05056847
-3.9808235	receptorami	-0.05056847
-3.9808235	sprzężonymi	-0.05056847
-3.9808235	ceniony	-0.05056847
-3.8105571	swój	-0.05056847
-3.4131832	wkład	-0.1376568
-3.2486253	rozwój	-0.05056847
-3.6813443	spektroskopii	-0.2467041
-3.9808235	laserowej	-0.0505685
-3.526887	pierwszym	-0.05056847
-3.9808235	wąskopasmowym	-0.05056847
-3.9808235	przestrajanym	-0.05056847
-3.9808235	laserem	-0.05056847
-3.9808235	barwnikowym	-0.05056847
-3.9808235	techniką	-0.05056847
-3.9808235	wolnej	-0.05056847
-2.6826797	od	-0.075565964
-3.8105571	poszerzenia	-0.05056847
-3.9808235	Dopplera	-0.05056847
-3.9808235	laserowym	-0.05056847
-3.9808235	chłodzeniem	-0.05056847
-3.9808235	gazów	-0.05056847
-3.9808235	atomowych	-0.05056847
-3.185031	dzięki	-0.070971966
-3.1295702	jego	-0.05056847
-3.8105571	odkryciom	-0.05056847
-3.9808235	możliwe	-0.05056847
-3.9808235	stało	-0.05056847
-3.8105571	dokładne	-0.05056847
-3.9808235	wyznaczenie	-0.05056847
-3.9808235	stałej	-0.05056847
-3.9808235	Rydberga	-0.05056847
-3.9808235	przesunięcia	-0.05056847
-3.9808235	Lamba	-0.05056847
-3.9808235	poziomów	-0.05056847
-3.9808235	energetycznych	-0.05056847
-3.9808235	atomu	-0.05056847
-3.9808235	wodoru	-0.05056847
-3.9808235	promieni	-0.05056847
-3.9808235	ładunkowych	-0.05056847
-3.9808235	protonu	-0.05056847
-3.9808235	deuteronu	-0.05056847
-3.9808235	Niedawno	-0.05056847
-3.9808235	niemiecki	-0.05056847
-3.9808235	naukowiec	-0.05056847
-3.8105571	wprowadził	-0.05056847
-3.8105571	rewolucyjną	-0.05056847
-3.9808235	pionierską	-0.05056847
-3.9808235	technikę	-0.05056847
-3.8105571	grzebienia	-0.20442493
-3.8105571	częstotliwości	-0.0505685
-3.8105571	pomiaru	-0.05056847
-3.9808235	światła	-0.05056847
-3.9808235	pomocą	-0.05056847
-3.2486253	bardzo	-0.05056847
-3.9808235	krótkich	-0.05056847
-3.9808235	impulsów	-0.05056847
-3.9808235	współpracownicy	-0.05056847
-3.9808235	stworzyli	-0.05056847
-3.4131832	pierwsze	-0.10575287
-3.9808235	dwu-	-0.05056847
-3.9808235	trójwymiarowe	-0.05056847
-3.6813443	sieci	-0.0505685
-3.9808235	atomowe	-0.05056847
-3.4131832	związane	-0.15738505
-3.9808235	światłem	-0.05056847
-3.9808235	przedstawili	-0.05056847
-3.185031	pierwszy	-0.08577731
-3.9808235	laser	-0.05056847
-3.8105571	atomowy	-0.05056847
-3.9808235	emitujący	-0.05056847
-3.9808235	ciągłą	-0.05056847
-3.9808235	wiązkę	-0.05056847
-3.9808235	spójnych	-0.05056847
-3.9808235	fal	-0.05056847
-3.8105571	materii	-0.05056847
-3.9808235	pokazali	-0.05056847
-3.8105571	jaki	-0.05056847
-3.4131832	sposób	-0.05056847
-3.4131832	należy	-0.05056847
-3.9808235	wbudować	-0.05056847
-3.8105571	kwantowe	-0.05056847
-3.9808235	ultrazimnych	-0.05056847
-3.9808235	atomów	-0.05056847
-3.9808235	mikrofabrykowany	-0.05056847
-2.5983849	„	-0.08076638
-3.9808235	chip	-0.05056847
-2.541047	”	-0.3699148
-3.4131832	jako	-0.05056847
-3.8105571	pierwsi	-0.05056847
-3.9808235	zaobserwowali	-0.05056847
-3.8105571	przejście	-0.05056847
-3.8105571	fazowe	-0.05056847
-3.2486253	pomiędzy	-0.05056847
-3.9808235	quasi-falowym	-0.05056847
-3.9808235	stanem	-0.05056847
-3.9808235	nadpłynnym	-0.05056847
-3.9808235	quasi-cząstkowym	-0.05056847
-3.9808235	kryształem	-0.05056847
-3.9808235	izolatora	-0.05056847
-3.9808235	Motta	-0.05056847
-3.9808235	stosując	-0.05056847
-3.9808235	kondensat	-0.05056847
-3.9808235	Bosego-Einsteina	-0.05056847
-3.6813443	potencjale	-0.0505685
-3.9808235	optycznej	-0.05056847
-3.9808235	2005	-0.05056847
-3.9808235	Royem	-0.05056847
-3.9808235	Glauberem	-0.05056847
-3.9808235	Johnem	-0.05056847
-3.9808235	L.	-0.05056847
-3.9808235	Hallem	-0.05056847
-3.9808235	precyzyjnej	-0.05056847
-3.9808235	techniki	-0.05056847
-3.9808235	optycznego	-0.05056847
-3.9808235	NAUKOWCY	-0.05056847
-3.9808235	moderatorzy	-0.05056847
-3.4131832	spotkania	-0.05056847
-3.9808235	zapraszają	-0.05056847
-3.526887	dyskusji	-0.1887668
-3.2486253	Uniwersytet	-0.14686833
-3.9808235	Medyczny	-0.05056847
-3.9808235	Łodzi	-0.05056847
-3.9808235	Chciałabym	-0.05056847
-3.9808235	dowiedzieć	-0.05056847
-3.8105571	ile	-0.05056847
-3.0803967	jej	-0.05056844
-3.526887	zdaniem	-0.05056847
-3.9808235	interdyscyplinarne	-0.05056847
-3.6813443	grupy	-0.0505685
-3.4131832	badawcze	-0.11419358
-3.6813443	naukowcami	-0.05056847
-3.8105571	różnych	-0.05056847
-3.3231564	krajów	-0.05056847
-3.9808235	wpływają	-0.05056847
-3.6813443	jakość	-0.14686829
-3.9808235	grupie	-0.05056847
-3.9808235	szybkość	-0.05056847
-3.6813443	prowadzonych	-0.14686829
-3.9808235	Zapytam	-0.05056847
-2.8375177	m.in.	-0.08035728
-3.9808235	radziłby	-0.05056847
-3.6813443	osobom	-0.0505685
-3.9808235	rozpoczynającym	-0.05056847
-3.9808235	ścieżkę	-0.05056847
-3.1295702	kariery	-0.37001494
-3.8105571	jakie	-0.05056847
-3.9808235	zdanie	-0.05056847
-3.6813443	temat	-0.05056847
-3.9808235	interdyscyplinarnych	-0.05056847
-3.9808235	grup	-0.05056847
-3.1295702	badawczych	-0.22342291
-3.9808235	Mam	-0.05056847
-3.8105571	nadzieję	-0.20442493
-3.9808235	dowiem	-0.05056847
-3.9808235	noblisty	-0.05056847
-3.9808235	ważniejsze	-0.05056847
-3.9808235	zaangażowanie	-0.05056847
-3.3231564	jeden	-0.09605467
-3.8105571	kierunek	-0.05056847
-3.2486253	czy	-0.05056847
-3.8105571	rozwijanie	-0.05056847
-3.9808235	zainteresowań	-0.05056847
-3.9808235	Górniczo-Hutnicza	-0.0505685
-3.9808235	Spotkanie	-0.05056847
-2.5546877	będzie	-0.05782631
-3.8105571	znakomitą	-0.05056847
-3.9808235	rozpoczynających	-0.05056847
-3.8105571	karierę	-0.14686829
-3.526887	naukową	-0.05056847
-3.6813443	uczestnictwa	-0.14686829
-3.9808235	najwybitniejszymi	-0.05056847
-3.9808235	ludźmi	-0.05056847
-3.6813443	wymiany	-0.0505685
-3.9808235	poglądów	-0.05056847
-3.8105571	zakresie	-0.05056847
-3.9808235	specjalistycznej	-0.05056847
-3.8105571	dziedziny	-0.05056847
-3.6813443	całego	-0.0505685
-3.3231564	systemu	-0.0505685
-3.6813443	funkcjonowania	-0.0505685
-2.9594433	podczas	-0.05056847
-3.9808235	poruszę	-0.05056847
-3.9808235	tematykę	-0.05056847
-3.9808235	związaną	-0.05056847
-3.9808235	rozwojem	-0.05056847
-3.4131832	naukowym	-0.05056847
-3.9808235	Postaram	-0.05056847
-3.9808235	uzyskać	-0.05056847
-3.8105571	pytania	-0.05056847
-3.9808235	konieczność	-0.05056847
-3.9808235	zalety	-0.05056847
-3.9808235	wady	-0.05056847
-3.8105571	mobilności	-0.05056847
-3.526887	wśród	-0.05056847
-3.526887	rozpocząć	-0.12071874
-3.526887	naukowca	-0.05056847
-3.4131832	najlepszych	-0.0892576
-3.8105571	świecie	-0.07478692
-3.8105571	zespołach	-0.05056847
-3.9808235	Zapraszam	-0.05056847
-3.9808235	Was	-0.05056847
-3.9808235	drogie	-0.05056847
-3.9808235	koleżanki	-0.05056847
-3.9808235	koledzy	-0.05056847
-3.9808235	niecodzienne	-0.05056847
-3.9808235	roli	-0.05056847
-3.6813443	głównej	-0.0505685
-3.9808235	przekonany	-0.05056847
-2.925606	udział	-0.24129653
-3.6813443	nim	-0.05056847
-3.9808235	pozwoli	-0.05056847
-3.8105571	nam	-0.05056847
-3.6813443	wszystkim	-0.0505685
-3.9808235	nabrać	-0.05056847
-3.9808235	dodatkowej	-0.05056847
-3.6813443	energii	-0.14686829
-3.9808235	pozytywnie	-0.05056847
-3.9808235	spojrzeć	-0.05056847
-3.9808235	przyszłość	-0.05056847
-2.8375177	polskiej	-0.22743326
-3.8105571	jedna	-0.20442493
-3.8105571	najważniejszych	-0.05056847
-3.4131832	informacji	-0.05056847
-3.8105571	opinii	-0.05056847
-3.9808235	publicznej	-0.05056847
-3.9808235	dotarła	-0.05056847
-3.9808235	wrześniu	-0.0505685
-3.9808235	Prof.	-0.05056844
-3.9808235	Agnieszka	-0.05056847
-3.9808235	Zalewska	-0.05056847
-3.8105571	Instytutu	-0.0505685
-3.9808235	Fizyki	-0.05056847
-3.9808235	Jądrowej	-0.05056847
-3.8105571	PAN	-0.05056847
-3.8105571	Krakowie	-0.05056847
-3.8105571	wtedy	-0.05056847
-3.9808235	przewodniczącą	-0.05056847
-3.0803967	Europejskiej	-0.117443904
-3.9808235	Organizacji	-0.05056847
-3.526887	Badań	-0.05056847
-3.9808235	Jądrowych	-0.05056847
-3.9808235	CERN	-0.05056847
-3.8105571	czerwcu	-0.05056847
-3.9808235	audytora	-0.05056847
-3.9808235	zewnętrznego	-0.05056847
-3.6813443	organizacji	-0.0505685
-3.6813443	lata	-0.05056847
-3.9808235	2013-2015	-0.05056847
-3.9808235	wybrano	-0.05056847
-3.9808235	Najwyższą	-0.05056847
-3.9808235	Izbę	-0.05056847
-3.9808235	Kontroli	-0.05056847
-2.5687704	roku	-0.15346512
-3.9808235	starań	-0.05056847
-3.2486253	Polska	-0.0505685
-3.9808235	przystąpiła	-0.05056847
-3.9808235	Agencji	-0.05056847
-3.9808235	Kosmicznej	-0.05056847
-3.6813443	ESA	-0.0505685
-3.3231564	umowy	-0.09605467
-3.2486253	tej	-0.05056847
-3.8105571	sprawie	-0.0505685
-3.9808235	wymienili	-0.05056847
-3.526887	wicepremier	-0.05056847
-3.9808235	Waldemar	-0.05056847
-3.9808235	Pawlak	-0.05056847
-3.9808235	dyrektor	-0.05056847
-3.9808235	generalny	-0.05056847
-3.9808235	Jean-Jacques	-0.05056847
-3.9808235	Dordain	-0.05056847
-3.9808235	listopadzie	-0.05056847
-3.9808235	umowę	-0.05056847
-3.9808235	ws.	-0.05056847
-3.9808235	przystąpienia	-0.05056847
-3.9808235	ratyfikował	-0.05056847
-3.526887	polski	-0.05056847
-3.9808235	Parlament	-0.05056847
-3.9808235	podpisał	-0.05056847
-3.6813443	prezydent	-0.14686829
-3.9808235	Bronisław	-0.05056847
-3.9808235	Komorowski	-0.05056847
-3.9808235	Mijający	-0.05056847
-3.4131832	rok	-0.0505685
-3.8105571	przyniósł	-0.20442493
-3.4131832	kolejne	-0.09605467
-3.8105571	sukcesy	-0.0505685
-3.8105571	astronomów	-0.05056847
-3.9808235	Warszawskiego	-0.0505685
-3.8105571	pracujący	-0.05056847
-3.4131832	projektu	-0.09605467
-3.9808235	OGLE	-0.05056847
-3.9808235	zagranicznymi	-0.05056847
-3.9808235	wykazali	-0.05056847
-3.9808235	Drodze	-0.05056847
-3.9808235	Mlecznej	-0.05056847
-3.9808235	planety	-0.05056847
-3.9808235	powszechniejsze	-0.05056847
-3.9808235	gwiazd	-0.05056847
-3.9808235	Rezultat	-0.05056847
-3.9808235	styczniu	-0.05056847
-3.9808235	ogłosiły	-0.05056847
-3.9808235	Nature	-0.05056847
-3.8105571	Europejskie	-0.20442493
-3.9808235	Obserwatorium	-0.05056847
-3.9808235	Południowe	-0.05056847
-3.8105571	ESO	-0.05056847
-3.9808235	warszawskiego	-0.05056847
-3.3231564	był	-0.05056847
-3.9808235	znaczący	-0.05056847
-3.9808235	bo	-0.05056847
-3.526887	wszystkie	-0.05056847
-3.9808235	analizowane	-0.05056847
-3.9808235	zjawiska	-0.05056847
-3.8105571	odkryli	-0.05056847
-3.4131832	Polacy	-0.10575287
-3.9808235	lutym	-0.05056847
-3.9808235	kosmodromu	-0.05056847
-3.9808235	Kourou	-0.05056847
-3.9808235	Gujanie	-0.05056847
-3.9808235	Francuskiej	-0.05056847
-3.9808235	wystartowała	-0.05056847
-3.8105571	pierwsza	-0.05056847
-3.9808235	europejska	-0.05056847
-3.9808235	rakieta	-0.05056847
-3.9808235	Vega	-0.05056847
-3.9808235	satelitów	-0.05056847
-3.9808235	wyniosła	-0.05056847
-3.9808235	orbitę	-0.05056847
-3.9808235	satelita	-0.05056847
-3.9808235	PW-SAT	-0.05056847
-3.8105571	zbudowany	-0.05056847
-2.5983849	studentów	-0.2847234
-3.8105571	Politechniki	-0.0505685
-3.8105571	Warszawskiej	-0.05056847
-3.8105571	zadaniem	-0.05056847
-3.0803967	było	-0.07478692
-3.9808235	sprawdzenie	-0.05056847
-3.4131832	nowego	-0.05056847
-3.9808235	kontrolowanego	-0.05056847
-3.9808235	opuszczenia	-0.05056847
-3.9808235	orbity	-0.05056847
-3.2486253	polscy	-0.13080208
-3.9808235	inżynierowie	-0.05056847
-3.6813443	mieli	-0.0505685
-3.526887	budowę	-0.05056847
-3.9808235	słynnej	-0.05056847
-2.8117228	już	-0.0874222
-3.9808235	sondy	-0.05056847
-3.8105571	amerykańskiej	-0.05056847
-3.9808235	Curiosity	-0.05056847
-3.9808235	która	-0.05056847
-3.9808235	sierpniu	-0.05056847
-3.9808235	wylądowała	-0.05056847
-3.9808235	Marsie	-0.05056847
-3.9808235	spektrometrach	-0.05056847
-3.8105571	łazika	-0.05056847
-3.9808235	zamontowano	-0.05056847
-3.9808235	detektory	-0.05056847
-3.9808235	podczerwieni	-0.05056847
-3.9808235	NASA	-0.05056847
-3.9808235	wyprodukowała	-0.05056847
-3.6813443	polska	-0.0505685
-3.9808235	firma	-0.05056847
-3.9808235	VIGO	-0.05056847
-3.8105571	System	-0.05056847
-3.9808235	S.A.	-0.05056847
-3.9808235	Ożarowa	-0.05056847
-3.9808235	Mazowieckiego	-0.05056847
-3.8105571	międzynarodowy	-0.20442493
-3.9808235	odkrył	-0.05056847
-3.9808235	planetę	-0.05056847
-3.9808235	okrążającą	-0.05056847
-3.9808235	czerwonego	-0.05056847
-3.9808235	olbrzyma	-0.05056847
-3.9808235	gwiazdę	-0.05056847
-3.9808235	podobną	-0.05056847
-3.9808235	Słońca	-0.05056847
-3.9808235	zniszczyła	-0.05056847
-3.9808235	inną	-0.05056847
-3.9808235	planet	-0.05056847
-3.9808235	układu	-0.05056847
-3.8105571	Główną	-0.0505685
-3.9808235	autorką	-0.05056847
-3.6813443	publikacji	-0.14686829
-3.9808235	ukazała	-0.05056847
-2.9961414	&quot;	-0.17812696
-3.9808235	Astrophysical	-0.05056847
-3.9808235	Journal	-0.05056847
-3.9808235	Letters	-0.05056847
-3.526887	była	-0.05056847
-3.8105571	Monika	-0.05056847
-3.9808235	Adamów	-0.05056847
-2.9594433	Centrum	-0.12789717
-3.9808235	Astronomii	-0.05056847
-3.9808235	UMK	-0.05056847
-3.9808235	Toruniu	-0.05056847
-3.6813443	kilka	-0.0505685
-3.9808235	znaczących	-0.05056847
-3.8105571	odkryć	-0.05056847
-3.9808235	znalezisk	-0.05056847
-3.9808235	Odkrywca	-0.05056847
-3.9808235	unikatowego	-0.05056847
-3.9808235	skali	-0.05056847
-3.526887	świata	-0.09605467
-3.9808235	stanowiska	-0.05056847
-3.9808235	zmarł	-0.05056847
-3.9808235	długiej	-0.05056847
-3.9808235	chorobie	-0.05056847
-3.8105571	wieku	-0.05056847
-3.9808235	33	-0.05056847
-3.3231564	lat	-0.05056847
-3.9808235	polsko-wenezuelskiej	-0.05056847
-3.9808235	wyprawy	-0.05056847
-3.9808235	okolice	-0.05056847
-3.9808235	góry	-0.05056847
-3.9808235	Tramen	-0.05056847
-3.9808235	Tepui	-0.05056847
-3.9808235	styku	-0.05056847
-3.9808235	południowo-wschodniej	-0.05056847
-3.9808235	Wenezueli	-0.05056847
-3.9808235	Gujany	-0.05056847
-3.9808235	północnej	-0.05056847
-3.8105571	Brazylii	-0.05056847
-3.6813443	uczeni	-0.05056847
-3.4131832	trzy	-0.05056847
-3.9808235	gatunki	-0.05056847
-3.9808235	endemicznych	-0.05056847
-3.9808235	motyli	-0.05056847
-3.9808235	gatunek	-0.05056847
-3.9808235	żaby	-0.05056847
-3.8105571	odkrycia	-0.05056847
-3.9808235	dokonali	-0.05056847
-3.9808235	Bristol	-0.05056847
-3.9808235	Wielka	-0.05056847
-3.9808235	Brytania	-0.05056847
-3.9808235	Princeton	-0.05056847
-3.526887	USA	-0.14686829
-3.9808235	Gdańskiego	-0.05056847
-3.3231564	Polskiej	-0.1376568
-3.6813443	Akademii	-0.14686829
-3.8105571	Nauk	-0.14686829
-3.8105571	Muzeum	-0.20442493
-3.9808235	Archeologicznego	-0.05056847
-3.9808235	Etnograficznego	-0.05056847
-3.9808235	Poznaniu	-0.0505685
-3.9808235	maju	-0.05056847
-3.9808235	trudnym	-0.05056847
-3.9808235	zmierzył	-0.05056847
-3.9808235	Warszawski	-0.05056847
-3.9808235	organizując	-0.05056847
-3.9808235	raz	-0.0505685
-3.3231564	prestiżowe	-0.0505685
-3.526887	Akademickie	-0.10575287
-3.9808235	Mistrzostwach	-0.05056847
-3.8105571	Świata	-0.20442493
-3.9808235	Programowaniu	-0.05056847
-3.9808235	Zespołowym	-0.05056847
-3.8105571	najlepsi	-0.05056847
-3.526887	spośród	-0.05056847
-3.9808235	112	-0.05056847
-3.9808235	drużyn	-0.05056847
-3.6813443	byli	-0.0505685
-3.9808235	programiści	-0.05056847
-3.9808235	Sankt	-0.05056847
-3.9808235	Petersburga	-0.05056847
-2.8117228	również	-0.07873744
-3.9808235	reprezentantka	-0.05056847
-3.6813443	wzięła	-0.14686829
-3.526887	światowym	-0.05056847
-3.9808235	finale	-0.05056847
-3.2486253	konkursu	-0.05056847
-3.9808235	FameLab	-0.05056847
-3.6813443	naukowego	-0.0505685
-3.9808235	idola	-0.05056847
-3.9808235	Zwyciężczyni	-0.05056847
-3.3231564	edycji	-0.05056847
-3.9808235	Koperska	-0.05056847
-3.9808235	Jagiellońskiego	-0.05056847
-3.9808235	podbiła	-0.05056847
-3.9808235	publiczność	-0.05056847
-3.9808235	zagraniczną	-0.05056847
-3.8105571	zajmując	-0.05056847
-3.6813443	drugie	-0.1887668
-3.3231564	miejsce	-0.16055822
-3.9808235	nagrodę	-0.05056847
-3.9808235	publiczności	-0.05056847
-3.9808235	Cheltenham	-0.05056847
-3.4131832	Science	-0.14686829
-3.9808235	Festival	-0.05056847
-3.9808235	Wielkiej	-0.05056847
-3.9808235	Brytanii	-0.05056847
-3.9808235	lipcu	-0.05056847
-3.9808235	poznaliśmy	-0.05056847
-3.4131832	instytucje	-0.0892576
-3.9808235	zyskały	-0.05056847
-3.8105571	status	-0.05056847
-3.8105571	Krajowego	-0.05056847
-3.9808235	Naukowego	-0.05056847
-3.9808235	Ośrodka	-0.05056847
-3.9808235	Wiodącego	-0.05056847
-3.8105571	KNOW	-0.05056847
-3.9808235	pięć	-0.05056847
-2.742426	będą	-0.12847616
-3.9808235	otrzymywały	-0.05056847
-3.526887	nawet	-0.05056847
-3.8105571	50	-0.05056847
-2.764319	mln	-0.6336822
-3.185031	zł	-0.1344573
-3.9808235	Dwoje	-0.05056847
-3.526887	otrzymało	-0.05056847
-3.2486253	granty	-0.0892576
-3.9808235	ds	-0.05056847
-3.9808235	Starting	-0.05056847
-3.8105571	Grant	-0.0892576
-3.9808235	1,3	-0.05056847
-3.526887	euro	-0.09605467
-3.8105571	zaś	-0.05056847
-3.8105571	dr	-0.05056847
-3.9808235	Justyna	-0.05056847
-3.9808235	Olko	-0.05056847
-3.9808235	przyznane	-0.05056847
-3.8105571	fundusze	-0.05056847
-3.9808235	zbada	-0.05056847
-3.9808235	kulturę	-0.05056847
-3.9808235	Indian	-0.05056847
-3.9808235	Nahua	-0.05056847
-3.8105571	21	-0.05056847
-3.9808235	przyznano	-0.05056847
-3.9808235	Nagrody	-0.05056847
-3.526887	Fundacji	-0.12071874
-3.9808235	rzecz	-0.05056847
-3.2486253	Nauki	-0.17988223
-3.9808235	popularnie	-0.05056847
-3.9808235	określane	-0.05056847
-3.9808235	mianem	-0.05056847
-3.9808235	Nobli	-0.05056847
-3.6813443	zostali	-0.0505685
-3.8105571	profesorowie	-0.20442493
-3.9808235	Krzysztof	-0.05056847
-3.9808235	Palczewski	-0.05056847
-3.9808235	Mieczysław	-0.05056847
-3.9808235	Mąkosza	-0.05056847
-3.9808235	Maciej	-0.05056847
-3.9808235	Wojtkowski	-0.05056847
-3.8105571	Ewa	-0.05056847
-3.9808235	Wipszycka	-0.05056847
-3.9808235	kolei	-0.05056847
-3.9808235	Bogumił	-0.05056847
-3.9808235	Jeziorski	-0.05056847
-3.9808235	Jerzy	-0.05056847
-3.9808235	Sobczak	-0.05056847
-3.9808235	Lech	-0.05056847
-3.9808235	Poloński	-0.05056847
-3.8105571	otrzymali	-0.05056847
-3.8105571	nagrody	-0.05056847
-3.8105571	lekarze	-0.05056847
-3.6813443	przeprowadzili	-0.0505685
-3.8105571	pionierskich	-0.05056847
-3.8105571	operacji	-0.05056847
-3.6813443	operację	-0.14686829
-3.9808235	wszczepienia	-0.05056847
-3.8105571	nowej	-0.05056847
-3.9808235	generacji	-0.05056847
-3.9808235	implantu	-0.05056847
-3.9808235	słuchowego	-0.05056847
-3.9808235	przeprowadzono	-0.05056847
-3.9808235	Światowym	-0.05056847
-3.9808235	Słuchu	-0.0505685
-3.9808235	Kajetanach	-0.05056847
-3.9808235	Warszawą	-0.05056847
-3.8105571	taki	-0.05056847
-3.9808235	zabieg	-0.05056847
-3.6813443	Polsce	-0.05056847
-3.9808235	czwarty	-0.05056847
-3.9808235	Kliniki	-0.05056847
-3.9808235	Kardiochirurgii	-0.05056847
-3.9808235	Uniwersyteckiego	-0.05056847
-3.9808235	Szpitala	-0.05056847
-3.9808235	Klinicznego	-0.05056847
-3.9808235	Białymstoku	-0.05056847
-3.9808235	zastawki	-0.05056847
-3.9808235	uszkodzoną	-0.05056847
-3.9808235	zastawkę	-0.05056847
-3.9808235	mitralną	-0.05056847
-3.9808235	sercu	-0.05056847
-3.9808235	79-letniej	-0.05056847
-3.9808235	pacjentki	-0.05056847
-3.9808235	Onkologii	-0.05056847
-3.9808235	Warszawie	-0.05056847
-3.9808235	zastosowano	-0.05056847
-3.8105571	nową	-0.05056847
-3.9808235	metodę	-0.05056847
-3.8105571	leczenia	-0.05056847
-3.9808235	raka	-0.05056847
-3.9808235	jajnika	-0.05056847
-3.9808235	możne	-0.05056847
-3.9808235	znacznie	-0.05056847
-3.9808235	wydłużyć	-0.05056847
-3.6813443	życie	-0.0505685
-3.9808235	pacjentek	-0.05056847
-3.8105571	wyniku	-0.05056847
-3.9808235	uzyskuje	-0.05056847
-3.8105571	75	-0.05056847
-3.6813443	1000	-0.0505685
-3.9808235	razy	-0.05056847
-3.9808235	większe	-0.05056847
-3.9808235	stężenie	-0.05056847
-3.9808235	leku	-0.05056847
-3.9808235	przeciwnowotworowego	-0.05056847
-3.2486253	niż	-0.08422876
-3.8105571	gdy	-0.05056847
-3.8105571	on	-0.05056847
-3.9808235	podawany	-0.05056847
-3.9808235	dożylnie	-0.05056847
-3.9808235	Katowic	-0.05056847
-3.9808235	Wrocławia	-0.05056847
-3.9808235	pionierskie	-0.05056847
-3.9808235	zabiegi	-0.05056847
-3.9808235	wykorzystaniem	-0.05056847
-3.9808235	mezenchymalnych	-0.05056847
-3.9808235	macierzystych	-0.05056847
-3.9808235	pępowiny	-0.05056847
-3.9808235	Wykorzystano	-0.05056847
-3.2486253	je	-0.05056847
-3.9808235	chorych	-0.05056847
-3.9808235	przeszczepieniu	-0.05056847
-3.9808235	szpiku	-0.05056847
-3.3231564	których	-0.05056847
-3.9808235	doszło	-0.05056847
-3.9808235	zagrażającej	-0.05056847
-3.8105571	życiu	-0.05056847
-3.9808235	reakcji	-0.05056847
-3.9808235	przeszczepu	-0.05056847
-3.9808235	przeciwko	-0.05056847
-3.9808235	gospodarzowi	-0.05056847
-3.9808235	Terapia	-0.05056847
-2.8375177	ma	-0.07370538
-3.9808235	zastosowanie	-0.05056847
-3.9808235	10-15	-0.05056847
-3.526887	proc.	-0.05056847
-3.9808235	najcięższych	-0.05056847
-3.9808235	przypadków	-0.05056847
-3.9808235	kiedy	-0.05056847
-3.9808235	leki	-0.05056847
-3.9808235	przynoszą	-0.05056847
-3.9808235	efektu	-0.05056847
-3.9808235	Serce	-0.05056847
-3.9808235	podjęło	-0.05056847
-3.9808235	samodzielną	-0.05056847
-2.925606	ponad	-0.09595244
-3.8105571	70	-0.0505685
-3.6813443	miliardów	-0.12071874
-3.2486253	europejskie	-0.05056847
-3.6813443	innowacje	-0.0505685
-3.6813443	budżet	-0.0505685
-3.4131832	mld	-0.1376568
-3.6813443	W	-0.05056847
-3.8105571	okresie	-0.0505685
-3.9808235	powojennym	-0.05056847
-3.9808235	naukowy	-0.05056847
-3.9808235	świat	-0.05056847
-3.9808235	uciekł	-0.05056847
-3.9808235	daleko	-0.05056847
-3.9808235	przodu	-0.05056847
-3.526887	polskim	-0.05056847
-3.9808235	badaczom	-0.05056847
-3.9808235	warunkach	-0.05056847
-3.9808235	komunizmu	-0.05056847
-3.9808235	socjalistycznej	-0.05056847
-3.3231564	gospodarki	-0.09605467
-3.9808235	trudno	-0.05056847
-3.526887	uczestniczyć	-0.20442493
-3.8105571	globalnym	-0.14686829
-3.8105571	wyścigu	-0.05056847
-3.8105571	Mamy	-0.05056847
-3.8105571	infrastrukturę	-0.05056847
-3.9808235	aparaturę	-0.05056847
-3.8105571	badawczą	-0.05056847
-3.8105571	największym	-0.05056847
-3.9808235	historii	-0.05056847
-3.8105571	inwestycjom	-0.20442493
-3.526887	naukę	-0.10575287
-3.8105571	szkolnictwo	-0.20442493
-3.2486253	wyższe	-0.05056847
-3.8105571	2007	-0.05056847
-3.8105571	zainwestowaliśmy	-0.05056847
-3.9808235	26	-0.05056847
-3.3231564	złotych	-0.08422876
-3.9808235	niezwykłe	-0.05056847
-3.9808235	utalentowane	-0.05056847
-3.9808235	społeczeństwo	-0.05056847
-3.9808235	uwierzyło	-0.05056847
-3.9808235	wiedzę	-0.05056847
-3.6813443	40	-0.12071874
-3.6813443	każdego	-0.0505685
-3.9808235	rocznika	-0.05056847
-3.9808235	aspiruje	-0.05056847
-3.8105571	wykształcenia	-0.05056847
-3.9808235	Grupa	-0.05056847
-3.0803967	pracowników	-0.12286388
-3.9808235	sektora	-0.05056847
-3.9808235	badawczo-rozwojowego	-0.05056847
-3.9808235	rozwija	-0.05056847
-3.9808235	najdynamiczniej	-0.05056847
-2.7873745	ze	-0.1032196
-3.3231564	wszystkich	-0.08422876
-3.8105571	140	-0.05056847
-3.4131832	tysięcy	-0.15738505
-3.6813443	5	-0.05056847
-3.3231564	więcej	-0.0892576
-3.526887	jeszcze	-0.05056847
-3.8105571	temu	-0.05056847
-3.9808235	najwyższy	-0.05056847
-3.2486253	czas	-0.0892576
-3.9808235	byśmy	-0.05056847
-3.9808235	przesuwali	-0.05056847
-3.9808235	konsekwentnie	-0.05056847
-3.6813443	coraz	-0.14686829
-3.9808235	pozycje	-0.05056847
-3.4131832	Horyzont	-0.46855283
-3.4131832	2020	-0.09605467
-3.6813443	otwiera	-0.0505685
-3.526887	taką	-0.05056847
-3.526887	szansę	-0.1887668
-3.526887	nowy	-0.1376568
-3.9808235	unijny	-0.05056847
-2.9594433	program	-0.10608762
-3.6813443	największe	-0.12071874
-3.9808235	typu	-0.05056847
-3.9808235	przedsięwzięcie	-0.05056847
-3.9808235	podnieść	-0.05056847
-3.9808235	konkurencyjność	-0.05056847
-3.526887	europejskiej	-0.05056847
-3.9808235	wzmocnić	-0.05056847
-3.8105571	pozycję	-0.05056847
-3.526887	zapewnienie	-0.05056847
-3.9808235	uproszczonego	-0.05056847
-3.8105571	modelu	-0.20442493
-3.9808235	finansowego	-0.05056847
-3.9808235	zachowanie	-0.05056847
-3.9808235	równowagi	-0.05056847
-3.9808235	małymi	-0.05056847
-3.9808235	dużymi	-0.05056847
-3.6813443	projektami	-0.0505685
-3.526887	wprowadzenie	-0.05056847
-3.6813443	instrumentów	-0.0505685
-3.9808235	wychodzących	-0.05056847
-3.9808235	naprzeciw	-0.05056847
-3.9808235	potrzebom	-0.05056847
-3.8105571	regionów	-0.0505685
-3.9808235	niższym	-0.05056847
-3.9808235	innowacyjnym	-0.05056847
-3.9808235	wyróżnia	-0.05056847
-3.9808235	spójny	-0.05056847
-3.526887	system	-0.12071874
-3.1295702	finansowania	-0.20456389
-3.4131832	innowacji	-0.07271632
-3.9808235	koncepcji	-0.05056847
-3.6813443	etap	-0.0505685
-3.6813443	wdrożenie	-0.05056847
-2.9594433	nowych	-0.070971966
-3.4131832	rozwiązań	-0.05056847
-3.9808235	produktów	-0.05056847
-3.1295702	technologii	-0.22342291
-3.9808235	oparty	-0.05056847
-3.526887	trzech	-0.05056847
-3.9808235	filarach	-0.05056847
-3.526887	finansowaniu	-0.16898426
-3.9808235	opartego	-0.05056847
-3.9808235	zasadę	-0.05056847
-3.6813443	doskonałości	-0.05056847
-3.9808235	excellence	-0.05056847
-3.9808235	science	-0.05056847
-3.9808235	wzmacniają	-0.05056847
-3.036229	UE	-0.18712008
-3.9808235	przemyśle	-0.05056847
-3.9808235	industrial	-0.05056847
-3.9808235	leadership	-0.05056847
-3.9808235	wyzwań	-0.05056847
-3.4131832	społecznych	-0.10575287
-3.9808235	societal	-0.05056847
-3.9808235	challenges	-0.05056847
-3.9808235	Kluczowym	-0.05056847
-3.9808235	słowem	-0.05056847
-3.9808235	uproszczenie	-0.05056847
-3.9808235	mniej	-0.05056847
-3.9808235	biurokracji	-0.05056847
-3.9808235	sprawniejsze	-0.05056847
-3.9808235	procedury	-0.05056847
-3.526887	przede	-0.28567684
-3.9808235	szybsze	-0.05056847
-3.9808235	pozyskiwanie	-0.05056847
-3.526887	grantów	-0.05056847
-3.9808235	komisarz	-0.05056847
-3.6813443	Marie	-0.14686829
-3.9808235	Geoghegan-Quinn	-0.05056847
-3.6813443	daje	-0.0505685
-3.526887	szereg	-0.05056847
-3.3231564	możliwości	-0.0505685
-3.9808235	małym	-0.05056847
-3.9808235	średnim	-0.05056847
-3.9808235	przedsiębiorstwom	-0.05056847
-3.9808235	zainteresowanym	-0.05056847
-3.9808235	komercjalizacją	-0.05056847
-3.4131832	innowacyjnych	-0.10575287
-3.9808235	Ambicją	-0.05056847
-3.8105571	którzy	-0.0505685
-3.9808235	pracowali	-0.05056847
-3.9808235	Horyzontem	-0.05056847
-3.9808235	stworzenie	-0.05056847
-3.9808235	spójnego	-0.05056847
-3.9808235	laboratoryjne	-0.05056847
-3.9808235	testy	-0.05056847
-3.9808235	demonstratory	-0.05056847
-3.9808235	rynkowe	-0.05056847
-3.6813443	podkreślała	-0.05056847
-3.9808235	Tego	-0.05056847
-3.8105571	potrzebuje	-0.05056847
-3.9808235	Europa	-0.05056847
-3.9808235	mogła	-0.05056847
-3.8105571	konkurencyjna	-0.05056847
-3.8105571	wobec	-0.05056847
-3.9808235	silnych	-0.05056847
-3.9808235	światowych	-0.05056847
-3.9808235	gospodarek	-0.05056847
-3.9808235	Chin	-0.05056847
-3.526887	Japonii	-0.09605467
-3.9808235	stwierdziła	-0.05056847
-3.9808235	brała	-0.05056847
-3.9808235	aktywny	-0.05056847
-3.9808235	przygotowaniach	-0.05056847
-3.4131832	Horyzontu	-0.46855283
-3.4131832	ważne	-0.09605467
-3.9808235	rozstrzygnięcia	-0.05056847
-3.9808235	przypadły	-0.05056847
-3.526887	prezydencji	-0.10575287
-3.9808235	Radzie	-0.05056847
-3.9808235	Byliśmy	-0.05056847
-3.9808235	aktywnym	-0.05056847
-3.6813443	członkiem	-0.0505685
-3.0803967	ds.	-0.12769571
-3.9808235	uproszczeń	-0.05056847
-3.8105571	zakończyła	-0.05056847
-3.8105571	czasie	-0.05056847
-3.9808235	Opracowała	-0.05056847
-3.8105571	ona	-0.05056847
-3.9808235	zbiór	-0.05056847
-3.9808235	konkretnych	-0.05056847
-3.9808235	ułatwiających	-0.05056847
-3.9808235	beneficjentom	-0.05056847
-3.9808235	korzystanie	-0.05056847
-3.9808235	pracom	-0.05056847
-3.9808235	będziemy	-0.05056847
-3.4131832	korzystać	-0.28567684
-3.9808235	prostszego	-0.05056847
-3.9808235	szybszej	-0.05056847
-3.8105571	ścieżki	-0.05056847
-3.4131832	oceny	-0.10575287
-3.9808235	wniosków	-0.05056847
-3.9808235	uproszczonych	-0.05056847
-3.9808235	procedur	-0.05056847
-3.9808235	kontrolnych	-0.05056847
-2.8375177	uczelnie	-0.12847616
-3.4131832	nauka	-0.10575287
-3.9808235	nowym	-0.05056847
-3.8105571	akademickim	-0.0505685
-3.4131832	2013	-0.10575287
-2.8117228	/	-0.05056847
-3.3231564	2014	-0.124094434
-3.9808235	Koncentrowanie	-0.05056847
-3.4131832	jakości	-0.15738505
-3.6813443	edukacji	-0.2467041
-3.9808235	oferta	-0.05056847
-2.742426	studiów	-0.1822181
-3.8105571	szersze	-0.05056847
-3.6813443	otwarcie	-0.0505685
-3.9808235	potrzeby	-0.05056847
-3.9808235	dojrzałych	-0.05056847
-3.4131832	zagranicznych	-0.0505685
-3.9808235	niektóre	-0.05056847
-3.9808235	wyzwania	-0.05056847
-3.9808235	uczelniami	-0.05056847
-3.6813443	musimy	-0.0505685
-3.9808235	większym	-0.05056847
-3.9808235	dotąd	-0.05056847
-3.6813443	stopniu	-0.0505685
-3.9808235	koncentrować	-0.05056847
-3.8105571	wykorzystywać	-0.05056847
-3.9808235	intensywnej	-0.05056847
-3.9808235	europejskimi	-0.05056847
-3.6813443	ośrodkami	-0.14686829
-3.8105571	naukowymi	-0.0505685
-3.9808235	zespołami	-0.05056847
-3.8105571	badawczymi	-0.05056847
-3.9808235	podkreśla	-0.0505685
-3.9808235	akademicki	-0.05056847
-3.8105571	przynosi	-0.05056847
-3.9808235	nowości	-0.05056847
-2.6469758	uczelni	-0.16192752
-3.9808235	pełni	-0.05056847
-3.9808235	autonomii	-0.05056847
-3.9808235	programowej	-0.05056847
-3.9808235	oparciu	-0.05056847
-3.8105571	Krajowe	-0.20442493
-3.9808235	Ramy	-0.05056847
-3.8105571	Kwalifikacji	-0.14686829
-3.8105571	tworzyć	-0.05056847
-3.9808235	autorskie	-0.05056847
-3.4131832	programy	-0.05056847
-3.9808235	profilach	-0.05056847
-3.8105571	ogólnoakademickich	-0.05056847
-2.8375177	lub	-0.05056847
-3.6813443	praktycznych	-0.14686829
-3.9808235	wskażemy	-0.05056847
-3.2486253	kierunki	-0.124094434
-3.8105571	oferują	-0.05056847
-3.9808235	wysoką	-0.05056847
-3.2486253	kształcenia	-0.05056847
-3.3231564	te	-0.08422876
-3.526887	otrzymają	-0.05056847
-3.1295702	1	-0.12286388
-3.9808235	doskonalenie	-0.05056847
-3.9808235	podwyższanie	-0.05056847
-3.3231564	najlepsze	-0.05056847
-3.0803967	jednostki	-0.14209366
-3.9808235	prestiżową	-0.05056847
-3.9808235	kategorię	-0.05056847
-3.9808235	A	-0.05056847
-3.4131832	+	-0.05056847
-3.3231564	one	-0.05056847
-3.9808235	obok	-0.05056847
-3.8105571	Krajowych	-0.05056847
-3.6813443	Naukowych	-0.05056847
-3.9808235	Ośrodków	-0.05056847
-3.9808235	Wiodących	-0.05056847
-3.9808235	wizytówką	-0.05056847
-3.9808235	poznamy	-0.05056847
-3.9808235	KNOW-y	-0.05056847
-3.8105571	dziedzinach	-0.0505685
-3.185031	nauk	-0.08422876
-3.9808235	biologicznych	-0.05056847
-3.9808235	Ziemi	-0.05056847
-3.9808235	rolniczych	-0.05056847
-3.9808235	leśnych	-0.05056847
-3.9808235	weterynaryjnych	-0.05056847
-3.6813443	ośrodki	-0.14686829
-3.9808235	wskaże	-0.05056847
-3.8105571	międzynarodowe	-0.05056847
-3.9808235	grono	-0.05056847
-3.8105571	ekspertów	-0.05056847
-3.9808235	pierwszej	-0.05056847
-3.9808235	rozstrzygniętej	-0.05056847
-3.8105571	wyłoniono	-0.05056847
-3.9808235	sześć	-0.05056847
-3.526887	jednostek	-0.1887668
-3.9808235	ścisłych	-0.05056847
-3.9808235	medycznych	-0.05056847
-3.9808235	farmaceutycznych	-0.05056847
-3.9808235	zdrowiu	-0.05056847
-3.8105571	każdy	-0.05056847
-3.9808235	otrzymuje	-0.05056847
-3.9808235	corocznie	-0.05056847
-3.6813443	10	-0.0505685
-3.526887	wzmocnienie	-0.05056847
-3.6813443	potencjału	-0.0505685
-3.6813443	trwają	-0.0505685
-3.9808235	zmianami	-0.05056847
-3.8105571	prawie	-0.0505685
-3.8105571	szkolnictwie	-0.20442493
-3.9808235	wyższym	-0.05056847
-3.8105571	pozwolą	-0.05056847
-3.8105571	uczelniom	-0.05056847
-3.9808235	poszerzyć	-0.05056847
-3.9808235	ofertę	-0.05056847
-3.9808235	skierować	-0.05056847
-3.9808235	ją	-0.05056847
-3.2486253	zmiany	-0.10664603
-3.9808235	przewidują	-0.05056847
-3.9808235	staną	-0.05056847
-3.8105571	właścicielami	-0.20442493
-3.526887	praw	-0.20442493
-3.9808235	majątkowych	-0.05056847
-3.4131832	wynalazków	-0.10575287
-3.6813443	innych	-0.05056847
-3.9808235	efektów	-0.05056847
-3.8105571	realizowanych	-0.20442493
-3.4131832	nich	-0.05056847
-3.185031	projektów	-0.08035728
-3.2486253	rząd	-0.08422876
-3.8105571	przyjął	-0.0505685
-3.9808235	zamówieniach	-0.05056847
-3.8105571	publicznych	-0.05056847
-3.9808235	Ważnym	-0.05056847
-3.8105571	wyzwaniem	-0.05056847
-3.4131832	przygotowanie	-0.05056847
-3.9808235	konkurowania	-0.05056847
-3.8105571	unijnej	-0.05056847
-3.9808235	perspektywie	-0.05056847
-3.8105571	finansowej	-0.05056847
-3.6813443	2014-2020	-0.12071874
-3.6813443	programie	-0.0505685
-3.6813443	przewidziano	-0.0505685
-3.6813443	mogli	-0.0505685
-3.9808235	operacyjnych	-0.0505685
-3.9808235	uruchomione	-0.05056847
-3.3231564	zostaną	-0.0505685
-3.8105571	konkursy	-0.05056847
-3.9808235	służące	-0.05056847
-3.9808235	rozwojowi	-0.05056847
-3.9808235	inteligentnych	-0.05056847
-3.9808235	specjalizacji	-0.05056847
-3.4131832	kraju	-0.10575287
-3.9808235	mające	-0.05056847
-3.9808235	celu	-0.0505685
-3.526887	międzynarodowej	-0.05056847
-3.9808235	kompetencji	-0.05056847
-3.8105571	kadry	-0.05056847
-3.6813443	akademickiej	-0.0505685
-3.9808235	wzmocnieniu	-0.05056847
-3.185031	przy	-0.12071874
-3.6813443	badaniach	-0.14686829
-3.8105571	krajami	-0.05056847
-3.9808235	basenu	-0.05056847
-3.8105571	Morza	-0.05056847
-3.9808235	Śródziemnego	-0.05056847
-3.9808235	rozmawiali	-0.05056847
-3.9808235	unijni	-0.05056847
-3.3231564	ministrowie	-0.05056847
-3.9808235	zakończonym	-0.05056847
-3.9808235	dzisiaj	-0.05056847
-3.6813443	spotkaniu	-0.14686829
-3.8105571	COMPET	-0.05056847
-3.6813443	takie	-0.0505685
-3.8105571	partnerstwo	-0.05056847
-3.526887	istotne	-0.05056847
-3.9808235	obliczu	-0.05056847
-3.6813443	ostatnich	-0.0505685
-3.8105571	zmian	-0.05056847
-3.9808235	politycznych	-0.05056847
-3.6813443	miały	-0.05056847
-3.8105571	krajach	-0.05056847
-3.9808235	śródziemnomorskich	-0.05056847
-3.526887	zwróciła	-0.10575287
-3.6813443	uwagę	-0.22929545
-3.8105571	Unia	-0.20442493
-3.8105571	Europejska	-0.0505685
-3.9808235	długoterminowego	-0.05056847
-3.9808235	planu	-0.05056847
-3.9808235	obszarze	-0.05056847
-3.9808235	południowymi	-0.05056847
-3.9808235	sąsiadami	-0.05056847
-3.9808235	Wierzę	-0.05056847
-3.9808235	rodzaju	-0.05056847
-3.2486253	współpraca	-0.08035728
-3.9808235	oparta	-0.05056847
-3.4131832	może	-0.05056847
-3.8105571	wyraźnie	-0.05056847
-3.8105571	zwiększyć	-0.05056847
-3.1295702	Unii	-0.49980772
-3.8105571	dodała	-0.05056847
-3.526887	jednym	-0.37164283
-3.8105571	obszarów	-0.0505685
-3.4131832	rozmów	-0.05056847
-3.9808235	najbliższych	-0.05056847
-3.9808235	przyjęciu	-0.05056847
-3.8105571	realizacja	-0.05056847
-3.9808235	przeznaczyć	-0.05056847
-3.4131832	80	-0.05056847
-3.9808235	dotycząca	-0.05056847
-3.9808235	kluczową	-0.05056847
-3.6813443	kwestią	-0.0505685
-3.9808235	cypryjskiej	-0.05056847
-3.526887	kwestie	-0.05056847
-3.8105571	wynagrodzeń	-0.05056847
-3.9808235	zaangażowanych	-0.05056847
-3.3231564	projekty	-0.0892576
-3.9808235	ramowego	-0.05056847
-3.9808235	kwestii	-0.05056847
-3.4131832	powinny	-0.05056847
-3.9808235	wprowadzone	-0.05056847
-3.9808235	odpowiednie	-0.05056847
-3.526887	rozwiązania	-0.05056847
-3.9808235	przekonana	-0.05056847
-3.9808235	stanie	-0.05056847
-3.9808235	obecnej	-0.05056847
-3.8105571	przyszłych	-0.05056847
-3.8105571	powiedziała	-0.05056847
-3.9808235	misji	-0.05056847
-3.9808235	ERC	-0.05056847
-3.9808235	szczególnie	-0.05056847
-3.9808235	kontekście	-0.05056847
-3.6813443	utrzymania	-0.0505685
-3.9808235	odpowiednim	-0.05056847
-3.8105571	poziomie	-0.05056847
-3.526887	udziału	-0.05056847
-3.526887	realizacji	-0.05056847
-3.6813443	społeczeństwa	-0.14686829
-3.8105571	wzięli	-0.20442493
-3.1295702	państw	-0.112340786
-3.8105571	członkowskich	-0.05056847
-3.4131832	Europejskiego	-0.15738505
-3.9808235	Stowarzyszenia	-0.05056847
-3.9808235	Wolnego	-0.05056847
-3.9808235	Handlu	-0.05056847
-3.9808235	EFTA	-0.05056847
-3.8105571	ostatnie	-0.05056847
-3.9808235	nieformalne	-0.05056847
-3.8105571	ministrów	-0.20442493
-3.9808235	obecnego	-0.05056847
-3.9808235	Trio	-0.05056847
-3.9808235	Danii	-0.05056847
-3.9808235	Cypru	-0.05056847
-3.526887	odbyło	-0.37164283
-3.9808235	Cyprze	-0.05056847
-3.9808235	sprawującym	-0.05056847
-3.8105571	przewodnictwo	-0.20442493
-3.9808235	Rada	-0.05056847
-3.8105571	konkurencyjności	-0.05056847
-3.6813443	jedną	-0.2467041
-3.9808235	rad	-0.05056847
-3.9808235	sektorowych	-0.05056847
-3.6813443	której	-0.0505685
-3.9808235	reprezentujący	-0.05056847
-3.6813443	poszczególne	-0.0505685
-3.9808235	resorty	-0.05056847
-3.9808235	omawiają	-0.05056847
-3.6813443	sprawy	-0.0505685
-3.2486253	dotyczące	-0.05056847
-3.8105571	swobodnego	-0.05056847
-3.9808235	przepływu	-0.05056847
-3.9808235	towarów	-0.05056847
-3.9808235	świadczenia	-0.05056847
-3.9808235	usług	-0.05056847
-3.8105571	przedsiębiorczości	-0.14686829
-3.9808235	polityk	-0.05056847
-3.9808235	wzmocnienia	-0.05056847
-3.9808235	bazy	-0.05056847
-3.9808235	technologicznej	-0.05056847
-3.4131832	przemysłu	-0.05056847
-3.9808235	1981	-0.05056847
-3.4131832	stopień	-0.15738505
-3.9808235	doktora	-0.0505685
-3.8105571	technicznych	-0.0505685
-3.9808235	Politechnice	-0.05056847
-3.9808235	DSc	-0.05056847
-3.9808235	Doctor	-0.05056847
-3.9808235	Uniwersytecie	-0.05056847
-3.8105571	Queensland	-0.0505685
-3.8105571	The	-0.05056847
-3.9808235	Australii	-0.05056847
-3.6813443	2004	-0.05056847
-3.9808235	habilitowanego	-0.05056847
-3.9808235	Instytucie	-0.05056847
-3.9808235	Podstaw	-0.05056847
-3.526887	Informatyki	-0.05056847
-3.8105571	Australijskiej	-0.05056847
-3.9808235	-2007	-0.05056847
-3.9808235	związana	-0.05056847
-3.9808235	Uniwersytetem	-0.05056847
-3.9808235	1990	-0.05056847
-3.8105571	uzyskała	-0.05056847
-3.9808235	nominację	-0.05056847
-3.9808235	profesora	-0.05056847
-3.9808235	Computer	-0.05056847
-3.9808235	1995	-0.05056847
-3.9808235	pełniła	-0.05056847
-3.9808235	funkcje	-0.05056847
-3.9808235	dyrektora	-0.05056847
-3.9808235	spraw	-0.05056847
-3.8105571	doktorskich	-0.05056847
-3.6813443	strategii	-0.14686829
-3.8105571	ponadto	-0.0505685
-3.9808235	wieloletnim	-0.05056847
-3.8105571	kierownikiem	-0.05056847
-3.9808235	komisji	-0.05056847
-3.9808235	rozdziału	-0.05056847
-3.9808235	narodowych	-0.05056847
-3.4131832	funduszy	-0.10575287
-3.8105571	wdrożeniowe	-0.05056847
-3.9808235	Spraw	-0.0505685
-3.9808235	Australian	-0.05056847
-3.6813443	Research	-0.14686829
-3.9808235	Council	-0.05056847
-3.526887	Orłowska	-0.05056847
-3.9808235	autorem	-0.05056847
-3.9808235	współautorem	-0.05056847
-3.8105571	czasopismach	-0.05056847
-3.9808235	Przewodniczyła	-0.05056847
-3.8105571	międzynarodowym	-0.05056847
-3.9808235	konferencjom	-0.05056847
-3.9808235	informatyki	-0.05056847
-3.9808235	stosowanej	-0.05056847
-3.9808235	Wypromowała	-0.05056847
-3.9808235	pory	-0.0505685
-3.9808235	32	-0.05056847
-3.9808235	doktorów	-0.05056847
-3.9808235	informatycznych	-0.05056847
-3.8105571	rosną	-0.05056847
-3.6813443	nakłady	-0.1887668
-3.526887	pomoc	-0.05056847
-3.9808235	materialną	-0.05056847
-3.6813443	uczelniach	-0.05056847
-3.6813443	pieniędzy	-0.05056847
-3.9808235	trafia	-0.05056847
-3.8105571	najniższych	-0.05056847
-3.9808235	dochodach	-0.05056847
-3.9808235	dzisiejszym	-0.05056847
-3.6813443	posiedzeniu	-0.0505685
-3.8105571	sejmowej	-0.05056847
-3.9808235	podkomisji	-0.05056847
-3.9808235	ekonomiki	-0.05056847
-3.526887	wiceminister	-0.05056847
-3.8105571	podkreślił	-0.20442493
-3.9808235	obecny	-0.05056847
-3.3231564	pomocy	-0.2046036
-3.9808235	materialnej	-0.05056847
-3.8105571	pozwala	-0.05056847
-3.8105571	aby	-0.05056847
-3.9808235	takich	-0.05056847
-3.9808235	samych	-0.05056847
-3.8105571	zasadach	-0.05056847
-3.3231564	otrzymać	-0.05056847
-3.036229	studenci	-0.116357766
-3.9808235	niepublicznych	-0.05056847
-3.6813443	dodał	-0.14686829
-3.9808235	wątpi	-0.05056847
-3.9808235	iż	-0.05056847
-3.6813443	służą	-0.0505685
-3.9808235	wzór	-0.05056847
-3.8105571	dobrych	-0.20442493
-3.526887	praktyk	-0.0505685
-3.9808235	warto	-0.05056847
-3.9808235	rozpowszechniać	-0.05056847
-3.6813443	2010	-0.14686829
-3.8105571	10,7	-0.05056847
-3.4131832	%	-0.05056847
-3.8105571	reformie	-0.0505685
-3.9808235	zmieniły	-0.05056847
-3.9808235	proporcje	-0.05056847
-3.9808235	jakich	-0.05056847
-3.9808235	rozdzielane	-0.05056847
-3.526887	pieniądze	-0.05056847
-3.1295702	stypendia	-0.12071874
-3.8105571	socjalne	-0.0505685
-3.8105571	zapomogi	-0.05056847
-3.9808235	równego	-0.05056847
-3.9808235	podziału	-0.05056847
-3.8105571	obie	-0.05056847
-3.6813443	formy	-0.14686829
-3.9808235	wprowadzona	-0.05056847
-3.6813443	zasada	-0.0505685
-3.9808235	przeznaczanych	-0.05056847
-3.526887	60	-0.05056847
-3.3231564	dotacji	-0.0892576
-3.9808235	Podniesione	-0.05056847
-3.4131832	zostały	-0.0505685
-3.9808235	kryteria	-0.05056847
-3.9808235	dochodowe	-0.05056847
-3.9808235	uprawniające	-0.05056847
-3.9808235	ubiegania	-0.05056847
-2.9961414	stypendium	-0.1376568
-3.4131832	października	-0.08422876
-3.9808235	minimalna	-0.05056847
-3.9808235	kwota	-0.05056847
-3.9808235	dochodu	-0.05056847
-3.8105571	jednego	-0.05056847
-3.9808235	członka	-0.05056847
-3.9808235	rodziny	-0.05056847
-3.9808235	studenta	-0.05056847
-3.9808235	uprawniająca	-0.05056847
-3.9808235	uzyskania	-0.05056847
-3.9808235	socjalnego	-0.05056847
-3.9808235	wyniesie	-0.05056847
-3.9808235	592,8	-0.05056847
-3.9808235	netto	-0.05056847
-3.9808235	jednak	-0.05056847
-3.8105571	podjąć	-0.05056847
-3.9808235	decyzję	-0.05056847
-3.9808235	podniesieniu	-0.05056847
-3.9808235	progu	-0.05056847
-3.8105571	maksymalnie	-0.05056847
-3.9808235	782,6	-0.05056847
-3.8105571	listopada	-0.05056847
-3.9808235	850,2	-0.05056847
-3.4131832	realizację	-0.0505685
-3.3231564	doktorantów	-0.11419358
-3.8105571	otrzymują	-0.05056847
-3.9808235	dotację	-0.05056847
-3.6813443	budżetu	-0.0505685
-3.526887	państwa	-0.10575287
-3.9808235	mimo	-0.05056847
-3.9808235	zmniejszającej	-0.05056847
-3.4131832	liczby	-0.15738505
-3.9808235	wyniosą	-0.05056847
-3.9808235	664	-0.05056847
-3.9808235	porównaniu	-0.05056847
-3.9808235	559	-0.05056847
-3.9808235	933	-0.05056847
-3.9808235	034	-0.05056847
-3.8105571	natomiast	-0.05056847
-3.6813443	2011	-0.16898426
-3.9808235	801	-0.05056847
-3.9808235	533	-0.05056847
-3.9808235	dzielone	-0.05056847
-3.9808235	różne	-0.05056847
-3.9808235	Oprócz	-0.05056847
-3.9808235	powstało	-0.05056847
-3.9808235	połączenia	-0.05056847
-3.9808235	obowiązujących	-0.05056847
-3.8105571	wcześniej	-0.05056847
-3.9808235	mieszkaniowego	-0.05056847
-3.9808235	wyżywienie	-0.05056847
-3.9808235	doktoranci	-0.05056847
-3.8105571	rektora	-0.05056847
-3.6813443	specjalne	-0.0505685
-3.9808235	niepełnosprawnych	-0.05056847
-3.9808235	zapomogę	-0.05056847
-3.9808235	zastąpiło	-0.05056847
-3.9808235	dotychczasowe	-0.05056847
-3.185031	wyniki	-0.10664603
-3.8105571	przyznawać	-0.05056847
-3.9808235	średnią	-0.05056847
-3.9808235	ocen	-0.05056847
-3.9808235	szczególne	-0.05056847
-3.526887	osiągnięcia	-0.09605467
-3.8105571	artystyczne	-0.20442493
-3.9808235	akademickiego	-0.05056847
-3.8105571	starać	-0.05056847
-3.4131832	nowe	-0.07478692
-3.8105571	wybitne	-0.20442493
-3.4131832	można	-0.05056847
-3.9808235	łączyć	-0.05056847
-3.8105571	ciągu	-0.0505685
-3.6813443	100	-0.0505685
-3.9808235	wynosić	-0.05056847
-3.526887	15	-0.05056847
-3.526887	25	-0.05056847
-3.9808235	wypłacane	-0.05056847
-3.9808235	jednorazowo	-0.05056847
-3.9808235	2008-2011	-0.05056847
-3.6813443	wysokość	-0.0505685
-3.4131832	stypendiów	-0.16898426
-3.9808235	wynosiła	-0.05056847
-3.9808235	1300	-0.05056847
-3.8105571	miesięcznie	-0.05056847
-3.9808235	Reforma	-0.05056847
-3.9808235	wprowadziła	-0.05056847
-3.9808235	dodatkowego	-0.05056847
-3.8105571	wsparcia	-0.05056847
-3.4131832	Diamentowy	-0.46855283
-3.9808235	umożliwiają	-0.05056847
-3.9808235	wybitnie	-0.05056847
-3.9808235	uzdolnionym	-0.05056847
-3.185031	studentom	-0.08422876
-3.9808235	prowadzącym	-0.05056847
-3.9808235	skrócenie	-0.05056847
-3.9808235	wysokości	-0.05056847
-3.9808235	200	-0.05056847
-3.6813443	wsparcie	-0.0505685
-3.9808235	rządowym	-0.05056847
-3.526887	kierunków	-0.12071874
-3.9808235	zamawianych	-0.05056847
-3.8105571	realizowanym	-0.05056847
-3.9808235	2008	-0.05056847
-3.9808235	6,2	-0.05056847
-3.8105571	tysiąca	-0.05056847
-3.9808235	52	-0.05056847
-3.9808235	maksymalna	-0.05056847
-3.9808235	podstawy	-0.05056847
-3.8105571	prawne	-0.05056847
-3.6813443	przyznawania	-0.14686829
-3.8105571	doktorantom	-0.05056847
-3.9808235	samorządu	-0.05056847
-3.9808235	terytorialnego	-0.05056847
-3.8105571	osoby	-0.05056847
-3.9808235	fizyczne	-0.05056847
-3.526887	przyznawane	-0.10575287
-3.9808235	wolne	-0.05056847
-3.8105571	podatku	-0.0505685
-3.9808235	dochodowego	-0.05056847
-3.9808235	fundacje	-0.05056847
-3.9808235	stowarzyszenia	-0.05056847
-3.8105571	kwoty	-0.05056847
-3.9808235	3,8	-0.05056847
-3.9808235	Zmianie	-0.05056847
-3.9808235	uległy	-0.05056847
-3.185031	zasady	-0.05056847
-3.9808235	przeznaczania	-0.05056847
-3.9808235	Poprzednio	-0.05056847
-3.6813443	przeznaczone	-0.0505685
-3.6813443	tą	-0.0505685
-3.526887	mogły	-0.05056847
-3.9808235	przekroczyć	-0.05056847
-3.9808235	3	-0.05056847
-3.9808235	ogólnej	-0.05056847
-3.9808235	przyznaną	-0.05056847
-3.9808235	Kolejni	-0.05056847
-3.6813443	laureaci	-0.0505685
-3.6813443	TOP	-0.2467041
-3.3231564	500	-0.0892576
-3.9808235	ruszają	-0.05056847
-3.9808235	podbój	-0.05056847
-3.9808235	Doliny	-0.05056847
-3.9808235	Krzemowej	-0.05056847
-3.9808235	III	-0.05056847
-3.9808235	Top	-0.05056847
-3.9808235	Innovators	-0.0505685
-3.9808235	październiku	-0.05056847
-3.9808235	wyruszy	-0.05056847
-3.9808235	dwumiesięczny	-0.05056847
-3.8105571	staż	-0.05056847
-3.9808235	jednych	-0.05056847
-3.4131832	poziom	-0.05056847
-3.6813443	zależy	-0.0505685
-3.9808235	twardych	-0.05056847
-3.8105571	kryteriów	-0.0505685
-3.526887	obecnie	-0.0505685
-3.9808235	stałego	-0.05056847
-3.9808235	woli	-0.05056847
-3.8105571	chęci	-0.05056847
-3.9808235	sympatii	-0.05056847
-3.9808235	spełnianych	-0.05056847
-3.6813443	osiągnięć	-0.14686829
-3.9808235	czwartek	-0.05056847
-3.9808235	Sejmie	-0.05056847
-3.6813443	jednocześnie	-0.0505685
-3.9808235	móc	-0.05056847
-3.9808235	określić	-0.05056847
-3.6813443	środki	-0.05056847
-3.036229	mają	-0.069482364
-3.9808235	pójść	-0.05056847
-3.8105571	poszczególnych	-0.05056847
-3.8105571	mieć	-0.05056847
-3.9808235	weryfikowalne	-0.05056847
-3.8105571	dane	-0.05056847
-3.8105571	wartość	-0.05056847
-3.9808235	ankiet	-0.05056847
-3.9808235	pracownicy	-0.05056847
-3.8105571	muszą	-0.05056847
-3.9808235	wypełniać	-0.05056847
-3.9808235	Odpowiedziała	-0.05056847
-3.6813443	ten	-0.10575287
-3.9808235	zarzut	-0.05056847
-3.8105571	ustawy	-0.05056847
-3.9808235	reformujące	-0.05056847
-3.9808235	spowodowały	-0.05056847
-3.9808235	zwiększenie	-0.05056847
-3.9808235	obciążeń	-0.05056847
-3.9808235	administracyjnych	-0.05056847
-3.9808235	biurokratycznych	-0.05056847
-3.9808235	wynika	-0.05056847
-3.9808235	nieustannie	-0.05056847
-3.8105571	sporządzanych	-0.05056847
-3.9808235	raportów	-0.05056847
-3.9808235	sprawozdań	-0.05056847
-3.9808235	ktoś	-0.05056847
-3.9808235	czyta	-0.05056847
-3.9808235	sporządzane	-0.05056847
-3.526887	wnioski	-0.05056847
-3.9808235	poprawia	-0.05056847
-3.6813443	funkcjonowanie	-0.0505685
-3.9808235	wyjaśniała	-0.05056847
-3.9808235	względu	-0.05056847
-3.9808235	demograficzny	-0.05056847
-3.9808235	przeprowadzać	-0.05056847
-3.8105571	analizy	-0.05056847
-3.9808235	kontynuować	-0.05056847
-3.9808235	danego	-0.05056847
-3.6813443	regionu	-0.0505685
-3.9808235	zapewnioną	-0.05056847
-3.9808235	dobrą	-0.05056847
-3.9808235	kadrę	-0.05056847
-3.9808235	dydaktyczną	-0.05056847
-3.8105571	końca	-0.05056847
-3.9808235	tworzą	-0.05056847
-3.9808235	chwili	-0.05056847
-3.9808235	własne	-0.05056847
-3.9808235	przeanalizować	-0.05056847
-3.4131832	prowadzone	-0.10575287
-3.9808235	zastanowić	-0.05056847
-3.9808235	aktualne	-0.05056847
-3.8105571	zmienić	-0.05056847
-3.9808235	odpowiadały	-0.05056847
-3.9808235	bieżące	-0.05056847
-3.9808235	problemy	-0.05056847
-3.9808235	cywilizacyjne	-0.05056847
-3.9808235	Ci	-0.05056847
-3.9808235	zrobią	-0.05056847
-3.6813443	dobrze	-0.0505685
-3.9808235	milion	-0.05056847
-3.9808235	argumentowała	-0.05056847
-3.8105571	posłanka	-0.20442493
-3.8105571	PiS	-0.14686829
-3.8105571	uniwersytety	-0.05056847
-3.9808235	zachować	-0.05056847
-3.6813443	swoją	-0.0505685
-3.9808235	dotychczasową	-0.05056847
-3.9808235	zapewniać	-0.05056847
-3.9808235	solidne	-0.05056847
-3.9808235	wykształcenie	-0.05056847
-3.9808235	danej	-0.05056847
-3.2486253	umiejętności	-0.05056847
-3.6813443	zawodowe	-0.0505685
-3.9808235	absolwenci	-0.05056847
-3.9808235	powinni	-0.05056847
-3.9808235	zdobywać	-0.05056847
-3.8105571	pracodawców	-0.20442493
-3.9808235	uczy	-0.05056847
-3.9808235	uczył	-0.05056847
-3.9808235	prostych	-0.05056847
-3.6813443	zawodów	-0.0505685
-3.9808235	poseł	-0.05056847
-3.8105571	wyjaśniła	-0.05056847
-3.9808235	przygotowywanej	-0.05056847
-3.8105571	resort	-0.14686829
-3.9808235	chce	-0.05056847
-3.9808235	podzielić	-0.05056847
-3.526887	szkoły	-0.12071874
-3.9808235	charakterze	-0.05056847
-3.8105571	uniwersyteckim	-0.05056847
-3.8105571	ogólnoakademickim	-0.20442493
-3.9808235	czwartkowej	-0.05056847
-3.9808235	zwrócono	-0.05056847
-3.9808235	poprawą	-0.05056847
-3.526887	warunków	-0.12071874
-3.9808235	materialnych	-0.05056847
-3.9808235	wzrastają	-0.05056847
-3.9808235	odpowiednio	-0.05056847
-3.9808235	wynagrodzenia	-0.05056847
-3.9808235	Zwiększamy	-0.05056847
-3.9808235	płace	-0.05056847
-3.8105571	cel	-0.0505685
-3.9808235	przeznaczono	-0.05056847
-3.9808235	907	-0.05056847
-3.9808235	Józefa	-0.05056847
-3.9808235	Hrynkiewicz	-0.05056847
-3.6813443	konkursach	-0.0505685
-3.9808235	dzieli	-0.05056847
-3.6813443	wiek	-0.0505685
-3.9808235	Dzielenie	-0.05056847
-3.8105571	środowiska	-0.05056847
-3.8105571	według	-0.05056847
-3.6813443	35.	-0.2467041
-3.9808235	życia	-0.05056847
-3.9808235	uzasadnienia	-0.05056847
-3.8105571	większości	-0.05056847
-3.9808235	dyscyplin	-0.05056847
-3.9808235	najlepszy	-0.05056847
-3.9808235	przychodzi	-0.05056847
-3.9808235	nabywanym	-0.05056847
-3.8105571	doświadczeniem	-0.05056847
-3.8105571	badawczym	-0.05056847
-3.9808235	adresowanych	-0.05056847
-3.8105571	powyżej	-0.05056847
-3.9808235	część	-0.05056847
-3.9808235	przeznaczonych	-0.05056847
-3.9808235	wyłącznie	-0.05056847
-3.8105571	poniżej	-0.05056847
-3.9808235	Dlaczego	-0.05056847
-3.9808235	25-latek	-0.05056847
-3.8105571	konkurować	-0.05056847
-3.9808235	kimś	-0.05056847
-3.9808235	kto	-0.05056847
-3.9808235	dużo	-0.05056847
-3.9808235	większy	-0.05056847
-3.9808235	dorobek	-0.05056847
-3.9808235	habilitację	-0.05056847
-3.8105571	dlatego	-0.05056847
-3.9808235	wzorem	-0.05056847
-3.526887	Komisji	-0.12071874
-3.9808235	wprowadziliśmy	-0.05056847
-3.8105571	sobą	-0.0505685
-3.9808235	odpowiadała	-0.05056847
-3.9808235	Rektorzy	-0.05056847
-3.9808235	wystosowanym	-0.05056847
-3.9808235	oświadczeniu	-0.05056847
-3.9808235	wyjaśniali	-0.05056847
-3.9808235	Rońda	-0.05056847
-3.9808235	Obrębski	-0.05056847
-3.8105571	specjalistami	-0.05056847
-3.9808235	przyczyn	-0.05056847
-3.9808235	katastrof	-0.05056847
-3.9808235	lotniczych	-0.05056847
-3.9808235	inspirowałam	-0.05056847
-3.9808235	żadnych	-0.05056847
-3.9808235	wystąpień	-0.05056847
-3.6813443	rektorów	-0.0505685
-3.9808235	miałam	-0.05056847
-3.9808235	nic	-0.05056847
-3.9808235	wspólnego	-0.05056847
-3.9808235	Kierownictwo	-0.05056847
-3.036229	MNiSW	-0.10043611
-3.9808235	składzie	-0.05056847
-3.9808235	Odchodzący	-0.05056847
-3.9808235	wiceministrowie	-0.05056847
-3.9808235	wypełniali	-0.05056847
-3.9808235	misję	-0.05056847
-3.9808235	duży	-0.05056847
-3.9808235	przeprowadzonych	-0.05056847
-3.9808235	reformach	-0.05056847
-3.9808235	usprawnieniu	-0.05056847
-3.8105571	resortu	-0.05056847
-3.9808235	pracach	-0.05056847
-3.9808235	Komitetu	-0.05056847
-3.9808235	Ministrów	-0.05056847
-3.9808235	Cyfryzacji	-0.05056847
-3.8105571	współpracować	-0.20442493
-3.9808235	Radą	-0.05056847
-3.6813443	Szkolnictwa	-0.2467041
-3.9808235	Wyższego	-0.05056847
-3.9808235	Komitetem	-0.05056847
-3.8105571	Polityki	-0.20442493
-3.9808235	Naukowej	-0.05056847
-3.9808235	Karpiński	-0.05056847
-3.6813443	nadzorować	-0.14686829
-3.3231564	Programu	-0.14686829
-3.9808235	określającego	-0.05056847
-3.8105571	strategiczne	-0.05056847
-3.4131832	prac	-0.10575287
-3.9808235	rozwojowych	-0.05056847
-3.9808235	molekularną	-0.05056847
-3.9808235	fizjologią	-0.05056847
-3.9808235	roślin	-0.05056847
-3.9808235	biotechnologią	-0.05056847
-3.9808235	szczególnym	-0.05056847
-3.9808235	uwzględnieniem	-0.05056847
-3.8105571	procesów	-0.05056847
-3.9808235	fotosyntezy	-0.05056847
-3.4131832	reformy	-0.15738505
-3.9808235	koordynować	-0.05056847
-3.9808235	Procesu	-0.05056847
-3.9808235	Bolońskiego	-0.05056847
-3.9808235	Obszaru	-0.05056847
-3.9808235	Ram	-0.05056847
-3.9808235	Nałęcz	-0.05056847
-3.9808235	Centralną	-0.05056847
-3.8105571	Komisją	-0.05056847
-3.9808235	Stopni	-0.05056847
-3.9808235	Tytułów	-0.05056847
-3.4131832	Polską	-0.05056847
-3.9808235	Akredytacyjną	-0.05056847
-3.9808235	konferencjami	-0.05056847
-3.9808235	Parlamentem	-0.05056847
-3.9808235	Studentów	-0.05056847
-3.9808235	Rzeczypospolitej	-0.05056847
-3.9808235	Krajową	-0.05056847
-3.9808235	Reprezentacją	-0.05056847
-3.9808235	Doktorantów	-0.05056847
-3.9808235	Fundacją	-0.05056847
-3.526887	Rozwoju	-0.09605467
-3.9808235	Systemu	-0.05056847
-3.9808235	Edukacji	-0.05056847
-3.8105571	Ewaluacji	-0.20442493
-3.9808235	Jednostek	-0.05056847
-3.9808235	Akademią	-0.05056847
-3.9808235	Jacek	-0.05056847
-3.8105571	Guliński	-0.05056847
-3.8105571	polityki	-0.05056847
-3.526887	innowacyjności	-0.10575287
-3.9808235	pracować	-0.05056847
-3.9808235	zbliżenia	-0.05056847
-3.9808235	gospodarką	-0.05056847
-3.9808235	działalnością	-0.05056847
-3.9808235	parków	-0.05056847
-3.6813443	technologicznych	-0.14686829
-3.526887	centrów	-0.10575287
-3.9808235	zaawansowanych	-0.05056847
-3.9808235	platform	-0.05056847
-3.9808235	inkubatorów	-0.05056847
-3.8105571	regionalnych	-0.05056847
-3.8105571	transferu	-0.20442493
-3.2486253	instytucji	-0.0892576
-3.9808235	pośredniczących	-0.05056847
-3.9808235	wspierających	-0.05056847
-3.9808235	proinnowacyjne	-0.05056847
-3.6813443	organizacją	-0.0505685
-3.9808235	przekształcaniem	-0.05056847
-3.9808235	instytutów	-0.05056847
-3.9808235	Instytutów	-0.05056847
-3.9808235	Badawczych	-0.05056847
-3.9808235	związkami	-0.05056847
-3.9808235	zawodowymi	-0.05056847
-3.6813443	infrastruktury	-0.14686829
-3.6813443	inwestycji	-0.05056847
-3.9808235	wieloletnich	-0.05056847
-3.9808235	Chemii	-0.05056847
-3.6813443	UAM	-0.0505685
-3.9808235	prorektorem	-0.05056847
-3.185031	europejskich	-0.08422876
-3.9808235	Uczelnianego	-0.05056847
-3.6813443	Innowacji	-0.05056847
-3.9808235	Transferu	-0.05056847
-3.8105571	Technologii	-0.05056847
-3.8105571	Dyrektora	-0.05056847
-3.9808235	Poznańskiego	-0.05056847
-3.9808235	Parku	-0.05056847
-3.9808235	Naukowo-Technologicznego	-0.05056847
-3.526887	Lena	-0.37164283
-3.8105571	Kolarska-Bobińska	-0.0892576
-3.9808235	zaprzysiężona	-0.05056847
-3.9808235	urząd	-0.05056847
-3.9808235	I.	-0.05056847
-3.9808235	Rząd	-0.05056847
-3.9808235	uczynił	-0.05056847
-3.6813443	swoich	-0.0505685
-3.8105571	priorytetów	-0.05056847
-3.2486253	strony	-0.05056847
-3.9808235	zbudować	-0.05056847
-3.9808235	zaplecze	-0.05056847
-3.8105571	organizacyjne	-0.05056847
-3.9808235	administracyjne	-0.05056847
-3.9808235	wspomagające	-0.05056847
-3.9808235	sięganiu	-0.05056847
-3.9808235	V.	-0.05056847
-3.9808235	Większe	-0.05056847
-3.8105571	szanse	-0.05056847
-3.526887	absolwentów	-0.05056847
-3.526887	rynku	-0.15738505
-3.6813443	kształcenie	-0.0505685
-3.9808235	wymaga	-0.05056847
-3.9808235	dostosowania	-0.05056847
-3.9808235	wymogów	-0.05056847
-3.9808235	ruszył	-0.05056847
-3.9808235	pilotaż	-0.05056847
-3.9808235	Kompetencji	-0.05056847
-3.9808235	którego	-0.05056847
-3.9808235	nabędą	-0.05056847
-3.6813443	kompetencje	-0.0505685
-3.9808235	poszukiwane	-0.05056847
-3.9808235	Potrzeba	-0.05056847
-3.9808235	ułatwienia	-0.05056847
-3.9808235	uczniom	-0.05056847
-3.9808235	rodzicom	-0.05056847
-3.8105571	wyboru	-0.05056847
-3.9808235	odpowiednich	-0.05056847
-3.9808235	spowodowała	-0.05056847
-3.9808235	portalu	-0.05056847
-3.9808235	Wybierz	-0.05056847
-3.185031	studia	-0.08035728
-3.9808235	VI	-0.05056847
-3.8105571	Od	-0.05056847
-3.9808235	pomysłu	-0.05056847
-3.9808235	Powstał	-0.05056847
-3.9808235	pełen	-0.05056847
-3.9808235	zestaw	-0.05056847
-3.8105571	finansowych	-0.05056847
-3.9808235	wspierający	-0.05056847
-3.9808235	procesu	-0.05056847
-3.9808235	innowacyjnego	-0.05056847
-3.9808235	pracujemy	-0.05056847
-3.9808235	wzmocnieniem	-0.05056847
-3.9808235	nauką	-0.05056847
-3.8105571	biznesem	-0.05056847
-3.8105571	humanistyki	-0.05056847
-3.4131832	poprzez	-0.05056847
-3.8105571	opracowanie	-0.05056847
-3.9808235	zrealizowanie	-0.05056847
-3.9808235	zaproponowanych	-0.05056847
-3.9808235	Pakiecie	-0.05056847
-3.9808235	student	-0.05056847
-3.9808235	wybierał	-0.05056847
-3.4131832	oferty	-0.05056847
-3.6813443	zajęć	-0.0505685
-3.9808235	ogólnouniwersyteckich	-0.05056847
-3.9808235	niepowiązanych	-0.05056847
-3.9808235	ściśle	-0.05056847
-3.9808235	kierunkiem	-0.05056847
-2.9961414	2015	-0.106326826
-3.9808235	Lepsze	-0.05056847
-3.8105571	humanistycznych	-0.05056847
-3.9808235	wymagań	-0.05056847
-3.9808235	realizowanie	-0.05056847
-3.9808235	Zmiana	-0.05056847
-3.6813443	zasad	-0.0505685
-3.9808235	humanistyce	-0.05056847
-3.9808235	naukach	-0.05056847
-3.8105571	bardziej	-0.05056847
-3.9808235	uwzględnić	-0.05056847
-3.8105571	specyfikę	-0.05056847
-3.9808235	wypracuje	-0.05056847
-3.6813443	Komitet	-0.14686829
-3.9808235	konsultacji	-0.05056847
-3.9808235	środowiskiem	-0.05056847
-3.9808235	Kontynuowanie	-0.05056847
-3.6813443	Narodowego	-0.14686829
-3.4131832	Program	-0.10575287
-3.9808235	Humanistyki	-0.05056847
-3.8105571	zagraniczni	-0.14686829
-3.8105571	Umiędzynarodowienie	-0.05056847
-3.8105571	zajmuje	-0.05056847
-3.9808235	jedno	-0.05056847
-3.9808235	miejsc	-0.05056847
-3.8105571	rankingu	-0.05056847
-3.9808235	OECD	-0.05056847
-3.8105571	jeśli	-0.05056847
-3.9808235	chodzi	-0.05056847
-3.8105571	obecność	-0.05056847
-3.9808235	naszym	-0.05056847
-3.8105571	podejmowane	-0.05056847
-3.526887	Erasmus	-0.05056847
-3.526887	Ukrainy	-0.08422876
-3.9808235	rocznych	-0.05056847
-3.9808235	rządowych	-0.05056847
-3.9808235	najzdolniejszych	-0.05056847
-3.526887	ukraińskich	-0.1887668
-3.8105571	trwa	-0.05056847
-3.9808235	podpisana	-0.05056847
-3.6813443	umowa	-0.0505685
-3.9808235	Omanem	-0.05056847
-3.9808235	negocjacje	-0.05056847
-3.9808235	porozumień	-0.05056847
-3.9808235	Katarem	-0.05056847
-3.8105571	Zjednoczonymi	-0.05056847
-3.9808235	Emiratami	-0.05056847
-3.9808235	Arabskimi	-0.05056847
-3.9808235	rozpoczynają	-0.05056847
-3.526887	rozmowy	-0.05056847
-3.9808235	Arabią	-0.05056847
-3.9808235	Saudyjską	-0.05056847
-2.9594433	;	-0.47344887
-3.9808235	przygotowywane	-0.05056847
-3.6813443	podpisanie	-0.0505685
-3.6813443	umów	-0.0505685
-3.9808235	Malezją	-0.05056847
-3.9808235	Wietnamem	-0.05056847
-3.9808235	Republiką	-0.05056847
-3.9808235	Korei	-0.05056847
-3.9808235	Indiami	-0.05056847
-3.9808235	studentówi	-0.05056847
-3.8105571	uzyskanie	-0.05056847
-3.9808235	amerykańskich	-0.05056847
-3.9808235	akredytacji	-0.05056847
-3.9808235	uzgodnienia	-0.05056847
-3.9808235	stroną	-0.05056847
-3.9808235	amerykańską	-0.05056847
-3.9808235	Portal	-0.05056847
-3.9808235	Ready	-0.05056847
-3.8105571	Study	-0.05056847
-3.9808235	Go	-0.05056847
-3.6813443	!	-0.2467041
-3.9808235	Stworzone	-0.05056847
-3.8105571	dwa	-0.05056847
-3.9808235	umożliwią	-0.0505685
-3.9808235	lepszą	-0.05056847
-3.9808235	szkołami	-0.05056847
-3.9808235	Wynalazców	-0.05056847
-3.8105571	Kreatywności	-0.0505685
-3.9808235	Oba	-0.05056847
-3.8105571	trakcie	-0.05056847
-3.526887	laboratoria	-0.12071874
-3.9808235	pracownie	-0.05056847
-3.526887	nauczycieli	-0.20442493
-3.9808235	wykładowcami	-0.05056847
-3.9808235	uczniowie	-0.05056847
-3.6813443	doświadczenia	-0.0505685
-3.9808235	dyskusje	-0.05056847
-3.8105571	akademickie	-0.05056847
-3.9808235	Centra	-0.05056847
-3.9808235	nowocześnie	-0.05056847
-3.9808235	kształcić	-0.05056847
-3.9808235	przyszli	-0.05056847
-3.8105571	nauczyciele	-0.05056847
-3.9808235	poznają	-0.05056847
-3.6813443	nowoczesne	-0.0505685
-3.9808235	metody	-0.05056847
-3.6813443	dydaktyczne	-0.0505685
-3.9808235	przetestują	-0.05056847
-3.8105571	szkołach	-0.05056847
-3.9808235	współpracujących	-0.05056847
-3.9808235	akademickimi	-0.05056847
-3.8105571	kamień	-0.20442493
-3.9808235	węgielny	-0.05056847
-3.9808235	wielomilionową	-0.05056847
-3.9808235	inwestycję	-0.05056847
-3.9808235	wizyty	-0.05056847
-3.9808235	Pomorzu	-0.05056847
-3.8105571	zainaugurowała	-0.05056847
-3.4131832	działalność	-0.05056847
-3.526887	nowoczesnych	-0.05056847
-3.8105571	laboratoriów	-0.05056847
-3.9808235	Sportu	-0.05056847
-3.9808235	Akademickiego	-0.05056847
-3.9808235	Gdańskiej	-0.05056847
-3.8105571	budowie	-0.0505685
-3.9808235	nasza	-0.05056847
-3.9808235	województwie	-0.05056847
-3.9808235	pomorskim	-0.05056847
-3.9808235	powstały	-0.05056847
-3.9808235	ostatnio	-0.05056847
-3.9808235	124	-0.05056847
-3.8105571	inwestycje	-0.05056847
-3.9808235	kosztowały	-0.05056847
-3.9808235	1,5	-0.05056847
-3.9808235	Oszałamiające	-0.05056847
-3.9808235	unowocześniły	-0.05056847
-3.526887	teraz	-0.0505685
-3.9808235	terenie	-0.05056847
-3.8105571	Bałtyckiego	-0.05056847
-3.9808235	Kampusu	-0.05056847
-3.9808235	UG	-0.05056847
-3.9808235	Gdańsku	-0.05056847
-3.9808235	Oliwie	-0.05056847
-3.9808235	buduje	-0.05056847
-3.9808235	gmach	-0.05056847
-3.9808235	Biotechnologii	-0.05056847
-3.9808235	wart	-0.05056847
-3.6813443	dużych	-0.14686829
-3.8105571	kończy	-0.05056847
-3.6813443	musi	-0.14686829
-3.9808235	wykorzystana	-0.05056847
-3.6813443	prowadzenia	-0.12071874
-3.8105571	wysokiej	-0.05056847
-3.9808235	określenie	-0.05056847
-3.9808235	specyfiki	-0.05056847
-3.8105571	wykorzystanie	-0.05056847
-3.8105571	jakim	-0.0505685
-3.8105571	znajduje	-0.20442493
-3.8105571	uczelnia	-0.05056847
-3.9808235	Gdański	-0.05056847
-3.9808235	fantastycznie	-0.05056847
-3.9808235	współpracuje	-0.05056847
-3.9808235	liceami	-0.05056847
-3.9808235	powstają	-0.05056847
-3.9808235	sale	-0.05056847
-3.9808235	centra	-0.05056847
-3.9808235	sportowe	-0.05056847
-3.8105571	uroczystości	-0.0505685
-3.8105571	otwarcia	-0.05056847
-3.9808235	uczestniczyła	-0.05056847
-3.9808235	nowoczesnego	-0.05056847
-3.9808235	Magazynu	-0.05056847
-3.9808235	Odpadów	-0.05056847
-3.9808235	Odczynników	-0.05056847
-3.9808235	Chemicznych	-0.05056847
-3.9808235	uhonorowana	-0.05056847
-3.9808235	australijską	-0.05056847
-3.9808235	uczelnię	-0.05056847
-3.9808235	Orłowską	-0.05056847
-3.9808235	zaszczytnym	-0.05056847
-3.9808235	tytułem	-0.05056847
-3.9808235	środowisko	-0.05056847
-3.9808235	doceniło	-0.05056847
-3.9808235	naukowo-badawczą	-0.05056847
-3.526887	Gowin	-0.10575287
-3.9808235	Brukseli	-0.05056847
-3.9808235	gospodarkę	-0.05056847
-3.9808235	oprzemy	-0.05056847
-3.8105571	oparcie	-0.05056847
-3.9808235	innowacjach	-0.05056847
-3.9808235	pomysł	-0.05056847
-3.9808235	wicepremiera	-0.05056847
-3.9808235	Jarosława	-0.05056847
-3.8105571	Gowina	-0.05056847
-3.8105571	politykę	-0.20442493
-3.9808235	gospodarczą	-0.05056847
-3.6813443	rządu	-0.05056847
-3.9808235	Chcemy	-0.05056847
-3.9808235	oprzeć	-0.05056847
-3.9808235	technologiach	-0.05056847
-3.9808235	zapewnił	-0.05056847
-3.8105571	Jarosław	-0.20442493
-3.8105571	wyraził	-0.05056847
-3.9808235	przyczyni	-0.05056847
-3.9808235	ścisła	-0.05056847
-3.9808235	instytucjami	-0.05056847
-3.9808235	Przyznał	-0.05056847
-3.9808235	uczonych	-0.0505685
-3.8105571	liczba	-0.05056847
-3.9808235	otrzymanych	-0.05056847
-3.8105571	European	-0.0505685
-3.9808235	oddają	-0.05056847
-3.9808235	zapowiedział	-0.05056847
-3.9808235	kontynuację	-0.05056847
-3.9808235	podniesienia	-0.05056847
-3.9808235	uczestniczących	-0.05056847
-3.6813443	projektach	-0.05056847
-3.9808235	barier	-0.05056847
-3.9808235	wymienił	-0.05056847
-3.9808235	zjawisko	-0.05056847
-3.9808235	nierównowagi	-0.05056847
-3.9808235	geograficznej	-0.05056847
-3.9808235	gremiach	-0.05056847
-3.9808235	oceniających	-0.05056847
-3.9808235	ubiegające	-0.05056847
-3.6813443	kraje	-0.0505685
-3.9808235	często	-0.05056847
-3.9808235	pomijane	-0.05056847
-3.9808235	Zwrócił	-0.05056847
-3.9808235	nierówne	-0.05056847
-3.8105571	traktowanie	-0.05056847
-3.9808235	różnej	-0.05056847
-3.9808235	wielkości	-0.05056847
-3.9808235	Promowanie	-0.05056847
-3.9808235	KE	-0.05056847
-3.9808235	ogranicza	-0.05056847
-3.6813443	zwłaszcza	-0.0505685
-3.8105571	kierowania	-0.05056847
-3.9808235	tymi	-0.05056847
-3.9808235	ocenił	-0.05056847
-3.9808235	wskazał	-0.05056847
-3.9808235	bariery	-0.05056847
-3.9808235	biznesu	-0.05056847
-3.9808235	Niewykorzystaną	-0.05056847
-3.9808235	rezerwą	-0.05056847
-3.9808235	duże	-0.05056847
-3.9808235	spółki	-0.05056847
-3.9808235	Skarbu	-0.05056847
-3.9808235	Państwa	-0.05056847
-3.6813443	poza	-0.0505685
-3.9808235	KGHM	-0.05056847
-3.9808235	żadna	-0.05056847
-3.2486253	tych	-0.05056847
-3.9808235	spółek	-0.05056847
-3.9808235	inwestowała	-0.05056847
-3.9808235	obszar	-0.05056847
-3.9808235	sytuacja	-0.05056847
-3.9808235	pewno	-0.05056847
-3.9808235	zmieni	-0.05056847
-3.9808235	Wiemy	-0.05056847
-3.9808235	plan	-0.05056847
-3.9808235	skarbu	-0.05056847
-3.9808235	poinformował	-0.05056847
-3.9808235	Wczoraj	-0.05056847
-3.9808235	reprezentował	-0.05056847
-3.9808235	Amsterdamie	-0.05056847
-3.9808235	nieformalnym	-0.05056847
-3.9808235	odsłonięto	-0.05056847
-3.9808235	pomnik	-0.05056847
-3.9808235	Marii	-0.05056847
-3.8105571	Skłodowskiej-Curie	-0.0505685
-3.9808235	Rzeźbę	-0.05056847
-3.9808235	upamiętniającą	-0.05056847
-3.9808235	Marię	-0.05056847
-3.9808235	Skłodowską-Curie	-0.05056847
-3.9808235	odsłonili	-0.05056847
-3.8105571	4	-0.05056847
-3.8105571	czerwca	-0.05056847
-3.9808235	rodzinnym	-0.05056847
-3.9808235	Nowym	-0.05056847
-3.9808235	Mieście	-0.05056847
-3.8105571	Francji	-0.05056847
-3.9808235	François	-0.05056847
-3.9808235	Hollande	-0.05056847
-3.9808235	imię	-0.05056847
-3.8105571	uczonej	-0.05056847
-3.9808235	nosi	-0.05056847
-3.3231564	najbardziej	-0.08422876
-3.9808235	ambitny	-0.05056847
-3.8105571	europejski	-0.20442493
-3.8105571	wspierania	-0.05056847
-3.8105571	MSCA	-0.05056847
-3.6813443	http	-0.2467041
-3.8105571	ec.europa.eu	-0.05056847
-3.9808235	programmes	-0.05056847
-3.9808235	horizon2020	-0.05056847
-3.9808235	en	-0.05056847
-3.9808235	h2020-section	-0.05056847
-3.9808235	marie-sklodowska-curie-actions	-0.05056847
-3.8105571	udało	-0.20442493
-3.9808235	nazwać	-0.05056847
-3.8105571	pełnym	-0.05056847
-3.9808235	nazwiskiem	-0.05056847
-3.9808235	przypominając	-0.05056847
-3.9808235	korzeniach	-0.05056847
-3.8105571	stypendialny	-0.05056847
-3.9808235	nazwany	-0.05056847
-3.9808235	imieniem	-0.05056847
-3.9808235	badaczki	-0.05056847
-3.9808235	finansuje	-0.05056847
-3.9808235	zaawansowane	-0.05056847
-3.8105571	Europie	-0.0505685
-3.6813443	szkolenia	-0.0505685
-3.9808235	obszarach	-0.05056847
-3.9808235	Unią	-0.05056847
-3.8105571	Europejską	-0.05056847
-3.9808235	głównych	-0.05056847
-3.8105571	celów	-0.05056847
-3.9808235	Działań	-0.05056847
-3.9808235	ułatwianie	-0.05056847
-3.3231564	finansowanie	-0.09605467
-3.8105571	zapewniających	-0.05056847
-3.9808235	atrakcyjne	-0.05056847
-3.8105571	wynagrodzenie	-0.05056847
-3.6813443	pełne	-0.0505685
-3.8105571	zabezpieczenie	-0.05056847
-3.9808235	społeczno-emerytalne	-0.05056847
-3.9808235	skierowany	-0.05056847
-3.9808235	niezależnie	-0.05056847
-3.9808235	etapu	-0.05056847
-3.8105571	którym	-0.05056847
-3.526887	znajdują	-0.12071874
-3.8105571	prowadzą	-0.20442493
-3.9808235	finansowane	-0.05056847
-3.8105571	proponowane	-0.05056847
-3.6813443	bądź	-0.0505685
-3.526887	indywidualnych	-0.12071874
-3.9808235	konsorcja	-0.05056847
-3.8105571	pochodzących	-0.05056847
-3.9808235	Misją	-0.05056847
-3.9808235	prestiżowego	-0.05056847
-3.8105571	unijnego	-0.20442493
-3.9808235	promowanie	-0.05056847
-3.8105571	karier	-0.05056847
-3.8105571	zachęcanie	-0.05056847
-3.9808235	młodego	-0.05056847
-3.9808235	pokolenia	-0.05056847
-3.8105571	drogi	-0.05056847
-3.8105571	zawodowej	-0.05056847
-3.8105571	głównym	-0.0505685
-3.6813443	programem	-0.0505685
-3.9808235	unijnym	-0.05056847
-3.9808235	adresowanym	-0.05056847
-3.9808235	000	-0.05056847
-3.9808235	zdobędzie	-0.05056847
-3.9808235	doktorskie	-0.05056847
-3.9808235	Włoch	-0.05056847
-3.9808235	zakończyły	-0.05056847
-3.9808235	polsko-włoskie	-0.05056847
-3.8105571	konsultacje	-0.05056847
-3.9808235	międzyrządowe	-0.05056847
-3.8105571	udziałem	-0.0505685
-3.9808235	premierów	-0.05056847
-3.9808235	Donalda	-0.05056847
-3.9808235	Tuska	-0.05056847
-3.9808235	Enrico	-0.05056847
-3.9808235	Letty	-0.05056847
-3.9808235	agendzie	-0.05056847
-3.9808235	znalazły	-0.05056847
-3.9808235	tygodniu	-0.05056847
-3.9808235	przyjęto	-0.05056847
-3.9808235	ramowy	-0.05056847
-3.9808235	lipca	-0.05056847
-3.9808235	Włochy	-0.05056847
-3.9808235	obejmują	-0.05056847
-3.9808235	więc	-0.05056847
-3.9808235	szczególny	-0.05056847
-3.9808235	wpływ	-0.05056847
-3.8105571	tworzeniu	-0.05056847
-3.9808235	Przestrzeni	-0.05056847
-3.8105571	Badawczej	-0.14686829
-3.9808235	rozpoczęcie	-0.05056847
-3.9808235	priorytetach	-0.05056847
-3.9808235	bilateralnej	-0.05056847
-3.9808235	uznały	-0.05056847
-3.6813443	konieczne	-0.14686829
-3.9808235	wskazanie	-0.05056847
-3.9808235	priorytetowych	-0.05056847
-3.4131832	wspólne	-0.05056847
-3.9808235	zebranie	-0.05056847
-3.9808235	instytucjach	-0.05056847
-3.526887	ośrodkach	-0.05056847
-3.8105571	zainteresowanych	-0.05056847
-3.9808235	współpracą	-0.05056847
-3.9808235	Włoskie	-0.05056847
-3.9808235	ministerstwo	-0.05056847
-3.9808235	przekaże	-0.05056847
-3.9808235	listę	-0.05056847
-3.9808235	przygotowywanych	-0.05056847
-3.8105571	włoskich	-0.05056847
-3.9808235	mogłyby	-0.05056847
-3.9808235	włączyć	-0.05056847
-3.185031	polskie	-0.12071874
-3.6813443	instytuty	-0.20442493
-3.9808235	możliwej	-0.05056847
-3.526887	badawczej	-0.05056847
-3.2486253	zostanie	-0.05056847
-3.9808235	omówiony	-0.05056847
-3.6813443	obu	-0.0505685
-3.9808235	Włoska	-0.05056847
-3.9808235	uniwersytetów	-0.05056847
-3.8105571	Maria	-0.05056847
-3.9808235	Chiara	-0.05056847
-3.9808235	Carrozza	-0.05056847
-3.8105571	priorytetem	-0.05056847
-3.9808235	włoskiej	-0.05056847
-3.9808235	kosmosu	-0.05056847
-3.9808235	tworzeniem	-0.05056847
-3.9808235	Włoski	-0.05056847
-3.9808235	zobowiązał	-0.05056847
-3.9808235	promowania	-0.05056847
-3.9808235	wyjeżdżających	-0.05056847
-3.9808235	zagraniczne	-0.05056847
-3.8105571	umożliwienie	-0.05056847
-3.9808235	podjęcia	-0.05056847
-3.9808235	kierunkach	-0.0505685
-3.526887	związanych	-0.20442493
-3.8105571	naukami	-0.05056847
-3.9808235	Kosmosie	-0.05056847
-3.9808235	wiodących	-0.05056847
-3.9808235	włoskiego	-0.05056847
-3.9808235	kosmicznego	-0.05056847
-3.9808235	Polsko-Francuskie	-0.05056847
-3.526887	Forum	-0.10575287
-3.526887	Ministerstwo	-0.2365663
-3.9808235	Ambasadą	-0.05056847
-3.9808235	Instytutem	-0.05056847
-3.9808235	Francuskim	-0.05056847
-3.9808235	organizują	-0.05056847
-3.9808235	dniu	-0.05056847
-3.9808235	8	-0.05056847
-3.8105571	2016	-0.0505685
-3.9808235	drugą	-0.05056847
-3.9808235	edycję	-0.05056847
-3.9808235	Polsko-Francuskiego	-0.05056847
-3.4131832	odbędzie	-0.46855283
-3.9808235	Górniczo-Hutniczej	-0.05056847
-3.9808235	AGH	-0.05056847
-3.9808235	przedstawić	-0.05056847
-3.9808235	francusko-polską	-0.05056847
-3.9808235	kluczowych	-0.05056847
-3.9808235	francusko-polskiego	-0.05056847
-3.9808235	partnerstwa	-0.05056847
-3.9808235	strategicznego	-0.05056847
-3.8105571	podkreślić	-0.05056847
-3.8105571	perspektywy	-0.05056847
-3.9808235	oferowane	-0.05056847
-3.9808235	dotyczący	-0.05056847
-3.6813443	«	-0.0505685
-3.8105571	Horizon	-0.20442493
-3.6813443	»	-0.0505685
-3.9808235	wydarzeniu	-0.0505685
-3.9808235	weźmie	-0.05056847
-3.4131832	uczestników	-0.15738505
-3.9808235	francuscy	-0.05056847
-3.9808235	zespoły	-0.05056847
-3.8105571	zaangażowane	-0.20442493
-3.8105571	francuskie	-0.05056847
-3.8105571	władze	-0.05056847
-3.9808235	partnerzy	-0.05056847
-3.8105571	Polonium	-0.05056847
-3.526887	przedstawiciele	-0.05056847
-3.9808235	stowarzyszonych	-0.05056847
-3.9808235	LIA	-0.05056847
-3.9808235	CNRS	-0.05056847
-3.9808235	zainaugurowane	-0.05056847
-3.8105571	zorganizowane	-0.05056847
-3.9808235	dwóch	-0.05056847
-3.9808235	częściach	-0.05056847
-3.9808235	sesja	-0.05056847
-3.9808235	plenarna	-0.05056847
-3.9808235	poświęcona	-0.05056847
-3.9808235	wymianie	-0.05056847
-3.8105571	doświadczeń	-0.05056847
-3.8105571	drugiej	-0.05056847
-3.9808235	równoległych	-0.05056847
-3.6813443	sesji	-0.14686829
-3.9808235	tematycznych	-0.05056847
-3.9808235	poruszone	-0.05056847
-3.9808235	następujące	-0.05056847
-3.9808235	zagadnienia	-0.05056847
-3.9808235	Dwustronna	-0.05056847
-3.9808235	naukowa	-0.0505685
-3.8105571	kierunku	-0.05056847
-3.9808235	10-minutowe	-0.05056847
-3.6813443	prezentacje	-0.14686829
-3.6813443	energetyki	-0.14686829
-3.9808235	15-minutowe	-0.05056847
-3.9808235	Zielone	-0.05056847
-3.9808235	technologie	-0.05056847
-3.9808235	eko-innowacje	-0.05056847
-3.9808235	technologiczna	-0.05056847
-3.8105571	przestrzeni	-0.05056847
-3.9808235	kosmicznej	-0.05056847
-3.9808235	reindustrializacja	-0.05056847
-3.526887	konstruktorzy	-0.05056847
-3.9808235	mistrzostwach	-0.05056847
-3.8105571	RobotChallenge	-0.05056847
-3.9808235	Wiedniu	-0.05056847
-3.8105571	zawodach	-0.05056847
-3.526887	robotów	-0.05056847
-3.9808235	trzeci	-0.05056847
-3.9808235	rzędu	-0.05056847
-3.9808235	triumfowali	-0.05056847
-3.9808235	Nasi	-0.05056847
-3.6813443	zdobyli	-0.0505685
-3.8105571	dziesięć	-0.05056847
-3.9808235	medali	-0.05056847
-3.8105571	cztery	-0.05056847
-3.9808235	złote	-0.05056847
-3.9808235	srebrne	-0.05056847
-3.9808235	brązowe	-0.05056847
-3.9808235	klasyfikacji	-0.05056847
-3.9808235	sześcioma	-0.05056847
-3.9808235	medalami	-0.05056847
-3.8105571	zajęli	-0.05056847
-3.9808235	Rosjanie	-0.05056847
-3.9808235	wiedeńskich	-0.05056847
-3.9808235	uznawanych	-0.05056847
-3.9808235	startują	-0.05056847
-3.9808235	mobilne	-0.05056847
-3.9808235	samodzielne	-0.05056847
-3.9808235	własnoręcznie	-0.05056847
-3.9808235	skonstruowane	-0.05056847
-3.9808235	roboty	-0.05056847
-3.8105571	Mistrzostwa	-0.05056847
-3.6813443	organizowane	-0.0505685
-3.9808235	Wystartowało	-0.05056847
-3.9808235	tysiąc	-0.05056847
-3.9808235	31	-0.05056847
-3.8105571	zawodnicy	-0.05056847
-3.8105571	zaprezentowali	-0.05056847
-3.9808235	rywalizować	-0.05056847
-3.9808235	konkurencjach	-0.05056847
-3.9808235	medale	-0.05056847
-3.6813443	złoty	-0.0505685
-3.8105571	srebrny	-0.0505685
-3.6813443	brązowy	-0.12071874
-3.8105571	kategorii	-0.05056847
-3.9808235	Mini	-0.05056847
-3.8105571	Sumo	-0.05056847
-3.9808235	Sukcesem	-0.05056847
-3.9808235	konkurencja	-0.05056847
-3.9808235	Humanoid	-0.05056847
-3.9808235	wywalczyli	-0.05056847
-3.6813443	medal	-0.12071874
-3.9808235	Line	-0.05056847
-3.9808235	Follower	-0.05056847
-3.9808235	konkurencji	-0.05056847
-3.9808235	Air	-0.05056847
-3.9808235	Race	-0.05056847
-3.9808235	Autonomous	-0.05056847
-3.9808235	Freestyle	-0.05056847
-3.9808235	Puck	-0.05056847
-3.9808235	Collect	-0.05056847
-3.9808235	Szczegółowe	-0.05056847
-3.9808235	dostępne	-0.05056847
-3.8105571	stronie	-0.05056847
-3.9808235	www.robotchallenge.org	-0.05056847
-3.9808235	results	-0.05056847
-3.8105571	120	-0.05056847
-3.9808235	inżynierów	-0.05056847
-3.9808235	szkolić	-0.05056847
-3.8105571	prestiżowych	-0.0505685
-3.8105571	wysoko	-0.05056847
-3.9808235	wykwalifikowanych	-0.05056847
-3.6813443	kadr	-0.0505685
-3.6813443	stanowi	-0.0505685
-3.8105571	rządowego	-0.20442493
-3.9808235	jądrowej	-0.0505685
-3.9808235	wspieramy	-0.05056847
-3.9808235	fachowców	-0.05056847
-3.9808235	specjalizujących	-0.05056847
-3.9808235	Nabór	-0.05056847
-3.8105571	etapach	-0.05056847
-3.9808235	zakwalifikuje	-0.05056847
-3.6813443	kandydatów	-0.0505685
-3.9808235	własnych	-0.05056847
-3.8105571	drugim	-0.0505685
-3.9808235	wybrani	-0.05056847
-3.9808235	komisję	-0.05056847
-3.9808235	konkursową	-0.05056847
-3.8105571	kandydaci	-0.05056847
-3.9808235	zaproszeni	-0.05056847
-3.9808235	rozmowę	-0.05056847
-3.9808235	kwalifikacyjną	-0.05056847
-3.9808235	rekomendowani	-0.05056847
-3.9808235	macierzyste	-0.05056847
-3.9808235	rejestrację	-0.05056847
-3.9808235	elektronicznym	-0.05056847
-3.9808235	systemie	-0.05056847
-3.9808235	rekrutacyjnym	-0.05056847
-3.9808235	uruchomiony	-0.05056847
-3.9808235	28	-0.05056847
-3.9808235	lutego	-0.05056847
-3.8105571	konkurs	-0.05056847
-3.8105571	wpisuje	-0.20442493
-3.8105571	wspieranie	-0.05056847
-3.9808235	realizujemy	-0.05056847
-3.9808235	Brokerzy	-0.05056847
-3.8105571	realizowane	-0.05056847
-3.9808235	systemowego	-0.05056847
-3.9808235	Stworzenie	-0.05056847
-3.8105571	szkoleń	-0.05056847
-3.8105571	staży	-0.20442493
-3.8105571	eksploatacji	-0.05056847
-3.9808235	rozpoznawania	-0.05056847
-3.9808235	zasobów	-0.05056847
-3.9808235	gazu	-0.05056847
-3.9808235	łupkowego	-0.05056847
-3.6813443	finansowany	-0.0505685
-3.8105571	środków	-0.0505685
-3.9808235	Operacyjnego	-0.05056847
-3.9808235	Kapitał	-0.05056847
-3.9808235	Ludzki	-0.05056847
-3.8105571	PO	-0.05056847
-3.9808235	KL	-0.05056847
-3.9808235	PPRRZ	-0.05056847
-3.9808235	ZE	-0.05056847
-3.9808235	EW	-0.05056847
-3.9808235	WO	-0.05056847
-3.9808235	ODDN	-0.05056847
-3.9808235	NI	-0.05056847
-3.9808235	IKK	-0.05056847
-3.8105571	D	-0.05056847
-3.9808235	DOOB	-0.05056847
-3.9808235	BR	-0.05056847
-3.9808235	RYYCCH	-0.05056847
-3.9808235	H	-0.05056847
-3.9808235	PPRRAAK	-0.05056847
-3.9808235	KTTYYK	-0.05056847
-3.9808235	K	-0.05056847
-3.9808235	Partnerski	-0.05056847
-3.9808235	POLONIUM	-0.05056847
-3.9808235	Przewodnik	-0.05056847
-3.9808235	zawiera	-0.05056847
-3.9808235	ogólne	-0.05056847
-3.9808235	stosowane	-0.05056847
-3.9808235	indywidualnie	-0.05056847
-3.9808235	przypadku	-0.05056847
-3.9808235	zależności	-0.05056847
-3.9808235	aktualnych	-0.05056847
-3.9808235	planowanych	-0.05056847
-3.9808235	przyjęty	-0.05056847
-3.2486253	projekt	-0.05056847
-3.9808235	przedmiotem	-0.05056847
-3.6813443	określony	-0.0505685
-3.9808235	przewodniku	-0.05056847
-3.9808235	opracowano	-0.05056847
-3.9808235	umożliwić	-0.05056847
-3.4131832	naukowcom	-0.05056847
-3.6813443	prowadzenie	-0.0505685
-3.8105571	większą	-0.05056847
-3.9808235	elastycznością	-0.05056847
-3.9808235	swobodą	-0.05056847
-3.8105571	zapewnić	-0.05056847
-3.9808235	odpowiednią	-0.05056847
-3.8105571	ochronę	-0.05056847
-3.9808235	badacz	-0.05056847
-3.9808235	działający	-0.05056847
-3.9808235	imieniu	-0.05056847
-3.9808235	macierzystej	-0.05056847
-3.9808235	zwany	-0.05056847
-3.9808235	dalej	-0.05056847
-3.9808235	Stroną	-0.05056847
-3.8105571	uczestniczy	-0.05056847
-3.9808235	wspólnym	-0.05056847
-3.8105571	zobowiązuje	-0.20442493
-3.9808235	przestrzegania	-0.05056847
-3.9808235	następujących	-0.05056847
-3.9808235	zwrócą	-0.05056847
-3.9808235	prośbą	-0.05056847
-3.9808235	przestrzeganie	-0.05056847
-3.9808235	zachowaniu	-0.05056847
-3.9808235	poufności	-0.05056847
-3.9808235	2	-0.05056847
-3.8105571	publikacje	-0.05056847
-3.9808235	publikacjach	-0.05056847
-3.9808235	prezentacjach	-0.05056847
-3.9808235	wskazać	-0.05056847
-3.9808235	nazwisko	-0.05056847
-3.9808235	-a	-0.05056847
-3.9808235	-ów	-0.05056847
-3.9808235	zaangażowanego	-0.05056847
-3.9808235	-nych	-0.05056847
-3.9808235	nazwę	-0.05056847
-3.9808235	należą	-0.05056847
-3.9808235	Własność	-0.05056847
-3.9808235	intelektualna	-0.05056847
-3.9808235	ochrona	-0.05056847
-3.9808235	ustaleń	-0.05056847
-3.9808235	określone	-0.05056847
-3.9808235	stosuje	-0.05056847
-3.4131832	wyników	-0.46855283
-3.8105571	własności	-0.20442493
-3.9808235	intelektualnej	-0.05056847
-3.9808235	związek	-0.05056847
-3.9808235	wspólnymi	-0.05056847
-3.8105571	prowadzonymi	-0.05056847
-3.9808235	Stronami	-0.05056847
-3.2486253	prawa	-0.05056847
-3.9808235	nabyte	-0.05056847
-3.9808235	daną	-0.05056847
-3.9808235	Stronę	-0.05056847
-3.9808235	rozpoczęciem	-0.05056847
-3.9808235	pozostają	-0.05056847
-3.8105571	własnością	-0.05056847
-3.8105571	Strony	-0.05056847
-3.9808235	danych	-0.05056847
-3.9808235	oryginalne	-0.05056847
-3.9808235	odnoszące	-0.05056847
-3.526887	Stron	-0.05056847
-3.9808235	wspólną	-0.05056847
-3.9808235	Każda	-0.05056847
-3.9808235	Strona	-0.05056847
-3.9808235	przekazania	-0.05056847
-3.9808235	Stronie	-0.05056847
-3.8105571	wymaganych	-0.05056847
-3.9808235	związku	-0.05056847
-3.9808235	realizacją	-0.05056847
-3.9808235	ii	-0.05056847
-3.9808235	uzyskanych	-0.05056847
-3.9808235	wynalazki	-0.05056847
-3.9808235	stanowią	-0.05056847
-3.9808235	współwłasność	-0.05056847
-3.8105571	proporcjonalnie	-0.20442493
-3.8105571	wkładu	-0.05056847
-3.526887	powstanie	-0.05056847
-3.9808235	chyba	-0.05056847
-3.9808235	odrębna	-0.05056847
-3.8105571	inaczej	-0.05056847
-3.9808235	określą	-0.05056847
-3.9808235	odrębnej	-0.05056847
-3.8105571	umowie	-0.05056847
-3.9808235	procedurę	-0.05056847
-3.9808235	ochrony	-0.05056847
-3.9808235	szczególności	-0.05056847
-3.9808235	wyznaczą	-0.05056847
-3.9808235	złożone	-0.05056847
-3.9808235	patentowe	-0.05056847
-3.9808235	zdecydują	-0.05056847
-3.9808235	podziale	-0.05056847
-3.9808235	kosztów	-0.05056847
-3.9808235	uzyskaniem	-0.05056847
-3.9808235	patentu	-0.05056847
-3.9808235	wybiorą	-0.05056847
-3.9808235	stronę	-0.05056847
-3.9808235	odpowiedzialną	-0.05056847
-3.9808235	późniejszy	-0.05056847
-3.6813443	transfer	-0.14686829
-3.9808235	postanowiono	-0.05056847
-3.9808235	dochód	-0.05056847
-3.6813443	opłat	-0.0505685
-3.9808235	licencyjnych	-0.05056847
-3.9808235	dzielony	-0.05056847
-3.9808235	dokonanie	-0.05056847
-3.9808235	skutkiem	-0.05056847
-3.9808235	690	-0.05056847
-3.9808235	milionów	-0.05056847
-3.9808235	środę	-0.05056847
-3.8105571	zakończył	-0.05056847
-3.9808235	budżetem	-0.05056847
-3.9808235	Nauka	-0.05056847
-3.9808235	przyszłorocznego	-0.05056847
-3.9808235	Mija	-0.05056847
-3.6813443	pół	-0.2467041
-3.8105571	dnia	-0.05056847
-3.8105571	premier	-0.05056847
-3.9808235	Kopacz	-0.05056847
-3.8105571	poparcie	-0.05056847
-3.9808235	intensywny	-0.05056847
-3.9808235	Ministerstwie	-0.05056847
-3.9808235	realizował	-0.05056847
-3.9808235	zapowiedzi	-0.05056847
-3.9808235	expose	-0.05056847
-3.4131832	wiele	-0.05056847
-3.9808235	inicjatyw	-0.05056847
-3.9808235	Dotacja	-0.05056847
-3.9808235	uzależniona	-0.05056847
-3.8105571	bezpośrednio	-0.05056847
-3.9808235	uzyskanej	-0.05056847
-3.9808235	zależeć	-0.05056847
-3.9808235	parametrycznej	-0.05056847
-3.6813443	B	-0.14686829
-3.9808235	Przez	-0.05056847
-3.9808235	trwały	-0.05056847
-3.9808235	nowymi	-0.05056847
-3.9808235	zasadami	-0.05056847
-3.9808235	proponowanych	-0.05056847
-3.9808235	zmianach	-0.05056847
-3.9808235	lepiej	-0.05056847
-3.9808235	uwzględniać	-0.05056847
-3.9808235	ocenie	-0.05056847
-3.9808235	promowana	-0.05056847
-3.9808235	innowacyjność	-0.05056847
-3.8105571	umiędzynarodowienia	-0.05056847
-3.9808235	podstawie	-0.05056847
-3.9808235	przesłanych	-0.05056847
-3.8105571	uwag	-0.05056847
-3.8105571	rozporządzenia	-0.05056847
-3.9808235	poddany	-0.05056847
-3.9808235	szerokim	-0.05056847
-3.9808235	konsultacjom	-0.05056847
-3.9808235	budżecie	-0.05056847
-3.9808235	znacząco	-0.05056847
-3.9808235	poprzednim	-0.05056847
-3.9808235	skok	-0.05056847
-3.9808235	10,2	-0.05056847
-3.8105571	proc	-0.20442493
-3.9808235	zaplanowano	-0.05056847
-3.8105571	900	-0.05056847
-3.9808235	wzrost	-0.05056847
-3.526887	6	-0.05056847
-3.9808235	udziale	-0.05056847
-3.9808235	wynegocjowany	-0.05056847
-3.9808235	największy	-0.05056847
-3.8105571	pakiet	-0.05056847
-3.8105571	europejskiego	-0.05056847
-3.8105571	Inteligentny	-0.20442493
-3.6813443	Rozwój	-0.05056847
-3.9808235	R	-0.05056847
-3.9808235	ok	-0.05056847
-3.526887	11	-0.05056847
-3.9808235	Dofinansowane	-0.05056847
-3.9808235	przedsiębiorców	-0.05056847
-3.8105571	tworzenie	-0.05056847
-3.9808235	doskonałych	-0.05056847
-3.8105571	zespołów	-0.05056847
-3.9808235	nastawionych	-0.05056847
-3.9808235	niezbędnej	-0.05056847
-3.6813443	dużym	-0.0505685
-3.9808235	komercjalizacyjnym	-0.05056847
-3.9808235	nowoczesnej	-0.05056847
-3.9808235	przedsiębiorstw	-0.05056847
-3.9808235	uruchomiona	-0.05056847
-3.9808235	większość	-0.05056847
-3.9808235	Nowa	-0.05056847
-3.9808235	formuła	-0.05056847
-3.9808235	składa	-0.05056847
-3.9808235	modułów	-0.05056847
-3.9808235	Tradycja	-0.05056847
-3.9808235	podobnie	-0.05056847
-3.9808235	poprzednich	-0.05056847
-3.9808235	zostało	-0.05056847
-3.9808235	przygotowało	-0.05056847
-3.9808235	zdobywają	-0.05056847
-3.6813443	tzw.	-0.0505685
-3.8105571	miękkie	-0.05056847
-3.9808235	komunikowanie	-0.05056847
-3.9808235	innowacyjne	-0.05056847
-3.9808235	myślenie	-0.05056847
-3.9808235	ludzie	-0.05056847
-3.9808235	posiadać	-0.05056847
-3.9808235	oczekiwane	-0.05056847
-3.3231564	zarówno	-0.0505685
-3.9808235	publiczne	-0.05056847
-3.9808235	niepubliczne	-0.05056847
-3.9808235	kontynuowany	-0.05056847
-3.9808235	skorzystają	-0.05056847
-3.9808235	cała	-0.05056847
-3.9808235	gospodarka	-0.05056847
-3.9808235	studiuje	-0.05056847
-3.9808235	450	-0.05056847
-3.9808235	podobnym	-0.05056847
-3.9808235	założeniu	-0.05056847
-3.9808235	pozwalają	-0.05056847
-3.9808235	odbycie	-0.05056847
-3.8105571	części	-0.05056847
-3.8105571	pobyt	-0.20442493
-3.9808235	renomowanych	-0.05056847
-3.9808235	głównie	-0.05056847
-3.9808235	terenów	-0.05056847
-3.8105571	objętych	-0.05056847
-3.8105571	działaniami	-0.05056847
-3.9808235	wojennymi	-0.05056847
-3.9808235	wesprzeć	-0.05056847
-3.6813443	budowanie	-0.0505685
-3.8105571	kapitału	-0.20442493
-3.9808235	społecznego	-0.05056847
-3.8105571	Ukrainie	-0.05056847
-3.8105571	dotyczy	-0.05056847
-3.9808235	zarządzanie	-0.05056847
-3.9808235	europeistyka	-0.05056847
-3.9808235	ekonomia	-0.05056847
-3.9808235	administracja	-0.05056847
-3.9808235	złożyło	-0.05056847
-3.9808235	Maluch	-0.05056847
-3.6813443	realizuje	-0.0505685
-3.9808235	razem	-0.05056847
