deuteron deuteronu 1.0000000
courses NULL 0.0011494
courses doktoranckie 0.5000000
courses kierunki 0.4285714
courses kursach 0.5000000
courses spowoduje 0.1666667
courses przeprowadzać 0.1666667
courses studiów 0.0238095
national do 0.0070922
national ogólnopolskiego 0.5000000
national NULL 0.0007663
national rozdziału 1.0000000
geology inżynierska 1.0000000
we klinicznej 0.5000000
we Znamy 0.2500000
we wprowadzaliśmy 0.3333333
we NULL 0.0026820
we możemy 0.5000000
we robimy 0.2500000
we się 0.0081967
we Mamy 0.4000000
we edycja 0.2500000
we potrafimy 1.0000000
we chcemy 1.0000000
we musimy 0.3333333
we częściej 0.1666667
we budujemy 0.2500000
we zainwestowaliśmy 0.3333333
we taką 0.2000000
we Wiemy 0.5000000
we gospodarkę 0.2000000
we kogo 0.3333333
we - 0.0064935
we wprowadziliśmy 1.0000000
we Zwiększamy 0.3333333
economy gospodarka 0.5000000
economy rozwiązaniach 0.3333333
economy NULL 0.0003831
economy gospodarki 0.5555556
economy oprzemy 0.5000000
of społecznej 0.5000000
of narodowym 0.5000000
of wydłużyć 0.3333333
of zachowania 0.5000000
of korzyści 0.3333333
of Fundacji 0.2000000
of plan 0.5000000
of rozwoju 0.4347826
of wśród 0.1428571
of Polityki 0.5000000
of nich 0.2500000
of źródeł 0.5000000
of European 0.3333333
of praw 0.1250000
of młodzieńczego 0.5000000
of spotkanie 0.1250000
of unijnego 0.4000000
of ds. 0.3333333
of Postępowania 0.5000000
of tego 0.1428571
of astronomów 0.3333333
of pomnik 0.2500000
of ministrem 0.3333333
of ładunkowych 0.5000000
of obowiązki 0.6666667
of działania 0.2727273
of nauk 0.2000000
of poszerzenia 0.5000000
of przeznaczania 0.5000000
of strategii 0.3333333
of zespół 0.4000000
of z 0.1004367
of przygotowaniach 0.5000000
of gatunek 1.0000000
of gry 1.0000000
of rad 0.2500000
of Instytutu 0.2000000
of Szkół 0.1428571
of Australijskiej 0.6666667
of konkurencyjność 0.3333333
of bardzo 0.1818182
of wyników 0.3333333
of krajów 0.0909091
of nierównowagi 0.5000000
of rekrutacji 0.5714286
of odkryć 0.3333333
of której 0.2500000
of pobierania 0.3333333
of zasadami 0.3333333
of przy 0.0769231
of szkoły 0.2500000
of płace 0.5000000
of MNiSW 0.2380952
of nauki 0.3130435
of o 0.1358025
of Adamów 0.3333333
of zakresu 0.5000000
of Sportu 0.5000000
of odległości 0.4000000
of FameLab 0.5000000
of zwycięzców 0.2500000
of Karty 0.3333333
of Komisji 0.5714286
of kształcenia 0.0769231
of demokracji 0.2000000
of jedna 0.3333333
of ekspertów 0.4000000
of sukcesy 0.2500000
of jakości 0.2500000
of systemu 0.1428571
of zacieśniania 0.3333333
of bazy 1.0000000
of działań 0.5000000
of technologii 0.2352941
of wszelkich 0.5000000
of oferty 0.2307692
of rozwiązań 0.2222222
of regionu 0.2000000
of karier 0.5000000
of wynagrodzeń 0.3333333
of Ministerstwo 0.2500000
of wartość 0.2500000
of 33 0.5000000
of Łodzi 0.3333333
of edycji 0.2222222
of okresowej 1.0000000
of rozporządzenie 0.1250000
of endemicznych 0.5000000
of zatrudnienia 0.5000000
of Polaków 0.2500000
of RNA 0.1666667
of kierunki 0.1428571
of podziału 0.5000000
of Rozwój 0.1250000
of komercyjnego 0.5000000
of budowę 0.2000000
of sprawy 0.3333333
of of 0.5600000
of szanse 0.5000000
of przestrzeni 0.2500000
of praktyk 0.1000000
of jego 0.1764706
of badawczej 0.1666667
of ewolucję 0.5000000
of wyniki 0.3333333
of transformacji 0.2000000
of efektami 0.5000000
of biochemii 0.5000000
of zamachowym 0.5000000
of absolwentów 0.2857143
of laureatów 0.3225806
of przedstawiciele 0.2000000
of zaangażowaniu 0.5000000
of przedstawicieli 0.5000000
of Warszawski 0.5000000
of jednym 0.1111111
of studiów 0.2380952
of laureaci 0.7500000
of Wydziału 0.4444444
of celów 0.5000000
of spektroskopii 0.1666667
of profesorem 0.1666667
of Ministra 0.3333333
of Mechaniki 0.6666667
of dotyczy 0.3333333
of charakterze 1.0000000
of Inżynierii 0.6666667
of Europejskiego 0.2142857
of wymiany 0.2000000
of Górniczo-Hutnicza 0.1818182
of Politechniki 0.4000000
of etap 0.6000000
of rektorów 0.5000000
of zasada 0.2500000
of uczestnictwa 0.2500000
of cywilizacyjne 0.5000000
of początku 0.3333333
of styku 0.5000000
of tej 0.1428571
of centrów 0.3333333
of NULL 0.1057471
of Forum 0.3636364
of funkcjonowania 0.2500000
of się 0.0409836
of ministra 0.1764706
of jakim 0.2000000
of programu 0.1475410
of sektorowych 0.6000000
of priorytetów 0.5714286
of Informatyki 0.1428571
of poziomów 0.3333333
of wielu 0.2500000
of Uniwersytetu 0.2352941
of internacjonalizacją 0.5000000
of dostępu 0.5000000
of prezydencji 0.1428571
of studentów 0.0681818
of otolaryngologii 0.5000000
of jednego 0.2000000
of zakresie 0.1428571
of + 0.1333333
of Dyrektora 0.2500000
of zwiększyć 0.2500000
of warunków 0.2000000
of Kardiochirurgii 0.5000000
of kontekście 0.2000000
of liczby 0.3333333
of przystąpienia 0.5000000
of bilateralnej 0.5000000
of Akademii 0.3750000
of dotyczące 0.2727273
of rozpoczęcie 0.3333333
of jednostek 0.4285714
of Technologii 0.6666667
of istnienia 0.5000000
of profesora 0.2500000
of poparcia 0.5000000
of potrzeby 0.5000000
of Europejskiej 0.0344828
of od 0.0465116
of ConfometRx 0.5000000
of ustaleń 0.5000000
of dobrych 0.5000000
of osiągnięć 0.3000000
of ankiet 0.5000000
of Rady 0.2000000
of tureckich 0.2500000
of Umiędzynarodowienie 0.3333333
of formy 0.4000000
of kamień 0.5000000
butterflies motyli 1.0000000
promote NULL 0.0003831
promote do 0.0070922
promote promowania 0.5000000
promote promowanie 0.5000000
promote wspierania 0.2500000
promote wspierają 1.0000000
promote wzmacniają 0.5000000
promote promować 0.5000000
tremendous wspaniałym 0.5000000
M.E. M.E 1.0000000
tax CIT 0.5000000
closer Komitetem 0.2500000
closer Akademią 0.5000000
closer Jednostek 0.3333333
closer oraz 0.0103093
closer Naukowych 0.1428571
closer Ewaluacji 0.2000000
closer Polską 0.1250000
closer Nauk 0.1250000
all podstawą 0.3333333
all liceami 0.5000000
all wszystko 1.0000000
all tajemnic 1.0000000
all przede 0.1666667
all mieszkańców 0.5000000
all wszystkie 0.4285714
all NULL 0.0019157
all wszystkich 0.7500000
all wszytkim 0.2500000
all wszystkim 0.1666667
all całego 0.2500000
all we 0.0625000
southern południowymi 0.5000000
Prize noblistów 0.3750000
Prize NULL 0.0003831
Prize Nagrodę 0.3333333
Prize popularnie 0.2500000
Prize poruszę 0.5000000
Prize Nobla 1.0000000
Prize za 0.0344828
use NULL 0.0003831
use najlepszej 0.3333333
use pełni 0.2500000
Lena minister 0.0158730
Lena NULL 0.0003831
Lena prof 0.0833333
Lena Leny 1.0000000
Lena Lena 0.3750000
members zostanie 0.1111111
members transferu 0.2500000
members członkiem-założycielem 0.3333333
Bakalaureat bakalawriat 1.0000000
Piotr powiedział 0.5000000
Piotr dodał 0.2500000
Piotr - 0.0064935
Piotr Piotr 0.6666667
step krokiem 0.5000000
step krok 0.6666667
fall jesienią 1.0000000
fall ruszy 0.3333333
divided ze 0.0400000
divided względu 0.3333333
divided na 0.0040000
divided dzieli 0.3333333
divided się 0.0081967
2005 r 0.0500000
2005 2005 1.0000000
Polish-Swedish Polsko-szwedzkie 1.0000000
dynamically ze 0.0400000
dynamically wszystkich 0.1250000
dynamically umiędzynarodowienia 0.1428571
dynamically najdynamiczniej 1.0000000
effectively skutecznego 1.0000000
deformation odkształcenie 1.0000000
effort starań 1.0000000
effort radziła 1.0000000
neutron neutronów 0.3333333
neutron źródła 0.3333333
Kyoto Kioto 1.0000000
continue studiach 0.2500000
continue wprowadzamy 1.0000000
innovations innowacji 0.2857143
innovations Expanding 0.5000000
innovations innowacjach 1.0000000
innovations innowacje 0.6666667
especially a 0.0217391
especially współpracę 0.0666667
especially szczególnie 0.5000000
especially zwłaszcza 0.2500000
two- dwu- 1.0000000
German Niemiec 0.4000000
program liczba 0.5000000
program przede 0.1666667
program zbudowany 0.2000000
program kierowany 1.0000000
program program 0.0263158
program NULL 0.0011494
program jaki 0.3333333
at Polsko-Niemieckich 0.3333333
at słuchowego 0.2500000
at Barnes-Jewish 0.5000000
at chorobie 0.3333333
at staże 0.2500000
at badawczego 0.1666667
at rozmawiali 0.3333333
at konferencji 0.2000000
at zdobywać 0.2000000
at podoktoranckiego 0.3333333
at najmniej 0.2000000
at pod 0.1666667
at Uniwersytecie 0.5000000
at w 0.0387324
at geograficznej 0.3333333
at Stronę 0.3333333
at Johns 0.4000000
at Politechnice 1.0000000
at Tepui 0.5000000
at posiadają 0.2000000
at siedemnastu 1.0000000
at NULL 0.0045977
at podniesienia 0.3333333
at najwyższym 0.5000000
at zdobytą 1.0000000
at jednocześnie 0.2500000
at California 0.4285714
at publiczności 0.5000000
at The 0.3333333
at na 0.1160000
at renomowanych 0.2500000
at Researchers 0.2000000
at stażom 0.5000000
at Polacy 0.1000000
at Amsterdamie 0.5000000
at technicznych 0.3333333
readiness gotowości 1.0000000
Australia Australii 1.0000000
Australia ) 0.0125000
full NULL 0.0003831
full pełne 0.6666667
full programowej 0.2500000
full majątkowe 1.0000000
full nazwiskiem 1.0000000
full zestaw 1.0000000
promotion promocji 1.0000000
promotion wspieranie 0.3333333
RTD-CHARTER na 0.0040000
RTD-CHARTER adres 0.2500000
RTD-CHARTER RTD-CHARTER 1.0000000
Klimek Klimek 1.0000000
enhance europejskiej 0.1428571
enhance podnieść 0.3333333
enhance konkurencyjność 0.3333333
itself znajdowała 0.5000000
itself sobie 0.5000000
itself sama 0.3333333
institutions przestrzegać 0.2500000
institutions instytucjach 0.5000000
institutions instytucji 0.5555556
institutions instytucjami 0.5000000
institutions instytucje 0.6250000
institutions naukowe 0.0689655
institutions NULL 0.0030651
institutions poza 0.3333333
represent jest 0.0128205
represent kompromisu 0.5000000
chemist wybitny 0.5000000
chemist chemik 1.0000000
anyone czyta 0.5000000
anyone je 0.0909091
associations korzystniejszych 0.3333333
associations stowarzyszenia 1.0000000
inequity geograficznej 0.3333333
underway NULL 0.0003831
underway będziemy 1.0000000
care naukowej 0.0370370
care opieki 0.5000000
care żłobków 0.3333333
organisation pozarządową 0.5000000
pursuing systemowych 0.5000000
pursuing szereg 0.1250000
pursuing oraz 0.0103093
pursuing działań 0.0714286
pursuing konkursów 0.1428571
Universities uczelniach 0.0714286
Universities uniwersytetów 1.0000000
own własne 1.0000000
own projektem 1.0000000
own NULL 0.0007663
own własnych 0.5000000
own programy 0.1428571
own autorskie 0.5000000
own zaznaczył 0.5000000
rada-wydzialu rada-wydzialu 1.0000000
following kierunków 0.2222222
following następującymi 0.5000000
following przestrzegania 1.0000000
following stanęli 1.0000000
following następujących 0.5000000
following NULL 0.0015326
following ukończyć 0.5000000
following Dofinansowane 0.5000000
habilitation habilitację 1.0000000
colleges wskazanym 0.2000000
colleges adresem 0.2500000
colleges zawodowe 0.1666667
Astronomy UMK 1.0000000
Transferring Przekazanie 0.5000000
some Kiedyś 0.3333333
some wyzwania 1.0000000
some część 1.0000000
some jednych 0.5000000
showed wykazała 1.0000000
showed marsjańskiego 0.3333333
then tego 0.0476190
then następnie 0.7500000
then przedmiotem 0.5000000
otosurgeon otochirurg 1.0000000
practitioners praktyków 1.0000000
tested osobiście 1.0000000
levels europejskich 0.1000000
levels poziomach 1.0000000
levels NULL 0.0003831
levels liceami 0.5000000
cases przypadków 0.5000000
cases grupie 0.3333333
as zarówno 0.1666667
as konkurencyjna 0.4000000
as aż 0.3076923
as 690 0.5000000
as prezes 0.5000000
as wybiorą 1.0000000
as prawie 0.1666667
as rynek 0.2500000
as mianem 0.5000000
as pomiędzy 0.0909091
as dualnych 0.2000000
as jako 0.4000000
as a 0.2391304
as dzięki 0.0416667
as kierownictwem 0.5000000
as oraz 0.0309278
as zaprzysiężona 0.1111111
as opracowania 0.2500000
as przeznaczyć 0.5000000
as także 0.0217391
as NULL 0.0122605
as nazwę 1.0000000
as odpowiedzialnego 0.5000000
as jak 0.0869565
as podobnie 1.0000000
as wrodzonych 0.4000000
as propozycja 0.2000000
as wdrożyć 0.5000000
as rozpoczęciem 0.3333333
as samo 0.3333333
as 42 1.0000000
investment inwestycjom 0.2500000
crystal optycznej 1.0000000
Follower Follower 0.5000000
debate dotycząca 1.0000000
debate NULL 0.0003831
debate debaty 0.3750000
debate zwrócono 0.2500000
debate czwartkowej 0.5000000
debate dyskusji 0.3333333
co-founder współzałożycielem 1.0000000
bases technologicznej 0.5000000
Hrynkiewicz Hrynkiewicz 0.5000000
process Główną 0.2000000
process Ministrów 0.5000000
process procesu 0.5000000
process innowacyjnego 1.0000000
process Nauki 0.0555556
funded co 0.0833333
funded siódmy 0.3333333
funded finansowany 0.3333333
funded NULL 0.0003831
Programming Programowaniu 0.3333333
Programming Mistrzostwach 0.3333333
improving jakość 0.2000000
improving kształcenia 0.0769231
improving lepsza 1.0000000
commence bezpłatne 0.3333333
commence NULL 0.0003831
therapy ma 0.0285714
therapy ta 0.2000000
therapy Terapia 0.5000000
therapy zastosowanie 0.5000000
democratic NULL 0.0003831
democratic na 0.0040000
democratic demokratycznych 1.0000000
uk uk 1.0000000
detectors podczerwieni 1.0000000
Bologna Rady 0.0666667
Bologna Ministrów 0.5000000
Bologna Komitetu 1.0000000
Bologna Radą 0.2500000
51 ulgi 0.3333333
51 wprowadził 0.3333333
economics ekonomika 1.0000000
economics ekonomia 1.0000000
able tam 0.4000000
able mogły 0.2000000
able podjąć 0.3333333
able również 0.0476190
able będą 0.0625000
able wybierał 0.2500000
able mogli 0.2857143
able NULL 0.0007663
medals medali 1.0000000
medals medale 1.0000000
medals brązowe 0.5000000
medals aż 0.0769231
Humanoid także 0.0217391
Humanoid zakończyła 0.5000000
Humanoid konkurencja 1.0000000
Humanoid Humanoid 0.5000000
burden biurokratycznych 0.5000000
16 16 1.0000000
enhancing wzmocnienie 0.2000000
enhancing misji 1.0000000
enjoyed cieszyło 1.0000000
balance równowagi 0.5000000
expenditures nakłady 0.5000000
ultracold atomów 0.3333333
ultracold ultrazimnych 1.0000000
signed NULL 0.0003831
signed podpisał 1.0000000
signed 344 0.5000000
signed studentówi 1.0000000
in-depth szerokim 0.3333333
renown renomowanych 0.2500000
Graduate Graduate 1.0000000
Graduate Institute 0.3333333
Graduate for 0.1111111
granted otrzyma 0.3333333
granted stażach 1.0000000
granted zdobędzie 0.2500000
granted staną 0.2500000
granted przez 0.0158730
granted przyznawane 0.4000000
granted NULL 0.0003831
Jurek programów 0.0909091
Jurek europejskich 0.1000000
Jurek ds. 0.0666667
Jurek prorektorem 1.0000000
facility obiektu 0.3333333
reformation reformowaniu 0.5000000
reformation nauki 0.0086957
Germany Niemiec 0.2000000
students rozpowszechniać 0.5000000
students uczniom 0.5000000
students reprezentują 0.3333333
students robota 0.5000000
students programem 0.1666667
students NULL 0.0019157
students doktorantom 0.5000000
students doktoranci 0.5000000
students studentami 1.0000000
students studiach 0.2500000
students studentów 0.7500000
students studentom 0.4375000
students studiującym 0.3333333
students doktorantów 0.4500000
students uczniów 0.3333333
students studenci 0.8000000
students pozwalają 0.5000000
students dotacji 0.1111111
students amerykańską 0.6666667
culture Nahua 1.0000000
approaches zróżnicowanie 0.5000000
approaches również 0.0476190
approaches akademickie 0.2500000
approaches uczelni 0.0263158
Balticlab BalticLabie 0.5000000
favourable pozwala 0.3333333
favourable - 0.0064935
favourable zasadach 0.3333333
Innovation Brokerzy 0.2000000
Innovation Innovation 0.5000000
Innovation ekspeľtów 1.0000000
Innovation Innowacji 0.5000000
Innovation polityki 0.5000000
European spľaw 0.1428571
European swoją 0.2500000
European European 0.3333333
European wskazanym 0.2000000
European Krajowych 0.3333333
European Obserwatorium 0.2500000
European europejskiej 0.4285714
European Europejską 0.3333333
European europejskich 0.6000000
European 17 0.5000000
European europejskie 0.6250000
European oraz 0.0206186
European europejskim 0.5000000
European prestiżowego 0.2500000
European NULL 0.0026820
European Unii 0.3157895
European Europejskie 0.3333333
European Europejska 0.2500000
European Unia 0.3333333
European Reprezentacją 1.0000000
European Zachodniej 0.3333333
European Systemu 0.2500000
European Europejskiego 0.2857143
European europejski 0.5000000
European Europejskiej 0.4827586
European kosmodromu 0.2000000
European europeistyka 0.5000000
European europejskimi 0.5000000
ii Rząd 1.0000000
ii NULL 0.0003831
ii I. 1.0000000
ii uczynił 1.0000000
ii priorytetów 0.1428571
Recognition stoisko 0.3333333
782.6 782,6 0.5000000
realized stworzyli 1.0000000
concerning NULL 0.0007663
concerning materialnej 0.1428571
concerning uczelniane 0.2500000
FOR DLA 1.0000000
identify zidentyfikować 0.3333333
identify prowadzone 0.2000000
was przeprowadził 1.0000000
was dokonali 0.3333333
was ukazała 0.5000000
was NULL 0.0045977
was wieloletniego 1.0000000
was funkcje 0.5000000
was została 0.5000000
was Rezultat 0.2500000
was pełnił 1.0000000
was ratyfikował 0.5000000
was zostało 0.5000000
was innowacyjności 0.1250000
was dr 0.2500000
was było 0.5625000
was zakończył 0.3333333
was stanowiły 0.5000000
was była 0.6666667
was mnie 0.5000000
was odbyło 0.3750000
was stała 0.5000000
was był 0.4444444
was obiektu 0.3333333
was Humanoid 0.5000000
was wzięli 0.2000000
was nominację 0.5000000
was brała 1.0000000
was kosmodromu 0.2000000
was siódma 0.5000000
was słuchowego 0.2500000
was udało 0.6666667
was zwrócono 0.2500000
was porządkuje 0.2500000
was Guliński 0.2500000
was zajęła 1.0000000
was r. 0.0526316
was edukacyjnych 0.2000000
was zakończonym 0.3333333
was Podkreślono 0.3333333
was 1300 0.3333333
Calvin Calvinem 0.5000000
stable obecnie 0.1428571
stable stabilne 1.0000000
stable stałego 0.5000000
stable poziom 0.1428571
reforming reformujące 0.5000000
reforming naukę 0.1428571
Polonez Płatne 0.5000000
Polonez POLONEZA 0.2000000
1994 r. 0.1052632
1994 ) 0.0125000
1994 1994 1.0000000
train 120 0.3333333
train NULL 0.0003831
nations różnych 0.2500000
loss niedosłuchem 1.0000000
loss częściową 0.3333333
horizon2020 horizon2020 1.0000000
horizon2020 programmes 0.5000000
models się 0.0081967
models autorytetem 0.5000000
models też 0.0238095
Evaluation Jednostek 0.6666667
Evaluation Naukowych 0.2857143
Evaluation Ewaluacji 0.4000000
Evaluation zmianach 0.5000000
technologies technologiach 1.0000000
technologies wojskowych 1.0000000
technologies wspierających 0.2500000
technologies technologii 0.2352941
technologies technologie 0.5000000
http http 1.0000000
graphene NULL 0.0003831
graphene to 0.0107527
graphene Grafen 1.0000000
orbiting okrążającą 0.3333333
fixed określony 0.1250000
fixed przewodniku 0.2500000
fixed sposób 0.1250000
fixed w 0.0017606
surgery operację 0.3333333
society społeczeństwie 0.3333333
society prof 0.0833333
society społeczeństwo 0.5000000
society społeczeństwa 0.6666667
Minnesota Minnesota 1.0000000
promoting Promowanie 1.0000000
promoting KE 1.0000000
promoting przez 0.0158730
Palczewski Palczewski 1.0000000
industry kosmicznego 1.0000000
industry przemysł 0.5000000
industry przedsiębiorstw 0.5000000
industry przemyśle 0.5000000
industry przemysłu 0.8000000
industry energetyki 0.1428571
industry przemysłem 0.2000000
Lithuania Łotwy 1.0000000
Lithuania Litwy 0.5000000
obtained przeciwnowotworowego 1.0000000
allowances zapomogi 0.5000000
allowances oraz 0.0103093
allowances wyżywienie 0.5000000
California California 0.5714286
date do 0.0070922
date Wypromowała 0.5000000
date pory 0.2000000
date aktualne 1.0000000
date tej 0.0714286
quality studiów 0.0238095
quality jakość 0.4000000
quality edukacji 0.2857143
quality oraz 0.0103093
quality jakości 0.3750000
quality NULL 0.0015326
Erasmus Erasmus 0.9166667
draft ustawy 0.3333333
draft projekt 0.0909091
draft nowelizacji 0.1666667
draft który 0.0666667
objective było 0.0625000
objective zadaniem 0.2500000
units naukowe 0.0689655
units jednostki 0.2857143
units japońskie 0.5000000
units naukowych 0.0576923
units NULL 0.0011494
way najlepsza 0.5000000
way sposób 0.2500000
way samych 1.0000000
attached załączniku 0.5000000
allot na 0.0040000
allot ten 0.1250000
allot przeznaczać 1.0000000
improve poprawia 0.2500000
improve jakości 0.1250000
improve poprawy 1.0000000
improve podwyższanie 1.0000000
COMPET COMPET 0.6666667
COMPET unijni 0.3333333
Thursday Sejmie 1.0000000
analysis przemysłem 0.2000000
analysis analizy 0.2500000
casually i 0.0025641
casually grzecznościowo 1.0000000
together wraz 0.2000000
together z 0.0043668
together wykładowcami 0.3333333
together wspólnie 0.4000000
together razem 1.0000000
together NULL 0.0003831
world światowych 1.0000000
world NULL 0.0011494
world na 0.0080000
world światowym 0.3750000
world Polskich 0.2000000
world światowej 0.2500000
world Specjalizuje 0.1666667
world świecie 0.5789474
world świata 0.4000000
movement swobodnego 0.3333333
movement sprawy 0.3333333
movement dotyczące 0.0909091
movement m.in. 0.0500000
movement omawiają 1.0000000
January stycznia 1.0000000
January od 0.0232558
January styczniu 1.0000000
subsidy ogólnej 0.5000000
subsidy dotacji 0.1111111
subsidy pomoc 0.1111111
Technology innowacyjności 0.1250000
Technology z 0.0043668
Technology Warszawskiej 0.6666667
Technology Elektronicznych 0.5000000
Technology Politechniki 0.2000000
Technology Staszica 0.5000000
Technology Górniczo-Hutnicza 0.1818182
Technology Górniczo-Hutniczej 1.0000000
Technology Technology 0.6666667
Technology NULL 0.0003831
Nahua kulturę 0.3333333
best najlepsi 0.5000000
best najlepsze 0.7142857
best zespołach 0.3333333
best najlepszym 0.5000000
best najlepiej 0.3333333
best najlepszych 0.6666667
best odpowiednich 0.5000000
best najlepszy 0.5000000
best NULL 0.0003831
best najlepsza 0.5000000
competences umiejętności 0.2857143
chances szanse 0.5000000
Finance Fundacji 0.2000000
Finance Naukowo-Technologicznego 0.5000000
Finance UAM 0.2500000
teach uczy 0.5000000
teach będzie 0.0200000
teach uczył 0.3333333
allowed pozwalało 0.5000000
allowed wprowadzać 1.0000000
allowed granicą 0.2500000
allowed NULL 0.0003831
Bose-Einstein kondensat 1.0000000
200 otrzymało 0.1428571
200 200 0.5000000
joint wspólnych 0.3333333
joint NULL 0.0003831
joint badawczymi 0.1666667
joint wspólne 0.7142857
joint będą 0.0312500
Policy-makers makers 0.5000000
Policy-makers panelu 0.5000000
Policy-makers Policy 0.3333333
Road Polskiej 0.1250000
Road Mapie 0.5000000
special specjalne 0.2500000
special stypendium 0.0833333
special osiągnięcia 0.1250000
special NULL 0.0003831
special specjalny 0.2500000
special żelaza 0.2500000
special wyjątkowe 0.5000000
contribute wkładem 1.0000000
contribute stanowił 1.0000000
contribute kraju 0.1428571
contribute naszego 0.5000000
contribute pełne 0.3333333
contribute uczestniczenie 0.5000000
clubs dziecięcych 0.2000000
Open zasady 0.0769231
Open podmiotami 0.5000000
Open współpracy 0.0476190
AGH NULL 0.0003831
AGH Akademia 0.7500000
Ewa premier 0.3333333
Ewa Ewa 1.0000000
Tarnowo-Mościce uniwersyteckim 0.3333333
Tarnowo-Mościce Tarnowie-Mościcach 1.0000000
Tarnowo-Mościce pierwszym 0.1111111
ignored pomijane 1.0000000
frequently jej 0.0833333
necessary niezbędnej 1.0000000
necessary konieczne 0.4285714
necessary NULL 0.0003831
projects rozwiązań 0.1111111
projects projekty 0.7142857
projects predyspozycje 0.2000000
projects doktorskie 0.3333333
projects dodatkowo 0.3333333
projects NULL 0.0007663
projects projektów 0.7500000
projects projektach 0.8000000
projects projektami 1.0000000
projects przedsięwzięcia 0.5000000
neutral światłem 0.2500000
reserved środki 0.2000000
reserved wydzielono 0.3333333
France Francji 0.5000000
1 1 0.9166667
1 do 0.0070922
accepted przyjęty 1.0000000
@ @ 0.6666667
@ adres 0.2500000
@ na 0.0040000
three-month studentom 0.0625000
three-month trzymiesięcznych 0.3333333
three-month zapewnienia 0.5000000
disbursed przez 0.0158730
disbursed NCN 0.3333333
disbursed wydatkowanych 0.5000000
disbursed funduszy 0.1250000
Denmark Danii 1.0000000
Denmark Bolońskiego 1.0000000
Denmark Dania 1.0000000
2012 r 0.1500000
2012 2012 0.9090909
2012 NULL 0.0003831
2012 roku 0.0759494
top-choice wybieranym 0.5000000
top-choice stała 0.5000000
top-choice najczęściej 0.2500000
top-choice się 0.0081967
could pomoc 0.1111111
could tą 0.1666667
could przeznaczone 0.2500000
could na 0.0040000
delighted zachwycona 1.0000000
delighted tą 0.1666667
delighted wiadomością 0.3333333
marrow szpiku 0.5000000
qualify kandydatów 0.2000000
qualify zakwalifikuje 0.5000000
qualify własnych 0.5000000
qualify uczelnia 0.5000000
qualify Mistrzostwa 0.5000000
qualify według 0.3333333
headed Guliński 0.2500000
headed będzie 0.0200000
headed uczestniczyć 0.2500000
headed Jacek 0.5000000
headed Prof. 0.0526316
Szumowski tzw. 0.2000000
Szumowski szanghajskiego 0.5000000
making spowoduje 0.1666667
making przejście 0.2000000
making - 0.0064935
making rozpoczynającym 0.1428571
making wyszukiwarki 0.2500000
making do 0.0070922
spectrum + 0.1333333
spectrum lewy 0.2500000
spectrum shift 0.1666667
spectrum alt 0.3333333
effects pierwszymi 0.5000000
effects efektami 0.5000000
effects cieszyć 1.0000000
become naprawdę 0.2500000
become osiągnięciom 0.5000000
reports sprawozdań 1.0000000
RNA RNA 0.3333333
RNA wchodzące 1.0000000
Seminar Seminar 1.0000000
joining innovations 0.5000000
joining joining 1.0000000
joining by 0.0909091
joining BalticLabie 0.5000000
seeking zostaną 0.1000000
seeking konkursy 0.5000000
seeking programów 0.0909091
seeking operacyjnych 0.2000000
seeking uruchomione 1.0000000
seeking ramach 0.0400000
highest zaszczytnym 1.0000000
highest najwyższym 0.5000000
highest najwyższy 1.0000000
highest głównej 0.1666667
highest najwyższe 0.3333333
highest poziomie 0.3333333
highest zdobywając 0.5000000
highest największym 0.3333333
highest światowym 0.2500000
graft przeszczepu 1.0000000
prize tym 0.0270270
prize za 0.0344828
prize idzie 0.5000000
establishments NULL 0.0007663
establishments uczelni 0.0526316
? poprawia 0.2500000
? ? 1.0000000
? . 0.0014728
not niepowiązanych 0.2500000
not nie 0.5714286
not NULL 0.0007663
not droga 0.5000000
not uczył 0.3333333
not astronomowie 0.3333333
not tekstu 0.5000000
not realizował 0.2500000
not niedyskryminacji 0.3333333
Metals Metali 0.3333333
Metals Inżynierii 0.3333333
teaching wyróżnienia 0.5000000
teaching dobrą 1.0000000
teaching doskonalenie 0.5000000
teaching za 0.0344828
teaching dydaktyczne 0.6666667
SCIENCE NAUKA 0.5000000
authority światowym 0.1250000
authority dziedzinie 0.0526316
authority krzemoorganicznej 1.0000000
authority chemii 0.2500000
authority autorytetem 0.5000000
R obszar 0.3333333
R + 0.0666667
R B 0.1666667
R R 1.0000000
Crimea Krymu 1.0000000
opinion opinia 0.5000000
opinion podkreślał 0.2500000
opinion grup 0.3333333
Carol Carol 1.0000000
commercialize komercjalizują 1.0000000
Wroclaw Matki 1.0000000
advise ścieżkę 1.0000000
advise rozpoczynającym 0.1428571
marie-sklodowska-curie-actions marie-sklodowska-curie-actions 1.0000000
priority priorytetowych 1.0000000
priority priorytetów 0.1428571
priority wymiany 0.2000000
priority akademickiej 0.3333333
priority priorytetem 0.2500000
attitudes postaw 0.2500000
attitudes zmiany 0.0666667
attitudes demokracji 0.2000000
attitudes to 0.0107527
attitudes Budowa 1.0000000
Forum Nauki 0.1111111
Forum Polsko-Francuskiego 0.5000000
Forum Forum 0.1818182
flywheel zamachowym 0.5000000
flywheel innowacyjnej 0.5000000
flywheel polskiej 0.0476190
flywheel kołem 0.5000000
English angielsku 1.0000000
English angielskim 1.0000000
prof prof 0.0833333
cover motywacyjny 0.2500000
cover licencjackie 0.5000000
cover innowacyjność 0.3333333
32 32 0.5000000
32 doktorów 0.5000000
NAFSA NAFSA 1.0000000
Program Fulbrighta 0.5000000
Program NULL 0.0003831
Program Program 0.0833333
law ustawy 0.3333333
law Zaproponowano 0.5000000
law zakłada 0.3333333
law prawie 0.1666667
law prawo 0.6666667
winner NULL 0.0003831
given jedynie 0.5000000
given dała 0.3333333
given jednostki 0.0714286
given terenów 0.3333333
given NULL 0.0007663
Elizabeth Elizabeth 0.6666667
progress gwarantujących 0.5000000
progress postęp 1.0000000
specifying sposób 0.1250000
specifying określające 0.5000000
greatest Największe 0.5000000
greatest formatu 0.5000000
greatest NULL 0.0003831
greatest mistrzami 0.5000000
greatest największego 0.2500000
Sweden współpracują 0.5000000
Sweden Lund 0.3333333
Sweden Szwecja 1.0000000
Sweden NULL 0.0003831
believe współpraca 0.0714286
believe Wierzę 0.5000000
believe tego 0.0476190
believe rodzaju 0.5000000
believe oparta 0.5000000
waves fal 0.5000000
ERA ; 0.0714286
ERA Polskich 0.2000000
ERA Zawodowych 0.5000000
conferences konferencjom 0.5000000
conferences NULL 0.0003831
conferences organizowane 0.2000000
publications publikacjach 1.0000000
publications publikacji 0.5000000
publications parków 1.0000000
publications publikacje 1.0000000
publications pierwsze 0.2000000
publications NULL 0.0003831
settling uproszczonych 0.5000000
each co 0.0833333
each każdy 0.6000000
each Każda 1.0000000
each sobą 0.1666667
each złotych 0.0909091
each każdego 0.5000000
internationalization poziom 0.1428571
internationalization innowacyjność 0.3333333
internationalization umiędzynarodowienia 0.1428571
internationalization NULL 0.0003831
internationalization Umiędzynarodowienie 0.3333333
Internet internauci 0.3333333
Internet NULL 0.0003831
( ds 0.3333333
( bo 0.3333333
( doktora 0.2000000
( Spalacyjnego 0.2500000
( Wiodących 0.3333333
( począWszy 0.2500000
( ESO 0.3333333
( zaprzysiężona 0.1111111
( medyczne 0.1666667
( przekształcaniem 0.1666667
( ( 0.6891892
( rekordową 0.5000000
( NULL 0.0038314
( komercjalizacyjnym 0.2500000
standard jakości 0.1250000
Directive dyrektywy 1.0000000
Department Wydziału 0.2222222
Department Wydziale 0.5000000
Department Kliniki 0.5000000
Department profesora 0.2500000
designed zadanie 1.0000000
designed za 0.0689655
designed wspierać 0.5000000
in naukowca 0.2000000
in ogłosiły 1.0000000
in dodatkowo 0.3333333
in grupą 0.2500000
in jednorazowo 0.3333333
in proporcjonalnie 0.3333333
in Komisją 1.0000000
in projektu 0.1666667
in które 0.0217391
in François 0.5000000
in nowocześnie 0.2500000
in przyszłorocznego 0.2000000
in działania 0.1818182
in kwotą 1.0000000
in uczestnicy 0.3333333
in Stanforda 0.5000000
in przygotowanie 0.1111111
in studiach 0.2500000
in specjalistami 0.5000000
in ministrowie 0.1111111
in in 0.5000000
in Łącznie 0.3333333
in Kluczowym 0.3333333
in po 0.0625000
in Rektorzy 1.0000000
in sukcesów 0.5000000
in shift 0.1666667
in warsztatów 0.2500000
in Jaka 0.5000000
in realizację 0.0833333
in Stanisława 0.5000000
in regionów 0.2500000
in postaw 0.2500000
in naukami 0.2000000
in pracy 0.0869565
in kierunku 0.3333333
in programem 0.1666667
in Ukrainie 0.2857143
in we 0.5000000
in Nabór 1.0000000
in zainteresowanym 0.3333333
in u 0.2000000
in rozwojowych 0.2500000
in centrów 0.3333333
in prowadzenia 0.1000000
in doskonałości 0.2000000
in poprawiających 1.0000000
in zapowiedzi 0.2000000
in zainteresowanych 0.3333333
in na 0.0200000
in europejska 0.5000000
in aby 0.1111111
in otorynolaryngologii 0.5000000
in NULL 0.0137931
in Podlasiu 0.5000000
in ścieżki 0.5000000
in wersję 0.5000000
in infrastruktura 0.2500000
in profesora 0.2500000
in obszarów 0.3333333
in dzielony 0.5000000
in habilitowanego 0.5000000
in w 0.5545775
in przemysłem 0.2000000
in od 0.0232558
in nawiążą 0.3333333
in zasad 0.2500000
in Europy 0.2000000
in planet 0.5000000
in ponadto 0.1666667
in przedsięwzięcie 0.3333333
interest zainteresowaniem 1.0000000
interest NULL 0.0003831
interest interesują 0.2500000
laboratory NULL 0.0003831
laboratory świata 0.1000000
laboratory laboratorium 0.6000000
protection ochrona 1.0000000
protection zabezpieczenie 0.3333333
protection chroniącymi 0.5000000
protection wykwalifikowanych 1.0000000
protection NULL 0.0011494
protection strony 0.0666667
true nas 0.2500000
true są 0.0238095
true interesują 0.2500000
true naszą 0.5000000
strategic strategicznym 0.5000000
strategic partnerstwo 0.2000000
strategic partnerstwa 0.5000000
delegation ukraińską 0.3333333
delegation dzieliłam 0.2500000
cum cum 1.0000000
Idea pomysłu 0.5000000
Trainings realizowane 0.5000000
Trainings szkolenia 0.3333333
hold dyskusje 0.5000000
hold NULL 0.0003831
Warsaw UW 0.3333333
Warsaw Warszawski 0.2500000
Warsaw Warszawskiej 0.3333333
Warsaw rozwiniętych 0.5000000
Warsaw Hollande 0.5000000
Warsaw Warszawie 0.7500000
Warsaw Warszawą 0.5000000
Warsaw NULL 0.0011494
Warsaw Warszawskiego 1.0000000
Warsaw warszawskiego 1.0000000
solutions rozwiązań 0.3333333
solutions jej 0.0833333
solutions rozwiązania 0.2857143
solutions szereg 0.1250000
solutions technologiczne 0.3333333
September września 1.0000000
September we 0.0625000
September wrześniu 1.0000000
explained wyjaśniała 1.0000000
explained NULL 0.0003831
explained wyjaśniła 0.7500000
Agency Kosmicznej 1.0000000
orbit orbitę 1.0000000
orbit orbity 1.0000000
image Polski 0.0322581
image wizerunku 1.0000000
necessities zalety 0.5000000
necessities konieczność 1.0000000
started samodzielną 0.5000000
started ramach 0.0400000
started NULL 0.0003831
Uniqueness Komitet 0.2500000
380 publikacji 0.2500000
380 380 1.0000000
acts ustawami 0.5000000
acts następującymi 0.5000000
worth porażkami 1.0000000
worth zrażajcie 0.2500000
worth wart 1.0000000
earliest r 0.0500000
earliest . 0.0014728
training szkoleniach 1.0000000
training szkolenia 0.6666667
training Doliny 0.3333333
training na 0.0040000
training praktyk 0.4000000
training NULL 0.0007663
educated globalnej 1.0000000
educated ludzi 0.2000000
educated kraj 0.3333333
educated wykształconych 1.0000000
educated arenie 0.5000000
employee pozytywna 0.2500000
employee ocena 0.5000000
1987 1987 1.0000000
1987 doktorat 0.2500000
1987 r. 0.0526316
need przyciągnąć 0.5000000
need uczyć 0.3333333
need aplikacyjnych 1.0000000
need konieczności 0.3333333
need NULL 0.0015326
need Potrzeba 0.3333333
need zajmować 0.5000000
need potrzebują 1.0000000
need trzeba 0.2000000
need musimy 0.3333333
establishing nawiązania 1.0000000
cooperating ” 0.0217391
professors z 0.0043668
professors kolei 1.0000000
professors profesorowie 1.0000000
proper reprezentację 0.5000000
master ukończone 0.5000000
6th 6 0.3333333
6th miejsce 0.1000000
when NULL 0.0007663
when wtedy 0.5000000
when gdy 0.7500000
Obrębski Obrębski 1.0000000
allocating jest 0.0128205
edifice NULL 0.0003831
Collect Collect 0.5000000
Laboratory ) 0.0125000
Laboratory Laboratory 1.0000000
Laboratory Investigator 0.3333333
Laboratory Associate 0.5000000
education-profile edukacyjnym 0.5000000
education-profile międzynarodowymi 0.3333333
education-profile profilu 0.2000000
education-profile organizacjami 0.2500000
Maciej Maciej 1.0000000
Maciej NULL 0.0003831
referred wskazał 1.0000000
manuals programów 0.0909091
manuals akademickich 0.2500000
manuals podręczników 0.5000000
manuals autorzy 0.5000000
manuals ciekawych 0.5000000
manuals to 0.0107527
defects za 0.0344828
defects nabytych 1.0000000
defects pomocą 0.3333333
considered największe 0.1250000
considered polską 0.2500000
considered uznawanych 1.0000000
considered za 0.0689655
Nicolaus Toruniu 0.3333333
requirements ustawowych 0.5000000
requirements Wymagania 1.0000000
requirements opis 0.3333333
requirements pracy 0.0869565
iv komercjalizacyjnym 0.2500000
receptors G 1.0000000
added zadawać 1.0000000
added zaznaczyła 0.2000000
added NULL 0.0003831
added spotkaniu 0.3333333
added dodała 0.5000000
added dodał 0.2500000
added podkreśliła 0.1111111
added dodaje 0.3333333
2008-2011 2008-2011 0.5000000
fill wypełniać 1.0000000
4th 4. 1.0000000
4th Mieście 0.5000000
preference ministra 0.0588235
preference sympatii 1.0000000
preference pierwszeństwo 0.5000000
gases chłodzeniem 1.0000000
gases gazów 1.0000000
gases atomowych 0.5000000
gross brutto 1.0000000
schools uczelnie 0.1851852
schools szkołach 0.3333333
schools i 0.0051282
schools NULL 0.0003831
schools zawodowe 0.1666667
internal analizy 0.2500000
internal wewnętrznej 1.0000000
states udziału 0.1666667
states EFTA 0.5000000
states stanowi 0.3333333
states członkowskich 0.2000000
states kraje 0.3333333
Spending materialną 1.0000000
Spending pomoc 0.1111111
Spending rosną 0.5000000
Spending nakłady 0.1666667
Spending na 0.0080000
try uzyskać 1.0000000
try odpowiedzi 0.3333333
built ono 0.5000000
built zbudowany 0.4000000
assessment okresowa 1.0000000
Sciences Gdański 0.5000000
Sciences Sciences 1.0000000
Sciences Akademii 0.1250000
Sciences Nauk 0.2500000
From Od 0.3333333
Brazil Brazylii 1.0000000
security społeczno-emerytalne 0.3333333
place zaszły 0.2500000
place znalazł 0.2500000
place się 0.0327869
place miejsce 0.2000000
centres uczestniczyło 0.2500000
centres egzaminacyjnych 0.2500000
centres ośrodkach 0.8000000
centres naukowymi 0.2500000
centres NULL 0.0011494
centres sześć 0.3333333
centres ośrodki 0.3333333
centres naukowych 0.0192308
centres lecz 0.5000000
centres akademickimi 0.3333333
centres sportowe 0.5000000
centres zespołami 0.5000000
centres żłobków 0.3333333
conducting prowadzenia 0.1000000
conducting zakresie 0.0714286
Russians zajęli 0.5000000
Russians Rosjanie 0.5000000
Russians - 0.0064935
Russians sześcioma 1.0000000
Russians medalami 0.5000000
bone przeszczepieniu 1.0000000
art artystyczne 0.2500000
exploitation eksploatacji 0.3333333
atomic atomowych 0.5000000
atomic sieci 0.3333333
atomic laserowym 1.0000000
ownership się 0.0081967
ownership staną 0.2500000
ownership właścicielami 0.3333333
Máire Marie 0.2000000
thoroughly ) 0.0125000
thoroughly strona 1.0000000
thoroughly klawiszowych 1.0000000
thoroughly opis 0.3333333
thoroughly ( 0.0135135
thoroughly skrótów 0.3333333
consultations udziałem 0.2500000
intense intensywny 0.5000000
intense czas 0.1000000
debated innymi 0.1666667
debated wzmocnieniu 1.0000000
debated między 0.0909091
defended obroną 0.2500000
defended ich 0.0476190
defended przed 0.1000000
rover marsjańskiego 0.3333333
rover spektrometrach 1.0000000
rover łazika 0.5000000
rover Hyperion 0.5000000
two dwuletnie 0.5000000
two Dwoje 1.0000000
two partnerskimi 0.5000000
two NULL 0.0007663
two dwa 0.5000000
two dwóch 0.5000000
two kolejne 0.1428571
Krajowy status 0.5000000
Krajowy Naukowego 0.3333333
Krajowy zyskały 1.0000000
Krajowy które 0.0217391
Trio obecnego 0.3333333
Trio badań 0.0156250
Trio Trio 1.0000000
prospective możliwej 1.0000000
prospective współpracy 0.0476190
prospective zakres 0.3333333
prospective naukowej 0.0370370
Waldemar Waldemar 1.0000000
other europejskimi 0.5000000
other NULL 0.0015326
other inne 0.5000000
other rządów 0.3333333
other dwumiesięcznych 0.3333333
other strategiczne 0.2500000
other i 0.0025641
other sobą 0.1666667
other popularyzacji 0.3333333
other innych 0.8000000
jobs absolwentów 0.1428571
jobs przyszłych 0.5000000
jobs pracy 0.0434783
V. V. 1.0000000
Campus NULL 0.0003831
buildings regionach 1.0000000
&apos;m Ranking 0.1250000
&apos;m Academic 0.5000000
versus przeciwko 1.0000000
direct NULL 0.0003831
direct korzyści 0.3333333
participants grupą 0.2500000
participants uczestników 0.8000000
participants uczestnicy 0.3333333
footsteps wzorem 0.5000000
Intelligent Inteligentny 0.6666667
Creativity Kreatywności 0.6666667
caseby-cases przypadku 1.0000000
Kingdom Brytania 1.0000000
determine NULL 0.0011494
determine zależy 0.2500000
get złotych 0.0909091
get uzyskanie 0.2000000
get otrzymać 0.1111111
get milion 0.3333333
renamed 2012 0.0909091
competitive kraj 0.3333333
competitive oferta 0.5000000
competitive obecnie 0.1428571
competitive NULL 0.0007663
competitive oferuje 1.0000000
times razy 1.0000000
850.2 850,2 0.5000000
Studijos było 0.0625000
Studijos polskie 0.1250000
Studijos podczas 0.0312500
Studijos Studijos 0.5000000
Studijos już 0.0416667
Studijos targów 0.5000000
Nałecz molekularną 0.3333333
Coordination i 0.0025641
Chiara Chiara 1.0000000
Duke Duke 1.0000000
knowledge NULL 0.0003831
knowledge mogą 0.0476190
knowledge wiedzy 1.0000000
Swedish ono 0.5000000
Swedish szwedzkim 0.5000000
businesses przedsiębiorstwach 1.0000000
businesses uczestnicy 0.3333333
businesses przedsiębiorstwom 0.5000000
choose wyboru 0.6666667
choose wybierał 0.2500000
choose właśnie 0.1428571
points możliwych 1.0000000
property intelektualna 1.0000000
property praw 0.1250000
property NULL 0.0007663
property Przekazanie 0.5000000
property prawa 0.1250000
property naukowcom 0.1666667
property intelektualnej 1.0000000
Letters Letters 1.0000000
female pacjentki 0.5000000
female 79-letniej 1.0000000
divide uczelnie 0.0370370
divide NULL 0.0003831
2008 roku 0.0126582
2008 2008 1.0000000
takes zajmuje 0.5000000
technical naukowo-techniczny 0.5000000
technical habilitowanego 0.5000000
technical potencjał 1.0000000
Law społeczne 0.2500000
Law Prawa 0.3333333
Law zamówieniach 0.3333333
Law konsultacje 0.2500000
Law nowelizacji 0.1666667
zlotys milionów 0.2500000
zlotys złotych 0.0909091
junction styku 0.5000000
discussed związane 0.1666667
discussed białostockich 0.5000000
discussed kwestie 0.2000000
discussed rozwijania 1.0000000
discussed m.in. 0.0500000
discussed NULL 0.0003831
discussed rządów 0.3333333
discussed omówiony 1.0000000
discussed Polski 0.0322581
discussed kwestię 1.0000000
Observatory - 0.0064935
Observatory Południowe 0.5000000
test przetestują 1.0000000
test sprawdzenie 0.5000000
test je 0.0909091
1988 r. 0.0526316
1988 przeniosła 0.3333333
1988 1988 0.5000000
Pharmacology dziedzinie 0.0526316
Pharmacology Pharmacology 0.5000000
Pharmacology farmakologii 1.0000000
10.2 skok 0.5000000
10.2 o 0.0123457
increasing dla 0.0133333
increasing rzecz 0.0714286
increasing NULL 0.0003831
increasing podniesienia 0.3333333
increasing Researchers 0.2000000
increasing Zwiększamy 0.3333333
increasing uczonych 0.2500000
increasing polskich 0.0312500
increasing wynagrodzeń 0.1666667
venue NULL 0.0007663
an poprawić 0.3333333
an antyplagiatowego 0.3333333
an + 0.0666667
an ciekawej 0.5000000
an doskonałą 0.5000000
an - 0.0064935
an międzynarodowym 0.3333333
an pomysł 1.0000000
an wskaże 0.5000000
an planują 0.3333333
an wzrost 0.5000000
an NULL 0.0034483
an samym 0.2500000
an stosując 1.0000000
an doświadczeń 0.2500000
an ważną 0.3333333
an dorosłego 0.5000000
an do 0.0070922
an rozmowę 1.0000000
an kolejną 1.0000000
an Kampusu 1.0000000
an utrzymujący 0.3333333
an nauką 0.3333333
an rzeczowy 0.3333333
an rynek 0.2500000
an zaplecze 0.3333333
an element 0.5000000
an nieformalnym 0.5000000
an Ważnym 0.3333333
an międzynarodowy 0.3333333
an istotną 0.2500000
an zrażajcie 0.2500000
an przyznaną 0.5000000
an ona 0.2500000
an Od 0.3333333
Johns Johns 0.4000000
forces zmusza 1.0000000
fund narodowych 1.0000000
fund funduszy 0.1250000
sources źródeł 0.5000000
billion miliardów 1.0000000
billion mld 0.8571429
thinking myślenie 1.0000000
aircraft lotniczych 0.5000000
aircraft katastrof 1.0000000
” Salonie 0.5000000
” wyższym 0.0909091
” ” 0.3043478
” Policy 0.3333333
” programie 0.0909091
” POLONEZA 0.2000000
” panelu 0.5000000
” NULL 0.0007663
” „ 0.0980392
characterized scharakteryzowała 1.0000000
; NULL 0.0003831
; ; 0.7857143
; budowie 0.2500000
; science 1.0000000
; rozpoczynają 1.0000000
; wydzielono 0.3333333
; - 0.0194805
; resortu 0.2500000
statements nic 1.0000000
statements wspólnego 1.0000000
statements wystąpień 0.5000000
turn NULL 0.0003831
turn zmienia 0.5000000
turn naukowców 0.0232558
turn dziś 0.0769231
turn Polskę 0.1666667
choice instytucję 1.0000000
choice wyborów 1.0000000
choice naukową 0.1428571
informing konkursowych 0.2000000
informing informowania 0.5000000
invested Koncepcja 0.5000000
invested utworzenia 1.0000000
invested Teaming 0.2500000
invested Excellence 0.2000000
invested inwestowała 0.5000000
invested NULL 0.0003831
invested dotyczy 0.3333333
invested of 0.0400000
Fair Studijos 0.5000000
Fair narodowe 0.3333333
Fair prezentowane 1.0000000
Fair Fair 0.5000000
Fair stoisko 0.3333333
Adam Uniwersytetu 0.0588235
Adam realizacji 0.1111111
Adam Adama 1.0000000
replaced za 0.0344828
replaced dotychczasowe 1.0000000
replaced wprowadzona 0.5000000
replaced stypendium 0.0833333
replaced zastąpiło 1.0000000
seventeen wyższych 0.3333333
seventeen szkół 1.0000000
, czerwca 0.3333333
, tą 0.1666667
, badacz 0.5000000
, ze 0.0800000
, dyscyplin 0.5000000
, zdobyło 0.5000000
, Chemii 0.5000000
, po 0.0312500
, Wczoraj 0.5000000
, zainaugurowała 0.5000000
, także 0.0217391
, rekomendowani 0.3333333
, sama 0.3333333
, pomiaru 0.2500000
, tym 0.0540541
, organizacje 0.2000000
, półroczu 0.5000000
, pracujemy 0.2000000
, ds. 0.0666667
, kluczowe 0.3333333
, został 0.2500000
, potencjale 0.2000000
, programowej 0.5000000
, , 0.5899390
, popularnie 0.2500000
, pory 0.4000000
, laboratoriach 0.5000000
, edukacyjnym 0.5000000
, pod 0.1666667
, organizują 1.0000000
, lub 0.1578947
, temu 0.1666667
, mieście 0.5000000
, debaty 0.1250000
, NULL 0.0298851
, dziś 0.1538462
, czerwcu 0.4285714
, dyskusja 0.2500000
, szkolnictwa 0.0303030
, środę 0.3333333
, ta 0.2000000
, Gowina 0.3333333
, Uniwersyteckiego 0.5000000
, USA 0.3333333
, umowy 0.1250000
, - 0.0324675
, spľaw 0.2857143
, m.in. 0.2500000
, Teamingowi 0.5000000
, Poprzednio 0.5000000
, uczelni 0.0526316
, ( 0.0135135
, 1999 0.4000000
, realizację 0.0833333
, wydarzeniu 0.2000000
, grudnia 1.0000000
, MNiSW 0.0476190
, przy 0.0769231
, naukowiec 1.0000000
, czyli 0.1111111
, analizy 0.2500000
, których 0.0555556
, zajęć 0.2500000
, oraz 0.0103093
, Kwalifikacji 0.2000000
, powiększania 1.0000000
, możemy 0.5000000
, wodoru 1.0000000
, procedury 0.2500000
, uwag 0.5000000
, zajmując 0.2000000
, r 0.0500000
, trudnym 0.5000000
, innowacyjności 0.2500000
, materii 0.3333333
, ponadto 0.3333333
, rzeczywistości 0.5000000
, większą 0.2500000
, od 0.0697674
, zastosowano 0.3333333
, mówi 0.3333333
, r. 0.1578947
, i 0.0051282
, mogą 0.0476190
, przyciski 1.0000000
, wszystkim 0.1666667
, przyznano 1.0000000
, umowę 0.3333333
, kształcenie 0.3333333
, wolnej 0.5000000
, wartość 0.2500000
, roku 0.1645570
Initiated Zainicjowany 1.0000000
Technologies jednostki 0.0714286
Technologies ” 0.0217391
exchanged wymienili 0.5000000
exchanged tej 0.0714286
exchanged sprawie 0.3333333
situations NULL 0.0003831
situations sytuacjom 0.3333333
information Szczegółowe 0.2000000
information przydatne 0.3333333
information informacji 0.8000000
no nie 0.0571429
no rozwiązania 0.1428571
no mizrach.pl 0.2500000
no KGHM 0.5000000
Missouri NULL 0.0003831
Material Elektronicznych 0.5000000
Material Materiałów 0.5000000
area którym 0.2500000
area nauk 0.1000000
area NULL 0.0015326
area zajmującymi 1.0000000
area się 0.0163934
Cheltenham Cheltenham 1.0000000
brought przyniósł 0.5000000
brought też 0.0476190
brought uwagę 0.1666667
brought szerokim 0.3333333
brought iż 1.0000000
brought zwrócono 0.2500000
transplantation szpiku 0.5000000
cooperative współpracę 0.0666667
Milky Drodze 1.0000000
economic efekty 1.0000000
economic gospodarcze 0.5000000
put trafiły 0.2500000
thriving pytania 0.5000000
winter już 0.0416667
winter semestru 0.5000000
winter zimowego 0.5000000
winter od 0.0232558
Roy Royem 1.0000000
entrusted z 0.0043668
entrusted gospodarką 0.2000000
flagship flagowych 0.5000000
flagship wizytówką 1.0000000
flagship projektach 0.2000000
began rozpoczęte 1.0000000
distinction wyróżnienia 0.5000000
distinction Komisję 0.5000000
distinction wyróżnienie 0.3333333
distinction Europejską 0.3333333
distinction otrzymują 0.2500000
1.4-2.8 1,4-2,8 1.0000000
300 300 1.0000000
emphasised programów 0.0909091
emphasised oraz 0.0103093
emphasised publicznych 0.3333333
emphasised uczelni 0.0263158
emphasised podkreśliła 0.1111111
emphasised inwestycji 0.1666667
while drugiej 0.5000000
while narodowe 0.3333333
while jednocześnie 0.2500000
while zapewnić 0.3333333
while Ogłaszając 1.0000000
while natomiast 0.5000000
define odrębnej 1.0000000
define określą 1.0000000
define procedurę 1.0000000
define ochrony 1.0000000
define wspólnych 0.1666667
define umowie 0.5000000
Richard Lounsbery 0.5000000
Richard Richard 1.0000000
organometallic katalizy 1.0000000
organometallic metaloorganicznej 0.5000000
organometallic ( 0.0135135
VIGO VIGO 1.0000000
many aż 0.2307692
many NULL 0.0011494
many wiele 0.6666667
many szereg 0.1250000
many wskazanym 0.2000000
many wielu 0.6250000
Marciniak Chemii 0.5000000
Marciniak Wydziale 0.2500000
progresses jakość 0.2000000
W. W. 1.0000000
technology rozwiązaniach 0.3333333
technology centrów 0.1666667
technology NULL 0.0003831
technology skutkiem 1.0000000
technology technologiczne 0.3333333
technology technologicznych 0.3333333
technology technologii 0.2941176
technology transferu 0.2500000
lowest najniższych 0.3333333
lowest o 0.0123457
lowest NULL 0.0003831
chromosome zakończenia 0.5000000
suburb teraz 0.1666667
kind prestiżowe 0.1428571
I Zapytam 0.2500000
I tematykę 1.0000000
I Zapraszam 0.5000000
I Liczę 0.5000000
I miałam 0.2000000
I związkami 0.3333333
I Ogromnie 0.5000000
I zaproponowałam 0.3333333
I zdziwiło 0.5000000
I Mam 0.5000000
I infrastruktury 0.3333333
I dzieliłam 0.2500000
I Chciałabym 0.5000000
I Jestem 0.5000000
I NULL 0.0011494
I Postaram 0.5000000
I się 0.0163934
I Ranking 0.1250000
FREEDOM WOLNOŚĆ 0.3333333
week każdej 1.0000000
week nowy 0.0833333
week tym 0.0270270
week tygodniu 1.0000000
week Europejskiej 0.0344828
week przyjęto 1.0000000
peaceful pokojowe 1.0000000
February lutym 1.0000000
February lutego 1.0000000
February października 0.1111111
February tagów 0.5000000
maximum NULL 0.0007663
maximum list 0.2000000
maximum maksymalna 0.5000000
maximum 782,6 0.5000000
maximum ( 0.0135135
maximum ich 0.0476190
wybrane-uchwaly-rady-wydzialu wybrane-uchwaly-rady-wydzialu 1.0000000
Mathematics Wydziału 0.1111111
Mathematics Matematyki 0.3333333
outcomes efektów 0.5000000
outcomes nich 0.0625000
outcomes realizowanych 0.3333333
outcomes przez 0.0158730
outcomes NULL 0.0003831
3.8 kwoty 0.3333333
3.8 3,8 1.0000000
3.8 tysiąca 0.2500000
gas łupkowego 1.0000000
risen 690 0.2500000
raise rozwojem 0.5000000
raise naukowym 0.1250000
raise NULL 0.0003831
title działalność 0.1666667
title naukowo-badawczą 0.5000000
title tytułem 0.5000000
title środowisko 1.0000000
title uczelni 0.0263158
title doceniło 0.5000000
post-doctoral stopień 0.1666667
payments uproszczonych 0.5000000
payments procedur 1.0000000
payments odpłatności 0.3333333
payments kontrolnych 1.0000000
publication publikacji 0.2500000
proud aż 0.0769231
proud Warszawy 1.0000000
proud do 0.0070922
proud przyjechało 1.0000000
proud dumna 0.5000000
proud ich 0.0476190
passions indywidualnych 0.2500000
passions ministra 0.0588235
passions pasji 1.0000000
passions dotyczących 0.3333333
gives daje 0.2500000
gives szansę 0.1428571
gives to 0.0107527
gives ogromne 0.5000000
Archaeological Muzeum 0.3333333
thanks a 0.0217391
thanks dzięki 0.2916667
thanks członkiem 0.2500000
whole cała 1.0000000
whole całej 0.1111111
whole gospodarka 0.5000000
whole polska 0.1666667
whole i 0.0025641
whole NULL 0.0003831
She zwróciła 0.1666667
“ Podstawą 0.3333333
“ NULL 0.0011494
“ Jesteśmy 0.2500000
“ POLONEZA 0.2000000
“ Doświadczenie 0.3333333
“ stypendialny 0.1666667
“ „ 0.0392157
here NULL 0.0003831
here się 0.0081967
here tutaj 0.5000000
Supreme audytora 0.5000000
Supreme zewnętrznego 0.5000000
: języku 0.5000000
: SKŁADANIA 0.3333333
: edukacyjnych 0.2000000
: - 0.0194805
: r 0.0500000
: : 0.8550725
: www.go-poland.pl 0.3333333
: wynikająca 0.5000000
: studiujących 0.5000000
: Staszica 0.5000000
: Changing 1.0000000
: znajduje 0.5000000
: dążenie 0.2500000
: Południowe 0.2500000
: staż 0.2000000
: . 0.0014728
: NULL 0.0019157
: tylu 0.5000000
Furthermore mógł 0.3333333
Furthermore będzie 0.0200000
Furthermore polski 0.1428571
Furthermore przemysł 0.5000000
Furthermore liczyć 0.3333333
Furthermore także 0.0217391
EUR sumę 0.5000000
EUR NULL 0.0007663
EUR euro 0.4000000
EUR naukowe 0.0344828
greater kontrolę 0.5000000
greater większe 1.0000000
responsibilities nad 0.0384615
responsibilities dziećmi 1.0000000
platform czyli 0.1111111
platform wspólnych 0.1666667
platform platforma 1.0000000
platform aktywnych 1.0000000
platform warsztatów 0.2500000
platform politycznie 0.5000000
Director generalny 1.0000000
Director dyrektorem 0.5000000
Director Wykonawczego 1.0000000
Warehouse Chemicznych 1.0000000
2007 2007 1.0000000
2007 funkcje 0.5000000
2007 pełniła 0.5000000
2007 tam 0.2000000
particularly rozwiązanie 1.0000000
particularly stali 0.5000000
particularly mechanizmów 1.0000000
particularly zużycia 0.5000000
Vilnius Wilnie 1.0000000
Vilnius International 0.3333333
Vilnius Fair 0.5000000
specialist specjalista 0.5000000
specialist specjalistycznych 1.0000000
specialist kursach 0.5000000
ESS European 0.1666667
ESS Spalacyjne 1.0000000
ESS Source 0.5000000
ESS NULL 0.0003831
ESS Źródła 0.2000000
ESS ESS 0.6000000
ESS Spallation 0.5000000
ESS uroczystości 0.2500000
presence uczonych 0.2500000
presence obecność 0.6666667
presence polskich 0.0312500
KGHM spółek 1.0000000
KGHM tych 0.1250000
business biznesu 1.0000000
business Nauk 0.1250000
business NULL 0.0003831
business biznesem 0.6666667
business z 0.0087336
eligibility dochodowe 1.0000000
eligibility kryteria 1.0000000
eligibility również 0.0476190
eligibility zostały 0.1250000
atom chip 1.0000000
atom laser 0.5000000
unused rezerwą 0.5000000
appreciated NULL 0.0003831
appreciated oryginalną 1.0000000
workers pracowników 0.0666667
workers naukowych 0.0192308
Rectors środowiska 0.5000000
Rectors stoisku 0.5000000
Rectors rektorów 0.2500000
Archaeology Archeologicznego 0.5000000
Archaeology Muzeum 0.3333333
continues - 0.0064935
continues realizacja 0.3333333
continues trwa 0.3333333
earned zawodowy 1.0000000
earned lekarza 1.0000000
earned tytuł 0.5000000
earned ( 0.0135135
Mott izolatora 0.5000000
excellence ( 0.0135135
excellence zasadę 1.0000000
excellence excellence 1.0000000
excellence doskonałości 0.4000000
actions NULL 0.0003831
actions Lena 0.1250000
actions działań 0.1428571
actions działania 0.0909091
actions Kolarska-Bobińska 0.1111111
actions zobowiązały 0.2500000
British wskazanym 0.2000000
British stronie 0.2500000
British MNiSW 0.0476190
Centres Akademickie 0.2857143
Centres Centra 0.5000000
Centres Ośrodków 0.5000000
constant stałej 0.5000000
constant dokładne 0.5000000
constant Rydberga 1.0000000
constant stało 1.0000000
constant możliwe 1.0000000
constant wyznaczenie 1.0000000
constant się 0.0081967
Facilitating Ułatwienie 1.0000000
admitted Przyznał 0.5000000
did odpowiednio 0.5000000
did pracowników 0.0666667
did naukowych 0.0192308
did wzrastają 0.5000000
did wynagrodzenia 0.5000000
Consultations Międzyrządowych 1.0000000
Poloński Poloński 0.5000000
Poloński ministra 0.0588235
Poloński nagrody 0.5000000
Poloński otrzymali 0.3333333
problems problemy 0.5000000
problems bieżące 0.5000000
planned Założono 0.3333333
planned programów 0.0909091
planned planowanych 1.0000000
planned badawczych 0.0714286
taken urząd 0.3333333
taken zaszły 0.2500000
taken ministra 0.0588235
taken na 0.0040000
taken zaprzysiężona 0.1111111
auditor 2013-2015 1.0000000
build budować 0.3333333
build badawczy 0.2000000
build zespół 0.1000000
build nowoczesny 0.5000000
University of 0.2400000
University University 0.7727273
University podbiła 1.0000000
University Uniwersytet 0.3333333
University Wynalazców 0.3333333
University istniejących 1.0000000
University lewy 0.2500000
University NULL 0.0034483
University Szpitala 0.5000000
University UW 0.3333333
University Jagiellońskim 0.3333333
University Toruniu 0.3333333
University Mickiewicza 0.5000000
University realizacji 0.1111111
University Uniwersytetu 0.2941176
University Górniczo-Hutnicza 0.2727273
University Politechniki 0.2000000
telomerase telomerazy 1.0000000
telomerase skracaniem 0.3333333
telomerase telomeraza 0.5000000
telomerase ludzkiej 0.5000000
telomerase telomerazą 1.0000000
telomerase telomerazę 0.5000000
owners właścicielami 0.3333333
owners praw 0.1250000
works dyplomowych 0.6666667
works fundamentalnych 1.0000000
adult pacjenta 1.0000000
services NULL 0.0003831
services towarów 1.0000000
900 900 0.6666667
studies studia 0.0909091
studies europeistyka 0.5000000
studies NULL 0.0011494
studies praktycznym 0.5000000
studies międzyuczelniane 0.5000000
studies studiów 0.3333333
studies studiami 0.5000000
exact ścisłe 0.5000000
exact drogi 0.5000000
talked laureatami 0.5000000
creativity NULL 0.0003831
Competency Program 0.0833333
highlighted przedstawił 0.5000000
HHMI HHMI 0.3333333
so tak 0.4285714
so harmonijnie 0.5000000
so nasza 1.0000000
so dialogu 0.2500000
so NULL 0.0011494
intergovernmental z 0.0043668
intergovernmental organizacji 0.1666667
intergovernmental największych 0.2500000
hearing częściową 0.3333333
hearing dziecko 1.0000000
hearing Kajetanach 0.3333333
hearing NULL 0.0003831
earlier dawniej 0.5000000
earlier NULL 0.0003831
earlier naukowe 0.0344828
addition Pomorzu 1.0000000
addition ministrowie 0.1111111
addition NULL 0.0003831
addition ponadto 0.3333333
addition dyskutowali 1.0000000
addition dodatkowo 0.3333333
senescence komórek 0.5000000
senescence się 0.0163934
peer-to-peer debaty 0.1250000
peer-to-peer partnerskiej 0.3333333
extend uczelniom 0.5000000
extend ofertę 0.5000000
extend znacznie 0.5000000
extend poszerzyć 0.5000000
extend one 0.1250000
exceeds ponad 0.0500000
exceeds mld 0.1428571
exceeds to 0.0107527
exceeds 26,3 0.5000000
doktor posiadają 0.2000000
combined można 0.1428571
combined łączyć 0.5000000
combined ze 0.0400000
combined prowadzone 0.2000000
combined wspólnie 0.2000000
combined pracodawcą 1.0000000
combined z 0.0043668
past rok 0.1000000
past Mijający 0.5000000
past przyniósł 0.5000000
statutory pozarządowe 1.0000000
statutory dotacji 0.2222222
statutory statutowej 0.5000000
statutory zobowiązania 0.5000000
UNISIL Innowacyjno-Wdrożeniowym 0.5000000
UNISIL UNISIL 0.5000000
UNISIL Przedsiębiorstwie 0.5000000
Choose przygotowanie 0.1111111
presidents 4 0.5000000
researchers badacze 0.6666667
researchers podlegają 1.0000000
researchers naukowców 0.1627907
researchers naukowcami 0.2000000
researchers NULL 0.0015326
researchers badaczy 0.7500000
researchers Naukowców 0.2000000
researchers naukowcy 0.1818182
researchers badawczy 0.2000000
researchers pracowników 0.2000000
researchers warunków 0.2000000
researchers naukowcom 0.5000000
researchers uczonych 0.2500000
Nuclear Fizyki 0.5000000
Nuclear Jądrowych 1.0000000
Programme Rozwój 0.1250000
Programme Operacyjnego 0.4000000
Programme programu 0.0491803
Programme Kompetencji 1.0000000
Programme ” 0.0434783
Programme ramowego 0.3333333
Programme Erasmus 0.0833333
Programme 10-minutowe 0.5000000
Programme NULL 0.0015326
package pakiet 0.3333333
sign umowy 0.1250000
sign podpisanie 0.7500000
sign o 0.0123457
Toruń Adamów 0.3333333
Toruń z 0.0043668
respond odpowiadały 1.0000000
always zawsze 1.0000000
always kwestią 0.1666667
enzyme enzym 0.3333333
enzyme skracaniem 0.3333333
zones działaniami 0.2500000
zones terenów 0.3333333
State spośród 0.2500000
State nowych 0.0769231
State stanu 0.5000000
State spółki 0.2500000
State NULL 0.0007663
State tzw. 0.2000000
State UAM 0.2500000
State członkowskich 0.2000000
State jedynym 1.0000000
State państwem 0.5000000
State Białostockiej 1.0000000
should powinny 0.6250000
should powinno 1.0000000
should pójść 0.5000000
should należy 0.2500000
should instytucje-pracodawcy 1.0000000
should Dlaczego 0.5000000
should NULL 0.0015326
should powinien 0.5000000
should jednostka 0.3333333
Magellanic Wielkiego 0.3333333
Magellanic Obłoku 1.0000000
Pomerania Gdańskiej 1.0000000
Pomerania NULL 0.0003831
organisations organizacjami 0.5000000
organisations o 0.0123457
organisations organizacji 0.1666667
organisations organizacje 0.6000000
organisations NULL 0.0003831
organisations gremiach 1.0000000
third znalazł 0.2500000
third NULL 0.0003831
third III 1.0000000
series własnym 1.0000000
parts częściach 1.0000000
facilitate ułatwianie 0.5000000
offering poprzez 0.1428571
offering zapewnienie 0.2500000
offering twórcom 1.0000000
back program 0.0263158
stand które 0.0217391
stand ” 0.0217391
stand NULL 0.0015326
stand POLAND 0.5000000
star podobną 0.5000000
star gwiazdę 1.0000000
specifies opisuje 0.5000000
communist uczestniczyć 0.2500000
communist było 0.0625000
communist warunkach 1.0000000
communist socjalistycznej 1.0000000
communist trudno 0.5000000
reach rogu 1.0000000
reach po 0.0312500
reach dotrzeć 1.0000000
reach NULL 0.0003831
reach przeznaczyć 0.2500000
reach sięgania 1.0000000
Forest badań 0.0156250
introduce instrumentów 0.2500000
introduce jasny 0.5000000
pharmacology farmakologia 0.2500000
6 6 0.3333333
6 proc 0.2500000
narrowband badania 0.0370370
narrowband przestrajanym 0.5000000
narrowband nad 0.0384615
narrowband prowadził 0.5000000
thematic odbiega 0.5000000
thematic W 0.1000000
thematic nie 0.0285714
consultation szczegółowego 0.5000000
consultation konsultacje 0.2500000
consultation konsultacji 1.0000000
consultation NULL 0.0003831
be opłat 0.3333333
be kierować 1.0000000
be 592,8 1.0000000
be przygotowanie 0.2222222
be ważną 0.3333333
be promocja 1.0000000
be Operacyjnego 0.2000000
be zdobędzie 0.2500000
be tam 0.2000000
be powstać 0.5000000
be polską 0.2500000
be odbędzie 0.1666667
be wprowadzanie 0.3333333
be pokryć 0.3333333
be dziecięcych 0.2000000
be niesie 0.3333333
be miały 0.4285714
be wysłać 0.5000000
be staną 0.2500000
be mogły 0.2000000
be wypłacane 0.3333333
be ze 0.0800000
be zostanie 0.2222222
be nominacji 1.0000000
be związki 1.0000000
be znakomitą 0.2000000
be NULL 0.0065134
be Humanistyki 0.2500000
be są 0.0476190
be będą 0.1562500
be będzie 0.1400000
be dyskusja 0.2500000
be być 0.3333333
be powinny 0.2500000
be obowiązek 0.1666667
be zostaną 0.3000000
be można 0.2857143
be uczelniami 0.5000000
be otrzymywały 0.5000000
be współwłasność 0.2500000
be - 0.0064935
be mają 0.1333333
be bardzo 0.0909091
be kolejne 0.4285714
be znajdziecie 0.5000000
be wynosić 0.5000000
be właścicielami 0.3333333
be Szczytowi 0.3333333
be stypendiach 0.3333333
be zainaugurowane 0.2500000
be zostać 0.3333333
be bardziej 0.2000000
be kontynuowany 0.2500000
be rzadko 0.2500000
be otrzyma 0.3333333
Kvit Kvitem 0.3333333
Kvit Kvit 1.0000000
Polish-Venezuelan wyprawy 0.5000000
Polish-Venezuelan polsko-wenezuelskiej 1.0000000
Lugansk obwodów 0.2000000
Lugansk teraz 0.1666667
Lugansk działaniami 0.2500000
Lugansk z 0.0043668
Lugansk militarnymi 1.0000000
Lugansk ługańskiego 1.0000000
end celem 0.1666667
end Unia 0.3333333
end samym 0.2500000
end ona 0.2500000
end NULL 0.0007663
end Europejska 0.2500000
speech który 0.0666667
speech podkreślił 0.5000000
speech wystąpieniu 1.0000000
speech swoim 0.5000000
speech przemówieniu 1.0000000
scored zdobywając 0.5000000
allocation naukowe 0.0344828
allocation funduszy 0.1250000
allocation badania 0.0370370
allocation przeznaczania 0.2500000
allocation na 0.0080000
institution INSTYTUCJA 1.0000000
institution NULL 0.0003831
institution jednym 0.1111111
curricula profilach 0.5000000
curricula studiów 0.0238095
looking NULL 0.0003831
organizing organizując 0.5000000
free reprezentujący 1.0000000
free swobodnego 0.3333333
free członkowskich 0.2000000
free poszczególne 0.2000000
free krajów 0.0909091
free resorty 1.0000000
on-going trakcie 0.1666667
on-going w 0.0017606
on-going realizacji 0.1111111
value wartość 0.5000000
Jack Jackiem 1.0000000
heart NULL 0.0003831
heart podjęło 1.0000000
leaders Specjalizuje 0.1666667
leaders się 0.0081967
reaction ” 0.0217391
G białkami 0.3333333
G sprzężonymi 0.5000000
G receptorami 0.3333333
meet dzięki 0.0416667
derived wyników 0.1666667
derived badań 0.0156250
derived danych 0.2500000
is Ocenia 0.3333333
is niezwykłe 0.5000000
is leku 0.3333333
is duże 0.5000000
is Specjalizuje 0.1666667
is ważne 0.1428571
is realizuje 0.3333333
is zainaugurowane 0.2500000
is ma 0.4285714
is Marciniec 1.0000000
is Ukraińcom 1.0000000
is przyjęciu 0.3333333
is potrzebuje 0.3333333
is wpisuje 1.0000000
is Narodowe 0.5000000
is stanowi 0.3333333
is on 0.5000000
is serwisu 0.2500000
is kwoty 0.3333333
is opracowano 0.2000000
is Założono 0.3333333
is pracujemy 0.2000000
is Nie 0.3333333
is uczynienie 1.0000000
is to 0.2795699
is kończy 0.5000000
is aktywnym 1.0000000
is sektora 1.0000000
is jest 0.6153846
is trwałe 0.2500000
is umiędzynarodowianie 0.5000000
is propozycja 0.2000000
is międzynarodowa 0.2000000
is Widać 0.3333333
is fotosyntezy 1.0000000
is kolejna 0.5000000
is służą 0.2500000
is otrzymują 0.2500000
is publiczne 1.0000000
is NULL 0.0065134
large projektów 0.0833333
large spółki 0.2500000
large NULL 0.0003831
large dużymi 1.0000000
large dużych 0.7500000
large wielki 0.5000000
large międzynarodowa 0.4000000
&apos;In - 0.0129870
&apos;In W 0.2000000
And I 0.3333333
And Im 0.3333333
EMPLOYERS OGŁOSZENIODAWCÓW 1.0000000
maintenance telomery 0.2500000
receptor β2 1.0000000
receptor adrenergicznego 1.0000000
lectures wykładów 1.0000000
Multi-Million węgielny 0.5000000
Multi-Million pod 0.1666667
have wprowadzaliśmy 0.3333333
have Kosmosie 1.0000000
have ostatnich 0.1428571
have trafiły 0.2500000
have źródło 0.1428571
have mieć 0.6666667
have drugim 0.2500000
have pokazali 0.3333333
have złożyło 0.5000000
have spowodowały 1.0000000
have uczestniczyło 0.5000000
have zostali 0.6666667
have współpracownicy 0.5000000
have takiego 0.5000000
have otrzymało 0.2857143
have Naukowiec 0.1428571
have zainwestowaliśmy 0.3333333
have większość 0.3333333
have Enrico 0.3333333
have zobowiązały 0.2500000
have przedstawili 0.3333333
have Przedsiębiorstwie 0.5000000
have znakomitą 0.2000000
have NULL 0.0045977
have RobotChallenge 0.3333333
have uległy 1.0000000
have wybraną 1.0000000
have ukończyły 1.0000000
have TO 0.5000000
have środki 0.2000000
have miałam 0.2000000
have które 0.0217391
have przyjął 0.2000000
have zostały 0.1250000
have wydziały 0.3333333
have autorzy 0.5000000
have mają 0.4666667
have zrealizować 0.3333333
have 31 0.2000000
good zawiera 0.3333333
good dobry 0.5000000
good spotkać 1.0000000
good wykształcenie 0.5000000
good badania 0.0370370
good solidne 1.0000000
good zapewnioną 1.0000000
good dobre 0.5000000
WUR należałoby 1.0000000
combines powstało 1.0000000
cornerstone wbudowano 1.0000000
Estonia Rosji 1.0000000
belongs uzyskanej 0.5000000
offer oferta 0.5000000
offer przemyślanego 0.3333333
offer oczekuje 0.2500000
offer oferty 0.2307692
offer ofertę 0.5000000
offer nasz 1.0000000
offer NULL 0.0003831
offer oferują 0.3333333
offer kierunkach 0.3333333
offer dojrzałym 0.2500000
offer zapewniają 1.0000000
offer zapewniać 1.0000000
offer na 0.0040000
spends wdrożeniowe 0.5000000
competencies pracodawców 0.3333333
consider zastanowić 0.5000000
news do 0.0070922
news informacji 0.2000000
news wiadomością 0.3333333
news opinii 0.5000000
news publicznej 0.5000000
conduction prowadzenia 0.1000000
124 124 1.0000000
124 inwestycje 0.2500000
124 ostatnio 1.0000000
pioneer pionierskich 0.5000000
trio systemu 0.1428571
lifetime wybitne 0.2000000
lifetime osiągnięcia 0.1250000
lifetime za 0.0344828
advancement oraz 0.0206186
advancement rozwijać 0.5000000
August sierpniu 1.0000000
August się 0.0081967
August wylądowała 1.0000000
entered weszła 0.5000000
entered która 0.0714286
experiments przeprowadzanych 1.0000000
experiments ból 0.5000000
experiments doświadczenia 0.2500000
Parliament Parlament 0.5000000
Parliament Sejm 1.0000000
Parliament Sejmu 1.0000000
Parliament debaty 0.1250000
Abroad Abroad 1.0000000
1987-2003 ) 0.0125000
income wolne 0.5000000
income Podniesione 1.0000000
income od 0.0232558
β2-adrenergic receptora 1.0000000
β2-adrenergic klonowaniem 1.0000000
Foreign MNiSW 0.0476190
electronics elektroniki 1.0000000
Vietnam Korei 0.5000000
Vietnam Republiką 1.0000000
Vietnam Wietnamem 0.5000000
chair bieżącej 1.0000000
chair rozporządzenia 0.5000000
chair wersji 1.0000000
chair do 0.0070922
chair projektu 0.1666667
determining serwisu 0.2500000
determining strony 0.0666667
determining głównej 0.1666667
determining otwarcie 0.1666667
whether jednostka 0.3333333
whether zastanowić 0.5000000
stability stabilność 0.5000000
head ponadto 0.1666667
two-week dwutygodniowe 1.0000000
two-week okresy 0.5000000
two-week ustaliła 0.5000000
below poniżej 0.3333333
below stosuje 0.5000000
comprehensive spójnego 0.5000000
comprehensive aż 0.0769231
approved przyjęta 0.3333333
expanding edycja 0.2500000
civilization cywilizacyjne 0.5000000
civilization problemy 0.5000000
tbc NULL 0.0003831
obliged zobowiązane 1.0000000
obliged obowiązek 0.3333333
obliged miały 0.1428571
Ulusal Ulgur 0.1666667
local samorządu 1.0000000
local NULL 0.0003831
local jednostki 0.0714286
engaged zaangażowane 0.5000000
engaged Norwegii 1.0000000
challenges Europą 0.2500000
challenges przed 0.1000000
challenges które 0.0217391
challenges Badawczych 0.2000000
challenges NULL 0.0003831
challenges challenges 0.5000000
challenges stoją 0.3333333
method Skarżyńskiego 1.0000000
method NULL 0.0003831
method przez 0.0158730
method metoda 0.5000000
method niego 0.5000000
it czwartkowej 0.5000000
it kluczowe 0.3333333
it taki 0.5000000
it zrobią 0.5000000
it wyniosła 0.5000000
it je 0.1818182
it ułatwienia 0.3333333
it przeznacza 1.0000000
it Warto 0.5000000
it był 0.1111111
it zobowiązał 0.2500000
it zadaniem 0.2500000
it ma 0.1428571
it pozwolą 0.5000000
it Wykorzystano 1.0000000
it Byliśmy 1.0000000
it astronomicznych 0.3333333
it kontynuowany 0.2500000
it edukacyjnych 0.2000000
it Podkreślono 0.3333333
it Ocenia 0.3333333
it Działa 1.0000000
it NULL 0.0019157
it Oszałamiające 0.5000000
it jakim 0.2000000
it towarzyszy 1.0000000
it łatwiejsze 0.5000000
it daje 0.2500000
it konieczne 0.2857143
it to 0.1612903
it Stworzy 1.0000000
it było 0.1875000
it Założono 0.3333333
United Stanami 1.0000000
United Zjednoczonymi 1.0000000
United NULL 0.0003831
United Wielka 1.0000000
Skills Programu 0.2500000
Technical Podstaw 1.0000000
roles ról 1.0000000
roles rolę 0.1666667
dedicated wyróżnienie 0.3333333
dedicated dla 0.0133333
substantial udziałem 0.2500000
substantial funduszy 0.1250000
substantial dużym 0.2500000
simplified NULL 0.0003831
simplified uproszczonego 1.0000000
probe Curiosity 0.5000000
being mogło 0.5000000
being będzie 0.0200000
being negocjacje 1.0000000
being toku 0.5000000
being zrażajcie 0.2500000
being przygotowywanych 0.5000000
building kapitału 0.2500000
building budowanie 0.2000000
building Narodowym 0.5000000
building społecznego 0.3333333
building budujemy 0.2500000
Nobel Nobli 1.0000000
Nobel Nagrodę 0.6666667
Nobel Spotkanie 0.5000000
Nobel noblisty 0.5000000
Nobel Nagroda 1.0000000
Nobel noblistami 0.3333333
Nobel . 0.0014728
Nobel pytali 0.5000000
Nobel NULL 0.0007663
residency medycyny 0.3333333
Autonomous Autonomous 1.0000000
command polskiego 0.2500000
command znajomość 1.0000000
B B 0.6666667
Contact Opracowała 0.2500000
Contact ona 0.2500000
Contact szybszej 1.0000000
Contact zbiór 0.5000000
review przeprowadzać 0.1666667
review analizy 0.2500000
until program 0.0263158
until będzie 0.0200000
until kontynuowany 0.2500000
until do 0.0141844
until roku 0.0126582
adapt dostosowania 0.5000000
1300 wynosiła 0.3333333
1300 ministra 0.0588235
1300 1300 0.3333333
1300 stypendiów 0.1250000
Associate profesor 0.1666667
Associate kierownika 1.0000000
1000 1000 1.0000000
agreed informujemy 0.5000000
agreed zgodę 1.0000000
agreed uznały 1.0000000
Chemical Odczynników 0.5000000
relevance wagę 0.5000000
similar programy 0.1428571
similar założeniu 1.0000000
similar NULL 0.0003831
similar jak 0.0869565
similar takim 1.0000000
similar podobną 0.5000000
similar podkreślał 0.2500000
similar podobnym 0.2857143
bureaucratic biurokratycznych 0.5000000
interview kwalifikacyjną 1.0000000
559 559 1.0000000
Province pomorskim 1.0000000
Province województwie 0.5000000
emphasises prawo 0.3333333
emphasises jeszcze 0.1666667
often nich 0.0625000
often w 0.0017606
often często 1.0000000
often wielokrotnie 1.0000000
often częściej 0.1666667
accompanying Wydarzeniem 1.0000000
Letta Letty 0.2500000
operate jak 0.0434783
operate działało 1.0000000
industrialization z 0.0043668
industrialization którymi 1.0000000
industrialization nawiążą 0.3333333
operation NULL 0.0007663
operation funkcjonowanie 0.4000000
operation eksploatacji 0.3333333
operation funkcjonowania 0.2500000
operation jednostki 0.0714286
operation pierwszego 0.2000000
find NULL 0.0003831
find pytania 0.5000000
find o 0.0123457
awards NULL 0.0011494
awards nagrody 0.5000000
awards one 0.1250000
awards nagrodami 1.0000000
awards nagród 0.2500000
prevent zapobiegać 0.5000000
prevent sytuacjom 0.3333333
Cypriot cypryjskiej 1.0000000
address wprowadzone 0.5000000
address uwzględniać 0.3333333
assume przejmuje 0.3333333
assume lub 0.0526316
assume Naukowo-Technologicznego 0.5000000
Queensland The 0.3333333
Queensland ( 0.0135135
Queensland Queensland 1.0000000
transposed unijnej 0.5000000
transposed grunt 1.0000000
transposed polski 0.1428571
M.D. ) 0.0125000
M.D. M.D. 1.0000000
Kopacz poparcie 0.5000000
Kopacz Kopacz 1.0000000
Kopacz uzyskała 0.3333333
forestry leśnych 1.0000000
participated wzięła 0.5000000
participated które 0.0217391
participated udział 0.0869565
participated forum 0.5000000
participated 27 0.3333333
participated uczestniczyło 0.2500000
participated Łącznie 0.3333333
participated Izraelu 0.3333333
performed Białymstoku 0.3333333
performed po 0.0312500
particle-like kryształem 0.5000000
particle-like Motta 0.5000000
particle-like izolatora 0.5000000
Biotechnology Biotechnologii 1.0000000
instance uczelnia 0.5000000
instance urząd 0.3333333
Stanford Stanford 1.0000000
Stanford do 0.0141844
postdoctoral ) 0.0125000
postdoctoral Roberta 0.3333333
postdoctoral ( 0.0135135
postdoctoral Missouri 1.0000000
postdoctoral prowadził 0.5000000
purpose europejskiego 0.5000000
purpose cel 0.2500000
purpose NULL 0.0007663
purpose pieniądze 0.2000000
recipient Kobilka 0.2500000
recipient został 0.2500000
recipient laureatem 1.0000000
recipient profesor 0.1666667
responsible odpowiedzialną 1.0000000
responsible z 0.0043668
responsible przywództwa 0.2000000
responsible współpracę 0.0666667
responsible prowadzić 0.3333333
responsible będzie 0.0200000
trust zaufaniu 0.5000000
trust wzajemnym 0.5000000
laboratories skorzysta 1.0000000
laboratories laboratoriów 0.6666667
laboratories naukowe 0.0344828
laboratories laboratoria 0.8000000
speaker mówcą 0.5000000
speaker był 0.1111111
Collegiate Świata 0.5000000
Collegiate Mistrzostwach 0.3333333
Details w 0.0017606
Details Szczegóły 1.0000000
Greider Greider 1.0000000
Greider wybrana 0.5000000
benefits finansowych 0.2500000
benefits regulaminy 0.3333333
evaluated ocenił 1.0000000
send przekaże 0.5000000
send Włoskie 0.3333333
send nauki 0.0086957
send ds. 0.0666667
send ministerstwo 0.5000000
coordinated Akademickich 0.2500000
coordinated konferencji 0.2000000
coordinated Szkół 0.1428571
coordinated Polskich 0.2000000
coordinated Rektorów 0.3333333
Republic NULL 0.0007663
Republic RP 0.3333333
fields wszytkim 0.2500000
fields shift 0.1666667
fields NULL 0.0011494
fields przede 0.1666667
fields kierunków 0.2222222
protecting odkryciom 0.5000000
O EW 0.5000000
O WO 0.5000000
constructors konstruktorzy 1.0000000
constructors polskimi 0.2500000
constructors konstruktorami 0.5000000
endorsement dla 0.0133333
endorsement Karty 0.3333333
Ludowe naukowych 0.0192308
Ludowe jednostek 0.1428571
1.3 1,3 1.0000000
28.02.2017 28.02.2017 1.0000000
element element 0.5000000
Charter Karta 1.0000000
Charter karcie 0.3333333
Charter Karty 0.3333333
Charter Europejska 0.2500000
criteria uprawniające 1.0000000
criteria kryteriów 0.7500000
drugs leki 1.0000000
drugs kiedy 0.3333333
improvement wraz 0.2000000
improvement poprawić 0.3333333
most najbardziej 1.0000000
most wręczenia 1.0000000
most najważniejszych 0.3333333
most najwięcej 0.5000000
most najambitniejszych 0.5000000
most uruchomiona 1.0000000
most Najbardziej 0.5000000
most najcięższych 1.0000000
most najzdolniejszych 0.5000000
most większości 0.5000000
most najważniejszymi 0.5000000
most cele 0.3333333
most najskuteczniejszy 1.0000000
most NULL 0.0007663
northern północnej 1.0000000
employees pracowników 0.1333333
employees łączeniu 0.2500000
employees pracownicy 1.0000000
three-months najmniej 0.2000000
Hospital Hospital 0.5000000
Hospital Klinicznego 0.5000000
sent przygotowany 0.2500000
sent należy 0.1250000
sent wysłać 0.5000000
sent dokument 0.5000000
discriminating niedyskryminacji 0.3333333
discriminating m.in. 0.0500000
Ethnography Etnograficznego 1.0000000
E. Parku 0.3333333
E. Poznańskiego 1.0000000
E. Dyrektora 0.2500000
programme ruszył 0.5000000
programme głuchoty 0.5000000
programme realizowanym 0.3333333
programme skierowany 0.3333333
programme programie 0.0909091
programme antyplagiatowego 0.3333333
programme komputerowego 1.0000000
programme autonomii 0.3333333
programme programu 0.2295082
programme Turcji 1.0000000
programme unijnym 1.0000000
programme 2020 0.1200000
programme całe 0.3333333
programme słowem 1.0000000
programme przedsięwzięcie 0.3333333
programme program 0.4736842
programme NULL 0.0015326
programme zamawianych 1.0000000
programme 70 0.1666667
financial perspektywy 0.5000000
financial perspektywie 1.0000000
financial finansowych 0.2500000
financial zapomogę 0.5000000
financial zapomogi 0.5000000
financial NULL 0.0019157
financial pomocy 0.4444444
financial instrumentów 0.2500000
financial europejskiego 0.5000000
financial materialnej 0.4285714
PRRA RYYCCH 0.5000000
PRRA BR 0.5000000
Package Pakiecie 1.0000000
Medical Uniwersytet 0.0833333
Medical Medical 1.0000000
15 15 1.0000000
15 27 0.3333333
15 Brak 1.0000000
leap ogromnego 0.3333333
enrollment NULL 0.0003831
professional powinni 1.0000000
professional zdobywać 0.2000000
professional zawodowej 0.2000000
professional absolwenci 1.0000000
professional zawodowego 1.0000000
professional zaś 0.3333333
professional zawodowe 0.1666667
professional NULL 0.0003831
professional uzupełnienia 1.0000000
Large Wielkiego 0.3333333
result nagroda 0.5000000
result wynik 1.0000000
result temu 0.1666667
result to 0.0215054
result zwykle 1.0000000
result Rezultat 0.2500000
&apos;This kolejna 0.5000000
&apos;This To 0.5000000
&apos;This duża 0.5000000
&apos;This międzynarodowa 0.2000000
&apos;This - 0.0064935
completed zakończył 0.3333333
completed drugim 0.2500000
completed NULL 0.0007663
PhD prace 0.1111111
PhD doktorskie 0.3333333
PhD stopów 0.5000000
PhD doktoratem 0.2000000
PhD doktorantów 0.1500000
PhD doktoranckie 0.5000000
PhD doktora 0.2000000
PhD doktorat 0.2500000
PhD doktorantom 0.2500000
standards poziomie 0.1666667
standards standardów 1.0000000
standards standardy 1.0000000
standards najwyższe 0.3333333
proportion proporcjonalnie 0.6666667
proportion do 0.0141844
proportion wkładu 0.6666667
proportion Stron 0.2500000
boost energii 0.2500000
boost wszystkim 0.1666667
boost dodatkowej 0.5000000
boost nabrać 1.0000000
negotiations umowa 0.2500000
specialty znana 0.3333333
specialty specjalność 0.5000000
largest największych 0.5000000
largest wzięła 0.2500000
largest największego 0.2500000
largest największe 0.3750000
day żłobków 0.3333333
day dnia 0.5000000
Andrychowicz Andrychowicz 1.0000000
solving odkrywania 1.0000000
positive pozytywna 0.5000000
positive opinia 0.5000000
positive spojrzeć 0.5000000
depend parametrycznej 0.2000000
interests wielu 0.1250000
interests zainteresowań 1.0000000
interests naukowych 0.0192308
interests rozwijanie 0.5000000
would osobom 0.3333333
would tym 0.0270270
would Chciałabym 0.5000000
representation władzach 1.0000000
representation Fundacji 0.2000000
representation we 0.0625000
representation reprezentację 0.5000000
period okres 1.0000000
period transformacji 0.2000000
period 2008-2011 0.5000000
period ustrojowej 0.5000000
period przez 0.0158730
against przed 0.1000000
against dodatkowymi 1.0000000
comercialise skutecznie 1.0000000
comercialise komercjalizować 1.0000000
interested NULL 0.0003831
interested zainteresowanych 0.3333333
interested taką 0.2000000
interested zainteresowanym 0.3333333
interested współpracą 0.5000000
cooperate Badań 0.1250000
cooperate strategiczne 0.2500000
cooperate dla 0.0133333
cooperate nadzorować 0.2000000
cooperate realizację 0.0833333
cooperate Programu 0.1250000
cooperate akceleratora 1.0000000
cooperate państwa 0.1666667
cooperate mieli 0.3333333
cooperate określającego 0.5000000
cooperate Krajowego 0.5000000
cooperate rozmowy 0.2000000
developing o 0.0123457
developing się 0.0081967
developing opracowanie 0.5000000
developing rozwija 1.0000000
developing badawczo-rozwojowego 1.0000000
group grupą 0.2500000
group Grupa 0.3333333
group NULL 0.0007663
group absolwentów 0.1428571
group grono 0.3333333
Indeed rzeczywistości 0.5000000
Indeed w 0.0017606
application miesięcy 1.0000000
application zgłoszeń 0.2500000
Procurement publicznych 0.3333333
Procurement zamówieniach 0.3333333
technique częstotliwości 0.5000000
technique światła 1.0000000
manufactured które 0.0217391
2025 r 0.0500000
2025 2025 1.0000000
universe Wszechświat 1.0000000
periodical tryb 1.0000000
periodical dokonywania 1.0000000
Biology Molekularnej 0.4000000
Biology NULL 0.0003831
Biology biologii 0.3333333
Mobility NULL 0.0003831
equipment światowej 0.2500000
equipment najlepszej 0.3333333
mln 10,7 0.3333333
mln mln 0.0476190
Matlab-Simulink laboratoriach 0.5000000
New „ 0.0196078
New Nowe 1.0000000
New programu 0.0163934
New Technologie 0.5000000
signing NULL 0.0003831
signing wydarzenie 0.1666667
presidency czasie 0.1666667
presidency NULL 0.0003831
presidency prezydencji 0.1428571
amendments przewidują 0.5000000
amendments ustawowym 1.0000000
amendments Prawa 0.3333333
amendments zmiany 0.2666667
enable studentom 0.0625000
enable umożliwiają 0.5000000
enable polskim 0.1666667
enable umożliwienie 0.3333333
enable NULL 0.0003831
enable pozwolą 0.5000000
enable podjęcia 0.3333333
www.gorn.edu.pl www.gorn.edu.pl 1.0000000
marketable kompetencje 0.2500000
marketable przez 0.0158730
marketable poszukiwane 1.0000000
exceed przekroczyć 1.0000000
exceed mogły 0.1000000
exceed 3 0.5000000
60 60 1.0000000
discovered odkryli 0.6666667
discovered odkrył 1.0000000
discovered uczeni 0.1666667
discovered telomerazę 0.5000000
starting semestru 0.5000000
starting Starting 1.0000000
starting tego 0.0476190
starting rozpoczynających 0.3333333
starting od 0.0232558
Overseas Overseas 1.0000000
Overseas for 0.1111111
Scientists NULL 0.0003831
Scientists Naukowiec 0.1428571
Scientists naukowców 0.0232558
Scientists resortu 0.2500000
Scientists imię 0.5000000
Scientists ma 0.0285714
Robert Robertem 1.0000000
Robert stażu 0.5000000
63 63 1.0000000
future-forward kreatywności 1.0000000
Monika Monika 0.2500000
well wrodzonych 0.2000000
well ludzi 0.2000000
well dobrze 0.3333333
well znana 0.3333333
well opracowania 0.2500000
well dorobku 0.3333333
well wyraźnie 0.5000000
well , 0.0015244
well przemyślanego 0.3333333
well konferencji 0.2000000
well osiągnięcia 0.1250000
well także 0.2173913
well NULL 0.0022989
well konkurencyjna 0.2000000
appointed zastępcą 0.5000000
appointed r. 0.0526316
appointed została 0.1000000
appointed NULL 0.0003831
appointed mianowana 1.0000000
Wiodący Wiodącego 0.5000000
opens otwiera 0.6666667
grant socjalnego 0.4000000
grant statutowej 0.5000000
grant NULL 0.0007663
grant POLONEZA 0.2000000
grant uzależniona 1.0000000
grant dotacji 0.2222222
grant szersze 0.2500000
grant naukowe 0.0344828
Polskie przekształcaniem 0.1666667
perspectives oferowane 0.5000000
democracy demokracji 0.4000000
democracy NULL 0.0003831
democracy budowania 0.5000000
do uczy 0.5000000
do Council 0.2500000
do zrobią 0.5000000
do NULL 0.0007663
do robimy 0.2500000
do , 0.0015244
do robić 1.0000000
do najlepiej 0.3333333
do umożliwią 0.3333333
do miałam 0.2000000
do kogo 0.3333333
do to 0.0107527
representatives przedstawicieli 0.5000000
representatives przedstawiciele 0.8000000
Doctor Doctor 1.0000000
Doctor Science 0.1000000
Doctor NULL 0.0003831
Doctor of 0.0400000
principle danych 0.2500000
principle przeznaczanych 0.5000000
essential kwalifikacji 0.5000000
essential wymaganych 0.5000000
hear częściej 0.1666667
hear coraz 0.2500000
hear słyszymy 0.3333333
exchanges wymianami 0.5000000
iron żelaza 0.2500000
iron stopy 0.5000000
Academy Academy 1.0000000
Academy of 0.0800000
Academy Akademii 0.3750000
Academy NULL 0.0003831
Academy Nauk 0.2500000
Academy Obywatelska 0.5000000
opportunity okazja 0.5000000
opportunity szansę 0.2857143
opportunity jest 0.0128205
opportunity NULL 0.0007663
opportunity okazję 0.6666667
opportunity okazją 0.6666667
opportunity do 0.0070922
21st 21 0.5000000
Minister wiceminister 0.3333333
Minister NULL 0.0034483
Minister wicepremier 0.2727273
Minister Ministra 0.2222222
Minister nauki 0.0086957
Minister ministrem 0.3333333
Minister dodała 0.5000000
Minister stwierdziła 0.5000000
Minister australijską 0.3333333
Minister rozporządzenie 0.1250000
Minister ministra 0.1764706
Minister premier 0.3333333
Minister minister 0.5555556
triumphed Polacy 0.1000000
triumphed trzeci 1.0000000
triumphed rzędu 0.3333333
triumphed triumfowali 1.0000000
triumphed z 0.0043668
enjoy się 0.0081967
Hughes Hughes 1.0000000
met przed 0.1000000
met dziś 0.0769231
met południem 1.0000000
met spełniać 0.3333333
met spełnianych 1.0000000
stage się 0.0081967
stage etap 0.4000000
stage wybrani 0.3333333
context kolejnej 0.5000000
context kontekście 0.2000000
context NULL 0.0003831
talents zainteresowanych 0.3333333
907 ten 0.1250000
907 przeznaczono 1.0000000
907 907 1.0000000
907 cel 0.2500000
ourselves znaleźliśmy 0.5000000
ourselves ścisłej 0.5000000
ourselves ich 0.0476190
along wraz 0.4000000
along to 0.0107527
along NULL 0.0003831
along przyczyniła 1.0000000
decision przewidziane 0.5000000
NSC nowy 0.0833333
electronic elektronicznym 0.5000000
expectations oczekiwań 1.0000000
expectations oczekiwania 0.5000000
whom to 0.0107527
whom robimy 0.2500000
whom kogo 0.3333333
Rector stypendia 0.0769231
Rector rektora 0.0833333
General ESA 0.3333333
+ Zdrowia 0.5000000
+ + 0.2666667
mature studentów 0.0454545
mature dojrzałej 0.5000000
mature dojrzałych 1.0000000
mature dojrzałą 0.5000000
mature dojrzałym 0.2500000
Investigator objęła 1.0000000
Investigator HHMI 0.3333333
Investigator zespołu 0.2500000
directed formie 0.5000000
directed skierowane 0.3333333
directed NULL 0.0003831
directed przede 0.1666667
directed skierowany 0.3333333
allow pozwalają 0.5000000
allow astrofizycy 0.5000000
allow na 0.0040000
allow umożliwić 1.0000000
creation NULL 0.0007663
creation tworzeniu 0.5000000
Scientific Wydział 0.3333333
Scientific NULL 0.0003831
Norway Regionu 1.0000000
post-graduate doktoranci 0.2500000
with innymi 0.1666667
with programami 1.0000000
with mogą 0.0476190
with wspieranie 0.3333333
with ośrodkom 0.3333333
with jako 0.2000000
with ze 0.0800000
with z 0.2358079
with Nagrodami 0.5000000
with konkurować 0.2500000
with zagranicznymi 1.0000000
with tą 0.1666667
with udziale 0.5000000
with udziałem 0.2500000
with spółki 0.2500000
with wybitnym 0.5000000
with krótkich 0.2500000
with wzięło 0.5000000
with kształcić 0.3333333
with nabywanym 1.0000000
with instytucjami 0.5000000
with gronie 1.0000000
with rozwiązania 0.2857143
with Ranking 0.1250000
with problematyką 0.5000000
with dochodach 0.5000000
with ośrodkami 0.2500000
with strategiczne 0.2500000
with inne 0.2500000
with duży 1.0000000
with NULL 0.0049808
action NULL 0.0003831
action pracę 0.5000000
Centre specjalizacji 0.2500000
Centre Centrum 0.6250000
Centre funduszy 0.1250000
Centre Onkologii 0.5000000
Centre wynegocjowany 1.0000000
Centre NULL 0.0003831
Centre realizacji 0.1111111
Centre Wiodącego 0.5000000
questions jaki 0.3333333
logo Polki 1.0000000
logo logo 0.5000000
logo NULL 0.0003831
operational operacyjnych 0.4000000
operational programów 0.1818182
due z 0.0043668
due ze 0.0800000
due względu 0.6666667
due na 0.0080000
Diamond Diamentowego 0.8750000
Diamond NULL 0.0003831
Diamond Diamentowy 0.7272727
Diamond konkursu 0.1111111
Spallation eksploatacji 0.3333333
Spallation Europejskiego 0.2142857
Spallation Źródła 0.6000000
life-threatening życiu 0.3333333
life-threatening reakcji 1.0000000
royalties dochód 0.3333333
investigation badania 0.0370370
investigation przyczyn 1.0000000
investigation zakresie 0.0714286
been pracowało 0.3333333
been zaproponowany 0.2000000
been 31 0.2000000
been WOLNOŚĆ 0.3333333
been w 0.0017606
been otrzymało 0.2857143
been przyznawany 0.3333333
been większość 0.3333333
been zostały 0.2500000
been Enrico 0.3333333
been prestiżowymi 0.3333333
been trafiły 0.2500000
been umiędzynarodowienia 0.1428571
been wydzielono 0.3333333
been Innowacyjno-Wdrożeniowym 0.5000000
been organizowane 0.2000000
been NULL 0.0038314
been dotychczas 0.2500000
been 320 0.5000000
been ostatnich 0.1428571
Genetics Genetyki 1.0000000
Genetics genetyki 0.3333333
wherever mogliśmy 1.0000000
euros zaś 0.3333333
euros otrzymała 0.1666667
euros euro 0.1000000
But Jednak 1.0000000
pilot ruszył 0.5000000
continued kontynuowała 0.2500000
continued trwały 0.5000000
continued kontynuować 1.0000000
continued Humanistyki 0.2500000
continued roku 0.0126582
continued kontynuowany 0.2500000
Loba NULL 0.0003831
practices ogólne 0.3333333
practices zawiera 0.3333333
important znaczenie 1.0000000
important istotne 0.2500000
important ważne 0.5714286
important tematem 1.0000000
important propozycji 0.5000000
important najważniejszych 0.3333333
important uniwersytety 0.2000000
important ważną 0.3333333
important Instytutów 0.2000000
important uwłaszczenia 0.5000000
important ważniejsze 0.3333333
important ważny 1.0000000
important istotną 0.5000000
important osiągnięciami 0.5000000
important określenie 0.5000000
important cele 0.3333333
pass drugiej 0.5000000
pass Programowaniu 0.3333333
pass przekazania 1.0000000
pass określi 0.1666667
pass Stronie 1.0000000
pass ( 0.0135135
living Dofinansowanie 1.0000000
living utrzymanie 0.5000000
characterization materiałów 0.3333333
compromise zawartego 0.5000000
compromise kompromisu 0.5000000
compromise wyrazem 0.5000000
compromise naukowcami 0.2000000
compromise Kompromis 0.5000000
compromise między 0.0909091
grateful za 0.0344828
grateful Jesteśmy 0.2500000
grateful wdzięczni 1.0000000
120 120 0.6666667
aims studentom 0.0625000
aims NULL 0.0003831
aims pomóc 0.5000000
aims ma 0.0285714
constructed możliowści 0.5000000
constructed nich 0.0625000
constructed skonstruowanego 1.0000000
constructed robota 0.5000000
shift energetycznych 0.5000000
shift Lamba 1.0000000
shift poziomów 0.3333333
shift atomu 0.5000000
Byrne zgłasza 1.0000000
Chargé Chargés 1.0000000
collecting zebranie 1.0000000
collecting także 0.0217391
collecting a 0.0217391
Collaboration propozycję 1.0000000
light krótkich 0.2500000
light światłem 0.2500000
implemented realizowanym 0.6666667
implemented ramowego 0.3333333
implemented podejmowane 0.2500000
implemented już 0.0416667
implemented realizowanych 0.3333333
implemented wdrożone 0.3333333
implemented UNISIL 0.5000000
implemented wprowadzono 1.0000000
employment zatrudnienia 0.5000000
employment NULL 0.0003831
employment wymiarze 0.2500000
Zbigniew Wydziale 0.2500000
1984 1984 1.0000000
1984 r 0.0500000
mouse telomerów 0.5000000
safety fachowców 0.5000000
frequency pionierską 1.0000000
frequency krótkich 0.2500000
frequency grzebienia 0.6666667
frequency technikę 1.0000000
pays tematów 0.1666667
pays - 0.0064935
pays Warto 0.2500000
pays unikalnych 0.5000000
pays badawczych 0.0714286
pays szukać 0.5000000
south-eastern południowo-wschodniej 1.0000000
Mechanics UW 0.3333333
Mechanics Mechaniki 0.3333333
you trzeba 0.6000000
you interesują 0.2500000
associated Uniwersytetem 1.0000000
associated stowarzyszonych 0.5000000
associated związana 1.0000000
announcing zwycięzców 0.2500000
announcing konkursu 0.1111111
OECD rankingu 0.2500000
protests protestów 1.0000000
published opublikowany 0.5000000
published publikowane 1.0000000
published ukazała 0.5000000
published będą 0.0312500
published zużycia 0.5000000
published Rezultat 0.2500000
published Wydał 0.3333333
foreign stroną 0.2000000
foreign NULL 0.0003831
foreign zagraniczni 0.6666667
foreign wykazali 1.0000000
foreign zagranicznych 0.6666667
foreign zagraniczną 1.0000000
Conduct przy 0.1538462
Conduct postępowania 1.0000000
Conduct Postępowania 0.5000000
Skarżyński plebiscytu 0.3333333
Skarżyński metoda 0.2500000
Skarżyński Henryk 1.0000000
Skarżyński Skarżyński 1.0000000
win stypendium 0.0833333
Mąkosza Mąkosza 1.0000000
teams drużyny 0.3333333
teams grup 0.3333333
teams drużyn 1.0000000
teams NULL 0.0003831
teams zespołach 0.6666667
teams zespołów 0.3333333
teams zespoły 1.0000000
teams badawczych 0.0714286
690 o 0.0123457
690 690 0.2500000
words słów 1.0000000
P BR 0.5000000
P DOOB 0.5000000
hundred sto 0.5000000
hundred stypendiów 0.1250000
hundred NULL 0.0003831
hundred setka 0.5000000
currently pracujemy 0.2000000
currently z 0.0043668
currently trakcie 0.1666667
currently obecnie 0.1428571
a.i. a.i. 1.0000000
mostly głównie 1.0000000
mostly oprzeć 0.5000000
mostly jak 0.0434783
mostly największym 0.3333333
dealing problematyką 0.5000000
dealing międzynarodowej 0.1666667
dealing zajmującą 1.0000000
dealing edukacji 0.1428571
dealing się 0.0081967
scope Council 0.2500000
scope Research 0.1428571
scope NULL 0.0003831
scope zakresu 0.5000000
scope European 0.1666667
premium z 0.0043668
source neutronów 0.6666667
source NULL 0.0003831
source używanych 1.0000000
source technologicznie 1.0000000
source źródła 0.3333333
source źródło 0.1428571
involves postaw 0.2500000
involves uczestniczy 0.3333333
52 52 1.0000000
partners zagranicy 1.0000000
partners partnerzy 1.0000000
partners z 0.0043668
» » 1.0000000
friendly przyjazna 1.0000000
friendly przyjazne 1.0000000
friendly - 0.0064935
friendly zaznaczyła 0.2000000
available jeszcze 0.1666667
available kolejne 0.1428571
available podaje 1.0000000
available NULL 0.0003831
available wersję 0.5000000
available korzystanie 1.0000000
available czterysta 1.0000000
Over ciągu 0.2500000
Over ostatnich 0.1428571
Over W 0.1000000
declaration poparcia 0.5000000
Coordinator programu 0.0163934
Coordinator koordynator 1.0000000
specificity specyfikę 0.2500000
specificity uwzględniać 0.3333333
specificity nauk 0.1000000
specificity NULL 0.0003831
Skłodowska-Curie odsłonili 0.5000000
Skłodowska-Curie Skłodowskiej-Curie 0.5000000
Skłodowska-Curie Marie 0.4000000
choices propozycji 0.5000000
contracts podpisywania 0.5000000
organizational organizacyjne 1.0000000
organizational zaplecze 0.3333333
organizational zbudować 1.0000000
organizational m.in. 0.0500000
OGLE OGLE 0.4000000
OGLE projektu 0.3333333
Audit zewnętrznego 0.5000000
&apos;It - 0.0064935
&apos;It Widać 0.3333333
Podlasie - 0.0064935
Podlasie Tutaj 1.0000000
Podlasie zainwestowaliśmy 0.1666667
Podlasie na 0.0040000
Podlasie Podlasiu 0.5000000
design projektowe 1.0000000
pursue planują 0.3333333
pursue zawodowej 0.2000000
pursue rozpocząć 0.2000000
pursue naukową 0.1428571
pursue karierę 0.2500000
Doppler-free techniką 1.0000000
1983 a 0.0217391
goal celem 0.6666667
goal strategicznym 0.5000000
specified zawarte 1.0000000
bachelor udział 0.0434783
bachelor NULL 0.0003831
Free Europejskiego 0.0714286
Free Stowarzyszenia 0.5000000
Free państw 0.0833333
Championship najlepsi 0.2500000
03 Użycie 1.0000000
popularly mianem 0.5000000
popularly - 0.0064935
popularly popularnie 0.2500000
popularly Polskiej 0.1250000
popularly określane 0.5000000
Krzysztof Krzysztof 1.0000000
innovative rozwiązań 0.1111111
innovative innowacyjnej 0.5000000
innovative innowacyjnych 0.8000000
innovative rozwiązaniach 0.3333333
innovative nowatorskich 0.5000000
innovative innowacyjne 1.0000000
barriers barier 1.0000000
barriers bariery 0.5000000
barriers uczestnictwa 0.2500000
\ prac 0.1250000
40 40 1.0000000
40 lat 0.1428571
proportions rozdzielane 1.0000000
proportions się 0.0081967
proportions są 0.0238095
proportions jakich 0.5000000
proportions proporcje 1.0000000
proportions m.in. 0.0500000
coordinators ćwiczeń 0.5000000
coordinators „ 0.0196078
coordinators ” 0.0217391
coordinators szkołach 0.3333333
know Znamy 0.2500000
know Wiemy 0.5000000
simpler ds. 0.0666667
funding uczelni 0.0263158
funding in 0.1000000
funding akademickiej 0.3333333
funding finansowania 0.1333333
funding finansowaniu 0.1666667
funding NULL 0.0007663
funding poziomie 0.1666667
funding finansowanie 0.2222222
funding stałego 0.5000000
includes NULL 0.0003831
includes wszytkim 0.2500000
includes wąskopasmowym 0.2500000
includes sesja 1.0000000
analysed wszystkie 0.1428571
analysed analizowane 1.0000000
Algorithmic Mistrzowie 1.0000000
organising Akademii 0.1250000
Orłowska Parku 0.3333333
Orłowska Orłowska 0.8000000
Orłowska naukowo-badawczą 0.5000000
Orłowska uczelnię 1.0000000
MSCA MSCA 0.6666667
Spring Investigator 0.3333333
Spring Spring 1.0000000
Spring Cold 0.5000000
higher NULL 0.0034483
higher stymulują 0.3333333
higher zawodowe 0.1666667
higher obowiązek 0.1666667
higher prac 0.1250000
higher konsorcjum 1.0000000
higher uczelnie 0.0740741
higher szkolnictwie 0.7500000
higher szkolnictwa 0.3333333
higher szkolnictwo 1.0000000
higher wyższe 0.3000000
Ukrainians działań 0.0714286
Ukrainians mieszkających 0.3333333
Ukrainians terenach 0.3333333
Ukrainians Ukraińców 1.0000000
inborn wrodzonych 0.2000000
inborn wad 1.0000000
determination pracowników 0.0666667
determination nauki 0.0086957
mentioned wymienił 1.0000000
mentioned Kudrycka 0.1111111
mentioned Barbara 0.1428571
mentioned też 0.0238095
mentioned zaznaczyła 0.6000000
mentioned Prof. 0.0526316
mentioned zapowiedzi 0.2000000
rounds ang 0.5000000
accordance kształcić 0.3333333
accordance nowocześnie 0.2500000
mysteries naukowych 0.0192308
moment momentu 1.0000000
www.go-poland.pl dla 0.0133333
www.go-poland.pl studiujących 0.5000000
www.go-poland.pl serwis 1.0000000
www.go-poland.pl www.go-poland.pl 0.6666667
subsidies uczelnie 0.0370370
subsidies dotację 0.5000000
subsidies otrzymują 0.2500000
subsidies dzielone 1.0000000
consortium swoje 0.3333333
Act ustawa 0.4444444
Act wyrazem 0.5000000
Act o 0.0246914
Act - 0.0064935
specific mają 0.0666667
specific zostać 0.3333333
specific odrębna 0.5000000
specific poszczególnych 0.3333333
specific określenie 0.5000000
specific NULL 0.0007663
specific którzy 0.0769231
intravenously dożylnie 1.0000000
institutes instytuty 0.5714286
institutes badawcze 0.2727273
Presidency Radzie 0.2000000
Presidency przewodnictwo 0.2500000
Presidency prezydencji 0.4285714
Presidency NULL 0.0003831
therefore dlatego 0.2000000
therefore ii 1.0000000
therefore wzorem 0.5000000
therefore uzyskanych 1.0000000
therefore ) 0.0125000
therefore ( 0.0135135
however z 0.0043668
however że 0.0172414
however pierwszeństwo 0.5000000
however tym 0.0270270
however jednak 0.5000000
proposal NULL 0.0003831
included był 0.1111111
included temat 0.4000000
included też 0.0476190
included NULL 0.0003831
fulfill spełniać 0.3333333
fulfill Muszę 1.0000000
fulfill jeden 0.1250000
fulfill także 0.0217391
vision dojrzałej 0.5000000
vision wizji 1.0000000
analyses lewy 0.2500000
housing mieszkaniowego 1.0000000
much milionów 0.2500000
much przeznaczyć 0.2500000
much NULL 0.0003831
much dialogu 0.2500000
success sukcesów 0.5000000
success Polaków 0.2500000
success NULL 0.0007663
success sukcesy 0.2500000
success sukces 0.8333333
success sukcesu 0.5000000
renowned renomowanych 0.2500000
organizations programie 0.0909091
organizations organizacji 0.1666667
organizations NULL 0.0003831
reliable studia 0.0909091
reliable uzyskanie 0.2000000
reliable rzetelnej 0.5000000
&gt; „ 0.0196078
&gt; Paktu 0.5000000
innovation-friendly innowacjom 0.5000000
innovation-friendly państwem 0.5000000
innovation-friendly przyjaznym 1.0000000
implants całkowicie 1.0000000
facing Europą 0.2500000
facing uczelniami 0.5000000
facing przed 0.1000000
facing jakie 0.1111111
facing stoją 0.3333333
right już 0.0416667
right doktoratem 0.2000000
right NULL 0.0003831
involved zaangażowanych 1.0000000
involved NULL 0.0003831
involved się 0.0081967
involved uczestniczą 0.3333333
involved osób 0.1000000
involved , 0.0015244
involved dyskutujących 1.0000000
involved zajmuje 0.5000000
involved humanistycznymi 0.5000000
involved zaangażowani 1.0000000
involved naukami 0.2000000
involved podejmują 1.0000000
involved aktywny 0.5000000
involved zaangażowane 0.5000000
i.e. program 0.0263158
i.e. czyli 0.2222222
obtain sięgać 1.0000000
obtain krokiem 0.5000000
obtain pozyskiwania 0.5000000
obtain zdobycia 0.3333333
obtain otrzymać 0.1111111
scholarships stypendiami 1.0000000
scholarships rektora 0.1666667
scholarships stypendiów 0.2500000
scholarships rządowych 0.5000000
scholarships stypendia 0.6923077
scholarships stypendiach 0.3333333
scholarships dla 0.0533333
