deuteronu deuteron 1.0000000
NULL courses 0.2727273
doktoranckie courses 0.0909091
kierunki courses 0.2727273
kursach courses 0.0909091
spowoduje courses 0.0909091
przeprowadzać courses 0.0909091
studiów courses 0.0909091
do national 0.2000000
ogólnopolskiego national 0.2000000
NULL national 0.4000000
rozdziału national 0.2000000
inżynierska geology 1.0000000
klinicznej we 0.0322581
Znamy we 0.0322581
wprowadzaliśmy we 0.0322581
NULL we 0.2258065
możemy we 0.0322581
robimy we 0.0322581
się we 0.0322581
Mamy we 0.0645161
edycja we 0.0322581
potrafimy we 0.0322581
chcemy we 0.0322581
musimy we 0.0645161
częściej we 0.0322581
budujemy we 0.0322581
zainwestowaliśmy we 0.0645161
taką we 0.0322581
Wiemy we 0.0322581
gospodarkę we 0.0322581
kogo we 0.0322581
- we 0.0322581
wprowadziliśmy we 0.0322581
Zwiększamy we 0.0322581
gospodarka economy 0.1111111
rozwiązaniach economy 0.1111111
NULL economy 0.1111111
gospodarki economy 0.5555556
oprzemy economy 0.1111111
społecznej of 0.0014104
narodowym of 0.0028209
wydłużyć of 0.0014104
zachowania of 0.0014104
korzyści of 0.0014104
Fundacji of 0.0014104
plan of 0.0014104
rozwoju of 0.0141044
wśród of 0.0014104
Polityki of 0.0014104
nich of 0.0056417
źródeł of 0.0014104
European of 0.0028209
praw of 0.0014104
młodzieńczego of 0.0014104
spotkanie of 0.0028209
unijnego of 0.0028209
ds. of 0.0070522
Postępowania of 0.0014104
tego of 0.0042313
astronomów of 0.0014104
pomnik of 0.0014104
ministrem of 0.0014104
ładunkowych of 0.0014104
obowiązki of 0.0028209
działania of 0.0042313
nauk of 0.0028209
poszerzenia of 0.0014104
przeznaczania of 0.0028209
strategii of 0.0014104
zespół of 0.0056417
z of 0.0324401
przygotowaniach of 0.0014104
gatunek of 0.0014104
gry of 0.0014104
rad of 0.0014104
Instytutu of 0.0028209
Szkół of 0.0014104
Australijskiej of 0.0028209
konkurencyjność of 0.0014104
bardzo of 0.0028209
wyników of 0.0056417
krajów of 0.0014104
nierównowagi of 0.0014104
rekrutacji of 0.0056417
odkryć of 0.0014104
której of 0.0028209
pobierania of 0.0014104
zasadami of 0.0014104
przy of 0.0014104
szkoły of 0.0014104
płace of 0.0014104
MNiSW of 0.0070522
nauki of 0.0507757
o of 0.0155148
Adamów of 0.0014104
zakresu of 0.0014104
Sportu of 0.0014104
odległości of 0.0028209
FameLab of 0.0014104
zwycięzców of 0.0014104
Karty of 0.0014104
Komisji of 0.0056417
kształcenia of 0.0014104
demokracji of 0.0014104
jedna of 0.0014104
ekspertów of 0.0028209
sukcesy of 0.0014104
jakości of 0.0028209
systemu of 0.0014104
zacieśniania of 0.0014104
bazy of 0.0014104
działań of 0.0098731
technologii of 0.0056417
wszelkich of 0.0014104
oferty of 0.0042313
rozwiązań of 0.0028209
regionu of 0.0014104
karier of 0.0028209
wynagrodzeń of 0.0028209
Ministerstwo of 0.0056417
wartość of 0.0014104
33 of 0.0014104
Łodzi of 0.0014104
edycji of 0.0028209
okresowej of 0.0014104
rozporządzenie of 0.0014104
endemicznych of 0.0014104
zatrudnienia of 0.0042313
Polaków of 0.0014104
RNA of 0.0014104
kierunki of 0.0014104
podziału of 0.0014104
Rozwój of 0.0014104
komercyjnego of 0.0014104
budowę of 0.0028209
sprawy of 0.0014104
of of 0.0197461
szanse of 0.0028209
przestrzeni of 0.0014104
praktyk of 0.0014104
jego of 0.0042313
badawczej of 0.0014104
ewolucję of 0.0014104
wyniki of 0.0098731
transformacji of 0.0014104
efektami of 0.0014104
biochemii of 0.0014104
zamachowym of 0.0014104
absolwentów of 0.0028209
laureatów of 0.0141044
przedstawiciele of 0.0014104
zaangażowaniu of 0.0014104
przedstawicieli of 0.0014104
Warszawski of 0.0028209
jednym of 0.0014104
studiów of 0.0141044
laureaci of 0.0042313
Wydziału of 0.0056417
celów of 0.0014104
spektroskopii of 0.0014104
profesorem of 0.0014104
Ministra of 0.0042313
Mechaniki of 0.0028209
dotyczy of 0.0014104
charakterze of 0.0028209
Inżynierii of 0.0028209
Europejskiego of 0.0042313
wymiany of 0.0014104
Górniczo-Hutnicza of 0.0028209
Politechniki of 0.0028209
etap of 0.0042313
rektorów of 0.0028209
zasada of 0.0014104
uczestnictwa of 0.0014104
cywilizacyjne of 0.0014104
początku of 0.0014104
styku of 0.0014104
tej of 0.0028209
centrów of 0.0028209
NULL of 0.3892807
Forum of 0.0056417
funkcjonowania of 0.0014104
się of 0.0070522
ministra of 0.0042313
jakim of 0.0014104
programu of 0.0126939
sektorowych of 0.0042313
priorytetów of 0.0056417
Informatyki of 0.0014104
poziomów of 0.0014104
wielu of 0.0028209
Uniwersytetu of 0.0056417
internacjonalizacją of 0.0014104
dostępu of 0.0014104
prezydencji of 0.0014104
studentów of 0.0042313
otolaryngologii of 0.0014104
jednego of 0.0014104
zakresie of 0.0028209
+ of 0.0028209
Dyrektora of 0.0014104
zwiększyć of 0.0014104
warunków of 0.0014104
Kardiochirurgii of 0.0014104
kontekście of 0.0014104
liczby of 0.0042313
przystąpienia of 0.0014104
bilateralnej of 0.0014104
Akademii of 0.0042313
dotyczące of 0.0042313
rozpoczęcie of 0.0014104
jednostek of 0.0042313
Technologii of 0.0028209
istnienia of 0.0014104
profesora of 0.0014104
poparcia of 0.0014104
potrzeby of 0.0014104
Europejskiej of 0.0014104
od of 0.0028209
ConfometRx of 0.0014104
ustaleń of 0.0014104
dobrych of 0.0014104
osiągnięć of 0.0042313
ankiet of 0.0014104
Rady of 0.0042313
tureckich of 0.0014104
Umiędzynarodowienie of 0.0014104
formy of 0.0028209
kamień of 0.0014104
motyli butterflies 1.0000000
NULL promote 0.1111111
do promote 0.1111111
promowania promote 0.1111111
promowanie promote 0.1111111
wspierania promote 0.1111111
wspierają promote 0.1111111
wzmacniają promote 0.1111111
promować promote 0.2222222
wspaniałym tremendous 1.0000000
M.E M.E. 1.0000000
CIT tax 1.0000000
Komitetem closer 0.1250000
Akademią closer 0.1250000
Jednostek closer 0.1250000
oraz closer 0.1250000
Naukowych closer 0.1250000
Ewaluacji closer 0.1250000
Polską closer 0.1250000
Nauk closer 0.1250000
podstawą all 0.0400000
liceami all 0.0400000
wszystko all 0.0400000
tajemnic all 0.0400000
przede all 0.0400000
mieszkańców all 0.0400000
wszystkie all 0.1200000
NULL all 0.2000000
wszystkich all 0.2400000
wszytkim all 0.0400000
wszystkim all 0.0400000
całego all 0.0800000
we all 0.0400000
południowymi southern 1.0000000
noblistów Prize 0.2307692
NULL Prize 0.0769231
Nagrodę Prize 0.0769231
popularnie Prize 0.0769231
poruszę Prize 0.0769231
Nobla Prize 0.3846154
za Prize 0.0769231
NULL use 0.3333333
najlepszej use 0.3333333
pełni use 0.3333333
minister Lena 0.1428571
NULL Lena 0.1428571
prof Lena 0.1428571
Leny Lena 0.1428571
Lena Lena 0.4285714
zostanie members 0.3333333
transferu members 0.3333333
członkiem-założycielem members 0.3333333
bakalawriat Bakalaureat 1.0000000
powiedział Piotr 0.2000000
dodał Piotr 0.2000000
- Piotr 0.2000000
Piotr Piotr 0.4000000
krokiem step 0.3333333
krok step 0.6666667
jesienią fall 0.5000000
ruszy fall 0.5000000
ze divided 0.2000000
względu divided 0.2000000
na divided 0.2000000
dzieli divided 0.2000000
się divided 0.2000000
r 2005 0.5000000
2005 2005 0.5000000
Polsko-szwedzkie Polish-Swedish 1.0000000
ze dynamically 0.2500000
wszystkich dynamically 0.2500000
umiędzynarodowienia dynamically 0.2500000
najdynamiczniej dynamically 0.2500000
skutecznego effectively 1.0000000
odkształcenie deformation 1.0000000
starań effort 0.5000000
radziła effort 0.5000000
neutronów neutron 0.5000000
źródła neutron 0.5000000
Kioto Kyoto 1.0000000
studiach continue 0.5000000
wprowadzamy continue 0.5000000
innowacji innovations 0.4444444
Expanding innovations 0.1111111
innowacjach innovations 0.2222222
innowacje innovations 0.2222222
a especially 0.2500000
współpracę especially 0.2500000
szczególnie especially 0.2500000
zwłaszcza especially 0.2500000
dwu- two- 1.0000000
Niemiec German 1.0000000
liczba program 0.1111111
przede program 0.1111111
zbudowany program 0.1111111
kierowany program 0.1111111
program program 0.1111111
NULL program 0.3333333
jaki program 0.1111111
Polsko-Niemieckich at 0.0101010
słuchowego at 0.0101010
Barnes-Jewish at 0.0101010
chorobie at 0.0101010
staże at 0.0101010
badawczego at 0.0101010
rozmawiali at 0.0101010
konferencji at 0.0101010
zdobywać at 0.0101010
podoktoranckiego at 0.0101010
najmniej at 0.0101010
pod at 0.0101010
Uniwersytecie at 0.0101010
w at 0.2222222
geograficznej at 0.0101010
Stronę at 0.0101010
Johns at 0.0202020
Politechnice at 0.0101010
Tepui at 0.0101010
posiadają at 0.0101010
siedemnastu at 0.0101010
NULL at 0.1212121
podniesienia at 0.0101010
najwyższym at 0.0101010
zdobytą at 0.0101010
jednocześnie at 0.0101010
California at 0.0303030
publiczności at 0.0101010
The at 0.0101010
na at 0.2929293
renomowanych at 0.0101010
Researchers at 0.0101010
stażom at 0.0101010
Polacy at 0.0101010
Amsterdamie at 0.0101010
technicznych at 0.0101010
gotowości readiness 1.0000000
Australii Australia 0.5000000
) Australia 0.5000000
NULL full 0.1428571
pełne full 0.2857143
programowej full 0.1428571
majątkowe full 0.1428571
nazwiskiem full 0.1428571
zestaw full 0.1428571
promocji promotion 0.5000000
wspieranie promotion 0.5000000
na RTD-CHARTER 0.3333333
adres RTD-CHARTER 0.3333333
RTD-CHARTER RTD-CHARTER 0.3333333
Klimek Klimek 1.0000000
europejskiej enhance 0.3333333
podnieść enhance 0.3333333
konkurencyjność enhance 0.3333333
znajdowała itself 0.3333333
sobie itself 0.3333333
sama itself 0.3333333
przestrzegać institutions 0.0416667
instytucjach institutions 0.0416667
instytucji institutions 0.2083333
instytucjami institutions 0.0416667
instytucje institutions 0.2083333
naukowe institutions 0.0833333
NULL institutions 0.3333333
poza institutions 0.0416667
jest represent 0.5000000
kompromisu represent 0.5000000
wybitny chemist 0.5000000
chemik chemist 0.5000000
czyta anyone 0.5000000
je anyone 0.5000000
korzystniejszych associations 0.5000000
stowarzyszenia associations 0.5000000
geograficznej inequity 1.0000000
NULL underway 0.5000000
będziemy underway 0.5000000
naukowej care 0.3333333
opieki care 0.3333333
żłobków care 0.3333333
pozarządową organisation 1.0000000
systemowych pursuing 0.2000000
szereg pursuing 0.2000000
oraz pursuing 0.2000000
działań pursuing 0.2000000
konkursów pursuing 0.2000000
uczelniach Universities 0.5000000
uniwersytetów Universities 0.5000000
własne own 0.1250000
projektem own 0.1250000
NULL own 0.2500000
własnych own 0.1250000
programy own 0.1250000
autorskie own 0.1250000
zaznaczył own 0.1250000
rada-wydzialu rada-wydzialu 1.0000000
kierunków following 0.1666667
następującymi following 0.0833333
przestrzegania following 0.0833333
stanęli following 0.0833333
następujących following 0.0833333
NULL following 0.3333333
ukończyć following 0.0833333
Dofinansowane following 0.0833333
habilitację habilitation 1.0000000
wskazanym colleges 0.3333333
adresem colleges 0.3333333
zawodowe colleges 0.3333333
UMK Astronomy 1.0000000
Przekazanie Transferring 1.0000000
Kiedyś some 0.2500000
wyzwania some 0.2500000
część some 0.2500000
jednych some 0.2500000
wykazała showed 0.6666667
marsjańskiego showed 0.3333333
tego then 0.2000000
następnie then 0.6000000
przedmiotem then 0.2000000
otochirurg otosurgeon 1.0000000
praktyków practitioners 1.0000000
osobiście tested 1.0000000
europejskich levels 0.2500000
poziomach levels 0.2500000
NULL levels 0.2500000
liceami levels 0.2500000
przypadków cases 0.5000000
grupie cases 0.5000000
zarówno as 0.0120482
konkurencyjna as 0.0240964
aż as 0.0481928
690 as 0.0240964
prezes as 0.0120482
wybiorą as 0.0120482
prawie as 0.0120482
rynek as 0.0120482
mianem as 0.0120482
pomiędzy as 0.0120482
dualnych as 0.0120482
jako as 0.0240964
a as 0.1325301
dzięki as 0.0120482
kierownictwem as 0.0120482
oraz as 0.0361446
zaprzysiężona as 0.0120482
opracowania as 0.0120482
przeznaczyć as 0.0240964
także as 0.0120482
NULL as 0.3855422
nazwę as 0.0120482
odpowiedzialnego as 0.0120482
jak as 0.0240964
podobnie as 0.0120482
wrodzonych as 0.0240964
propozycja as 0.0120482
wdrożyć as 0.0120482
rozpoczęciem as 0.0120482
samo as 0.0120482
42 as 0.0120482
inwestycjom investment 1.0000000
optycznej crystal 1.0000000
Follower Follower 1.0000000
dotycząca debate 0.1111111
NULL debate 0.1111111
debaty debate 0.3333333
zwrócono debate 0.1111111
czwartkowej debate 0.1111111
dyskusji debate 0.2222222
współzałożycielem co-founder 1.0000000
technologicznej bases 1.0000000
Hrynkiewicz Hrynkiewicz 1.0000000
Główną process 0.2000000
Ministrów process 0.2000000
procesu process 0.2000000
innowacyjnego process 0.2000000
Nauki process 0.2000000
co funded 0.2500000
siódmy funded 0.2500000
finansowany funded 0.2500000
NULL funded 0.2500000
Programowaniu Programming 0.5000000
Mistrzostwach Programming 0.5000000
jakość improving 0.3333333
kształcenia improving 0.3333333
lepsza improving 0.3333333
bezpłatne commence 0.5000000
NULL commence 0.5000000
ma therapy 0.2500000
ta therapy 0.2500000
Terapia therapy 0.2500000
zastosowanie therapy 0.2500000
NULL democratic 0.2000000
na democratic 0.2000000
demokratycznych democratic 0.6000000
uk uk 1.0000000
podczerwieni detectors 1.0000000
Rady Bologna 0.2500000
Ministrów Bologna 0.2500000
Komitetu Bologna 0.2500000
Radą Bologna 0.2500000
ulgi 51 0.5000000
wprowadził 51 0.5000000
ekonomika economics 0.3333333
ekonomia economics 0.6666667
tam able 0.1538462
mogły able 0.1538462
podjąć able 0.0769231
również able 0.0769231
będą able 0.1538462
wybierał able 0.0769231
mogli able 0.1538462
NULL able 0.1538462
medali medals 0.2500000
medale medals 0.2500000
brązowe medals 0.2500000
aż medals 0.2500000
także Humanoid 0.2500000
zakończyła Humanoid 0.2500000
konkurencja Humanoid 0.2500000
Humanoid Humanoid 0.2500000
biurokratycznych burden 1.0000000
16 16 1.0000000
wzmocnienie enhancing 0.5000000
misji enhancing 0.5000000
cieszyło enjoyed 1.0000000
równowagi balance 1.0000000
nakłady expenditures 1.0000000
atomów ultracold 0.5000000
ultrazimnych ultracold 0.5000000
NULL signed 0.2500000
podpisał signed 0.2500000
344 signed 0.2500000
studentówi signed 0.2500000
szerokim in-depth 1.0000000
renomowanych renown 1.0000000
Graduate Graduate 0.3333333
Institute Graduate 0.3333333
for Graduate 0.3333333
otrzyma granted 0.1250000
stażach granted 0.1250000
zdobędzie granted 0.1250000
staną granted 0.1250000
przez granted 0.1250000
przyznawane granted 0.2500000
NULL granted 0.1250000
programów Jurek 0.2500000
europejskich Jurek 0.2500000
ds. Jurek 0.2500000
prorektorem Jurek 0.2500000
obiektu facility 1.0000000
reformowaniu reformation 0.5000000
nauki reformation 0.5000000
Niemiec Germany 1.0000000
rozpowszechniać students 0.0119048
uczniom students 0.0119048
reprezentują students 0.0119048
robota students 0.0119048
programem students 0.0119048
NULL students 0.0595238
doktorantom students 0.0238095
doktoranci students 0.0238095
studentami students 0.0119048
studiach students 0.0119048
studentów students 0.3928571
studentom students 0.0833333
studiującym students 0.0119048
doktorantów students 0.1071429
uczniów students 0.0119048
studenci students 0.1428571
pozwalają students 0.0238095
dotacji students 0.0119048
amerykańską students 0.0238095
Nahua culture 1.0000000
zróżnicowanie approaches 0.2500000
również approaches 0.2500000
akademickie approaches 0.2500000
uczelni approaches 0.2500000
BalticLabie Balticlab 1.0000000
pozwala favourable 0.3333333
- favourable 0.3333333
zasadach favourable 0.3333333
Brokerzy Innovation 0.1428571
Innovation Innovation 0.1428571
ekspeľtów Innovation 0.1428571
Innowacji Innovation 0.4285714
polityki Innovation 0.1428571
spľaw European 0.0140845
swoją European 0.0140845
European European 0.0281690
wskazanym European 0.0140845
Krajowych European 0.0140845
Obserwatorium European 0.0140845
europejskiej European 0.0422535
Europejską European 0.0140845
europejskich European 0.0845070
17 European 0.0140845
europejskie European 0.0704225
oraz European 0.0281690
europejskim European 0.0281690
prestiżowego European 0.0140845
NULL European 0.0985915
Unii European 0.0845070
Europejskie European 0.0140845
Europejska European 0.0140845
Unia European 0.0140845
Reprezentacją European 0.0140845
Zachodniej European 0.0140845
Systemu European 0.0140845
Europejskiego European 0.0563380
europejski European 0.0281690
Europejskiej European 0.1971831
kosmodromu European 0.0140845
europeistyka European 0.0281690
europejskimi European 0.0140845
Rząd ii 0.2000000
NULL ii 0.2000000
I. ii 0.2000000
uczynił ii 0.2000000
priorytetów ii 0.2000000
stoisko Recognition 1.0000000
782,6 782.6 1.0000000
stworzyli realized 1.0000000
NULL concerning 0.5000000
materialnej concerning 0.2500000
uczelniane concerning 0.2500000
DLA FOR 1.0000000
zidentyfikować identify 0.5000000
prowadzone identify 0.5000000
przeprowadził was 0.0140845
dokonali was 0.0140845
ukazała was 0.0140845
NULL was 0.1690141
wieloletniego was 0.0140845
funkcje was 0.0140845
została was 0.0704225
Rezultat was 0.0140845
pełnił was 0.0140845
ratyfikował was 0.0140845
zostało was 0.0140845
innowacyjności was 0.0140845
dr was 0.0140845
było was 0.1267606
zakończył was 0.0140845
stanowiły was 0.0140845
była was 0.0563380
mnie was 0.0140845
odbyło was 0.0422535
stała was 0.0140845
był was 0.0563380
obiektu was 0.0140845
Humanoid was 0.0140845
wzięli was 0.0140845
nominację was 0.0140845
brała was 0.0140845
kosmodromu was 0.0140845
siódma was 0.0140845
słuchowego was 0.0140845
udało was 0.0281690
zwrócono was 0.0140845
porządkuje was 0.0140845
Guliński was 0.0140845
zajęła was 0.0140845
r. was 0.0140845
edukacyjnych was 0.0140845
zakończonym was 0.0140845
Podkreślono was 0.0140845
1300 was 0.0140845
Calvinem Calvin 1.0000000
obecnie stable 0.2500000
stabilne stable 0.2500000
stałego stable 0.2500000
poziom stable 0.2500000
reformujące reforming 0.5000000
naukę reforming 0.5000000
Płatne Polonez 0.5000000
POLONEZA Polonez 0.5000000
r. 1994 0.4000000
) 1994 0.2000000
1994 1994 0.4000000
120 train 0.5000000
NULL train 0.5000000
różnych nations 1.0000000
niedosłuchem loss 0.5000000
częściową loss 0.5000000
horizon2020 horizon2020 0.5000000
programmes horizon2020 0.5000000
się models 0.3333333
autorytetem models 0.3333333
też models 0.3333333
Jednostek Evaluation 0.2857143
Naukowych Evaluation 0.2857143
Ewaluacji Evaluation 0.2857143
zmianach Evaluation 0.1428571
technologiach technologies 0.1250000
wojskowych technologies 0.1250000
wspierających technologies 0.1250000
technologii technologies 0.5000000
technologie technologies 0.1250000
http http 1.0000000
NULL graphene 0.3333333
to graphene 0.3333333
Grafen graphene 0.3333333
okrążającą orbiting 1.0000000
określony fixed 0.2500000
przewodniku fixed 0.2500000
sposób fixed 0.2500000
w fixed 0.2500000
operację surgery 1.0000000
społeczeństwie society 0.2000000
prof society 0.2000000
społeczeństwo society 0.2000000
społeczeństwa society 0.4000000
Minnesota Minnesota 1.0000000
Promowanie promoting 0.3333333
KE promoting 0.3333333
przez promoting 0.3333333
Palczewski Palczewski 1.0000000
kosmicznego industry 0.1000000
przemysł industry 0.1000000
przedsiębiorstw industry 0.1000000
przemyśle industry 0.1000000
przemysłu industry 0.4000000
energetyki industry 0.1000000
przemysłem industry 0.1000000
Łotwy Lithuania 0.5000000
Litwy Lithuania 0.5000000
przeciwnowotworowego obtained 1.0000000
zapomogi allowances 0.3333333
oraz allowances 0.3333333
wyżywienie allowances 0.3333333
California California 1.0000000
do date 0.2000000
Wypromowała date 0.2000000
pory date 0.2000000
aktualne date 0.2000000
tej date 0.2000000
studiów quality 0.0769231
jakość quality 0.1538462
edukacji quality 0.1538462
oraz quality 0.0769231
jakości quality 0.2307692
NULL quality 0.3076923
Erasmus Erasmus 1.0000000
ustawy draft 0.2500000
projekt draft 0.2500000
nowelizacji draft 0.2500000
który draft 0.2500000
było objective 0.5000000
zadaniem objective 0.5000000
naukowe units 0.1538462
jednostki units 0.3076923
japońskie units 0.0769231
naukowych units 0.2307692
NULL units 0.2307692
najlepsza way 0.2500000
sposób way 0.5000000
samych way 0.2500000
załączniku attached 1.0000000
na allot 0.3333333
ten allot 0.3333333
przeznaczać allot 0.3333333
poprawia improve 0.2500000
jakości improve 0.2500000
poprawy improve 0.2500000
podwyższanie improve 0.2500000
COMPET COMPET 0.6666667
unijni COMPET 0.3333333
Sejmie Thursday 1.0000000
przemysłem analysis 0.5000000
analizy analysis 0.5000000
i casually 0.5000000
grzecznościowo casually 0.5000000
wraz together 0.1428571
z together 0.1428571
wykładowcami together 0.1428571
wspólnie together 0.2857143
razem together 0.1428571
NULL together 0.1428571
światowych world 0.0370370
NULL world 0.1111111
na world 0.0740741
światowym world 0.1111111
Polskich world 0.0370370
światowej world 0.0370370
Specjalizuje world 0.0370370
świecie world 0.4074074
świata world 0.1481481
swobodnego movement 0.2000000
sprawy movement 0.2000000
dotyczące movement 0.2000000
m.in. movement 0.2000000
omawiają movement 0.2000000
stycznia January 0.2000000
od January 0.2000000
styczniu January 0.6000000
ogólnej subsidy 0.3333333
dotacji subsidy 0.3333333
pomoc subsidy 0.3333333
innowacyjności Technology 0.0769231
z Technology 0.0769231
Warszawskiej Technology 0.1538462
Elektronicznych Technology 0.0769231
Politechniki Technology 0.0769231
Staszica Technology 0.0769231
Górniczo-Hutnicza Technology 0.1538462
Górniczo-Hutniczej Technology 0.0769231
Technology Technology 0.1538462
NULL Technology 0.0769231
kulturę Nahua 1.0000000
najlepsi best 0.1000000
najlepsze best 0.2500000
zespołach best 0.0500000
najlepszym best 0.0500000
najlepiej best 0.0500000
najlepszych best 0.3000000
odpowiednich best 0.0500000
najlepszy best 0.0500000
NULL best 0.0500000
najlepsza best 0.0500000
umiejętności competences 1.0000000
szanse chances 1.0000000
Fundacji Finance 0.3333333
Naukowo-Technologicznego Finance 0.3333333
UAM Finance 0.3333333
uczy teach 0.3333333
będzie teach 0.3333333
uczył teach 0.3333333
pozwalało allowed 0.2500000
wprowadzać allowed 0.2500000
granicą allowed 0.2500000
NULL allowed 0.2500000
kondensat Bose-Einstein 1.0000000
otrzymało 200 0.5000000
200 200 0.5000000
wspólnych joint 0.2000000
NULL joint 0.1000000
badawczymi joint 0.1000000
wspólne joint 0.5000000
będą joint 0.1000000
makers Policy-makers 0.3333333
panelu Policy-makers 0.3333333
Policy Policy-makers 0.3333333
Polskiej Road 0.5000000
Mapie Road 0.5000000
specjalne special 0.1428571
stypendium special 0.1428571
osiągnięcia special 0.1428571
NULL special 0.1428571
specjalny special 0.1428571
żelaza special 0.1428571
wyjątkowe special 0.1428571
wkładem contribute 0.1666667
stanowił contribute 0.1666667
kraju contribute 0.1666667
naszego contribute 0.1666667
pełne contribute 0.1666667
uczestniczenie contribute 0.1666667
dziecięcych clubs 1.0000000
zasady Open 0.3333333
podmiotami Open 0.3333333
współpracy Open 0.3333333
NULL AGH 0.2500000
Akademia AGH 0.7500000
premier Ewa 0.3333333
Ewa Ewa 0.6666667
uniwersyteckim Tarnowo-Mościce 0.3333333
Tarnowie-Mościcach Tarnowo-Mościce 0.3333333
pierwszym Tarnowo-Mościce 0.3333333
pomijane ignored 1.0000000
jej frequently 1.0000000
niezbędnej necessary 0.2000000
konieczne necessary 0.6000000
NULL necessary 0.2000000
rozwiązań projects 0.0357143
projekty projects 0.1785714
predyspozycje projects 0.0357143
doktorskie projects 0.0357143
dodatkowo projects 0.0357143
NULL projects 0.0714286
projektów projects 0.3214286
projektach projects 0.1428571
projektami projects 0.1071429
przedsięwzięcia projects 0.0357143
światłem neutral 1.0000000
środki reserved 0.5000000
wydzielono reserved 0.5000000
Francji France 1.0000000
1 1 0.9166667
do 1 0.0833333
przyjęty accepted 1.0000000
@ @ 0.5000000
adres @ 0.2500000
na @ 0.2500000
studentom three-month 0.3333333
trzymiesięcznych three-month 0.3333333
zapewnienia three-month 0.3333333
przez disbursed 0.2500000
NCN disbursed 0.2500000
wydatkowanych disbursed 0.2500000
funduszy disbursed 0.2500000
Danii Denmark 0.3333333
Bolońskiego Denmark 0.3333333
Dania Denmark 0.3333333
r 2012 0.1500000
2012 2012 0.5000000
NULL 2012 0.0500000
roku 2012 0.3000000
wybieranym top-choice 0.2500000
stała top-choice 0.2500000
najczęściej top-choice 0.2500000
się top-choice 0.2500000
pomoc could 0.2500000
tą could 0.2500000
przeznaczone could 0.2500000
na could 0.2500000
zachwycona delighted 0.3333333
tą delighted 0.3333333
wiadomością delighted 0.3333333
szpiku marrow 1.0000000
kandydatów qualify 0.1666667
zakwalifikuje qualify 0.1666667
własnych qualify 0.1666667
uczelnia qualify 0.1666667
Mistrzostwa qualify 0.1666667
według qualify 0.1666667
Guliński headed 0.2000000
będzie headed 0.2000000
uczestniczyć headed 0.2000000
Jacek headed 0.2000000
Prof. headed 0.2000000
tzw. Szumowski 0.5000000
szanghajskiego Szumowski 0.5000000
spowoduje making 0.1666667
przejście making 0.1666667
- making 0.1666667
rozpoczynającym making 0.1666667
wyszukiwarki making 0.1666667
do making 0.1666667
+ spectrum 0.4000000
lewy spectrum 0.2000000
shift spectrum 0.2000000
alt spectrum 0.2000000
pierwszymi effects 0.3333333
efektami effects 0.3333333
cieszyć effects 0.3333333
naprawdę become 0.5000000
osiągnięciom become 0.5000000
sprawozdań reports 1.0000000
RNA RNA 0.6666667
wchodzące RNA 0.3333333
Seminar Seminar 1.0000000
innovations joining 0.2500000
joining joining 0.2500000
by joining 0.2500000
BalticLabie joining 0.2500000
zostaną seeking 0.1666667
konkursy seeking 0.1666667
programów seeking 0.1666667
operacyjnych seeking 0.1666667
uruchomione seeking 0.1666667
ramach seeking 0.1666667
zaszczytnym highest 0.0909091
najwyższym highest 0.0909091
najwyższy highest 0.0909091
głównej highest 0.0909091
najwyższe highest 0.0909091
poziomie highest 0.1818182
zdobywając highest 0.0909091
największym highest 0.0909091
światowym highest 0.1818182
przeszczepu graft 1.0000000
tym prize 0.3333333
za prize 0.3333333
idzie prize 0.3333333
NULL establishments 0.5000000
uczelni establishments 0.5000000
poprawia ? 0.2500000
? ? 0.5000000
. ? 0.2500000
niepowiązanych not 0.0344828
nie not 0.6896552
NULL not 0.0689655
droga not 0.0344828
uczył not 0.0344828
astronomowie not 0.0344828
tekstu not 0.0344828
realizował not 0.0344828
niedyskryminacji not 0.0344828
Metali Metals 0.5000000
Inżynierii Metals 0.5000000
wyróżnienia teaching 0.1666667
dobrą teaching 0.1666667
doskonalenie teaching 0.1666667
za teaching 0.1666667
dydaktyczne teaching 0.3333333
NAUKA SCIENCE 1.0000000
światowym authority 0.2000000
dziedzinie authority 0.2000000
krzemoorganicznej authority 0.2000000
chemii authority 0.2000000
autorytetem authority 0.2000000
obszar R 0.2000000
+ R 0.2000000
B R 0.2000000
R R 0.4000000
Krymu Crimea 1.0000000
opinia opinion 0.3333333
podkreślał opinion 0.3333333
grup opinion 0.3333333
Carol Carol 1.0000000
komercjalizują commercialize 1.0000000
Matki Wroclaw 1.0000000
ścieżkę advise 0.5000000
rozpoczynającym advise 0.5000000
marie-sklodowska-curie-actions marie-sklodowska-curie-actions 1.0000000
priorytetowych priority 0.2000000
priorytetów priority 0.2000000
wymiany priority 0.2000000
akademickiej priority 0.2000000
priorytetem priority 0.2000000
postaw attitudes 0.2000000
zmiany attitudes 0.2000000
demokracji attitudes 0.2000000
to attitudes 0.2000000
Budowa attitudes 0.2000000
Nauki Forum 0.4000000
Polsko-Francuskiego Forum 0.2000000
Forum Forum 0.4000000
zamachowym flywheel 0.2500000
innowacyjnej flywheel 0.2500000
polskiej flywheel 0.2500000
kołem flywheel 0.2500000
angielsku English 0.5000000
angielskim English 0.5000000
prof prof 1.0000000
motywacyjny cover 0.3333333
licencjackie cover 0.3333333
innowacyjność cover 0.3333333
32 32 0.5000000
doktorów 32 0.5000000
NAFSA NAFSA 1.0000000
Fulbrighta Program 0.5000000
NULL Program 0.2500000
Program Program 0.2500000
ustawy law 0.1666667
Zaproponowano law 0.1666667
zakłada law 0.1666667
prawie law 0.1666667
prawo law 0.3333333
NULL winner 1.0000000
jedynie given 0.1666667
dała given 0.1666667
jednostki given 0.1666667
terenów given 0.1666667
NULL given 0.3333333
Elizabeth Elizabeth 1.0000000
gwarantujących progress 0.5000000
postęp progress 0.5000000
sposób specifying 0.5000000
określające specifying 0.5000000
Największe greatest 0.2000000
formatu greatest 0.2000000
NULL greatest 0.2000000
mistrzami greatest 0.2000000
największego greatest 0.2000000
współpracują Sweden 0.2000000
Lund Sweden 0.2000000
Szwecja Sweden 0.4000000
NULL Sweden 0.2000000
współpraca believe 0.2000000
Wierzę believe 0.2000000
tego believe 0.2000000
rodzaju believe 0.2000000
oparta believe 0.2000000
fal waves 1.0000000
; ERA 0.3333333
Polskich ERA 0.3333333
Zawodowych ERA 0.3333333
konferencjom conferences 0.3333333
NULL conferences 0.3333333
organizowane conferences 0.3333333
publikacjach publications 0.1250000
publikacji publications 0.2500000
parków publications 0.1250000
publikacje publications 0.2500000
pierwsze publications 0.1250000
NULL publications 0.1250000
uproszczonych settling 1.0000000
co each 0.1111111
każdy each 0.3333333
Każda each 0.1111111
sobą each 0.1111111
złotych each 0.1111111
każdego each 0.2222222
poziom internationalization 0.2000000
innowacyjność internationalization 0.2000000
umiędzynarodowienia internationalization 0.2000000
NULL internationalization 0.2000000
Umiędzynarodowienie internationalization 0.2000000
internauci Internet 0.5000000
NULL Internet 0.5000000
ds ( 0.0136986
bo ( 0.0136986
doktora ( 0.0136986
Spalacyjnego ( 0.0136986
Wiodących ( 0.0136986
począWszy ( 0.0136986
ESO ( 0.0136986
zaprzysiężona ( 0.0136986
medyczne ( 0.0136986
przekształcaniem ( 0.0136986
( ( 0.6986301
rekordową ( 0.0136986
NULL ( 0.1369863
komercjalizacyjnym ( 0.0136986
jakości standard 1.0000000
dyrektywy Directive 1.0000000
Wydziału Department 0.3333333
Wydziale Department 0.3333333
Kliniki Department 0.1666667
profesora Department 0.1666667
zadanie designed 0.3333333
za designed 0.3333333
wspierać designed 0.3333333
naukowca in 0.0022624
ogłosiły in 0.0022624
dodatkowo in 0.0022624
grupą in 0.0022624
jednorazowo in 0.0022624
proporcjonalnie in 0.0022624
Komisją in 0.0045249
projektu in 0.0022624
które in 0.0022624
François in 0.0022624
nowocześnie in 0.0022624
przyszłorocznego in 0.0022624
działania in 0.0045249
kwotą in 0.0022624
uczestnicy in 0.0022624
Stanforda in 0.0022624
przygotowanie in 0.0022624
studiach in 0.0022624
specjalistami in 0.0045249
ministrowie in 0.0022624
in in 0.0113122
Łącznie in 0.0022624
Kluczowym in 0.0022624
po in 0.0045249
Rektorzy in 0.0022624
sukcesów in 0.0022624
shift in 0.0022624
warsztatów in 0.0022624
Jaka in 0.0022624
realizację in 0.0022624
Stanisława in 0.0022624
regionów in 0.0022624
postaw in 0.0022624
naukami in 0.0022624
pracy in 0.0045249
kierunku in 0.0022624
programem in 0.0022624
Ukrainie in 0.0045249
we in 0.0180995
Nabór in 0.0022624
zainteresowanym in 0.0022624
u in 0.0022624
rozwojowych in 0.0022624
centrów in 0.0045249
prowadzenia in 0.0022624
doskonałości in 0.0022624
poprawiających in 0.0022624
zapowiedzi in 0.0022624
zainteresowanych in 0.0022624
na in 0.0113122
europejska in 0.0022624
aby in 0.0022624
otorynolaryngologii in 0.0022624
NULL in 0.0814480
Podlasiu in 0.0022624
ścieżki in 0.0022624
wersję in 0.0022624
infrastruktura in 0.0022624
profesora in 0.0022624
obszarów in 0.0022624
dzielony in 0.0022624
habilitowanego in 0.0022624
w in 0.7126697
przemysłem in 0.0022624
od in 0.0022624
nawiążą in 0.0022624
zasad in 0.0022624
Europy in 0.0022624
planet in 0.0022624
ponadto in 0.0022624
przedsięwzięcie in 0.0022624
zainteresowaniem interest 0.3333333
NULL interest 0.3333333
interesują interest 0.3333333
NULL laboratory 0.2000000
świata laboratory 0.2000000
laboratorium laboratory 0.6000000
ochrona protection 0.1250000
zabezpieczenie protection 0.1250000
chroniącymi protection 0.1250000
wykwalifikowanych protection 0.1250000
NULL protection 0.3750000
strony protection 0.1250000
nas true 0.2500000
są true 0.2500000
interesują true 0.2500000
naszą true 0.2500000
strategicznym strategic 0.3333333
partnerstwo strategic 0.3333333
partnerstwa strategic 0.3333333
ukraińską delegation 0.5000000
dzieliłam delegation 0.5000000
cum cum 1.0000000
pomysłu Idea 1.0000000
realizowane Trainings 0.5000000
szkolenia Trainings 0.5000000
dyskusje hold 0.5000000
NULL hold 0.5000000
UW Warsaw 0.0625000
Warszawski Warsaw 0.0625000
Warszawskiej Warsaw 0.0625000
rozwiniętych Warsaw 0.0625000
Hollande Warsaw 0.0625000
Warszawie Warsaw 0.1875000
Warszawą Warsaw 0.0625000
NULL Warsaw 0.1875000
Warszawskiego Warsaw 0.1875000
warszawskiego Warsaw 0.0625000
rozwiązań solutions 0.3750000
jej solutions 0.1250000
rozwiązania solutions 0.2500000
szereg solutions 0.1250000
technologiczne solutions 0.1250000
września September 0.2000000
we September 0.2000000
wrześniu September 0.6000000
wyjaśniała explained 0.2000000
NULL explained 0.2000000
wyjaśniła explained 0.6000000
Kosmicznej Agency 1.0000000
orbitę orbit 0.5000000
orbity orbit 0.5000000
Polski image 0.5000000
wizerunku image 0.5000000
zalety necessities 0.5000000
konieczność necessities 0.5000000
samodzielną started 0.3333333
ramach started 0.3333333
NULL started 0.3333333
Komitet Uniqueness 1.0000000
publikacji 380 0.5000000
380 380 0.5000000
ustawami acts 0.5000000
następującymi acts 0.5000000
porażkami worth 0.3333333
zrażajcie worth 0.3333333
wart worth 0.3333333
r earliest 0.5000000
. earliest 0.5000000
szkoleniach training 0.0909091
szkolenia training 0.1818182
Doliny training 0.0909091
na training 0.0909091
praktyk training 0.3636364
NULL training 0.1818182
globalnej educated 0.2000000
ludzi educated 0.2000000
kraj educated 0.2000000
wykształconych educated 0.2000000
arenie educated 0.2000000
pozytywna employee 0.5000000
ocena employee 0.5000000
1987 1987 0.3333333
doktorat 1987 0.3333333
r. 1987 0.3333333
przyciągnąć need 0.0714286
uczyć need 0.0714286
aplikacyjnych need 0.0714286
konieczności need 0.0714286
NULL need 0.2857143
Potrzeba need 0.0714286
zajmować need 0.0714286
potrzebują need 0.0714286
trzeba need 0.0714286
musimy need 0.1428571
nawiązania establishing 1.0000000
” cooperating 1.0000000
z professors 0.2500000
kolei professors 0.2500000
profesorowie professors 0.5000000
reprezentację proper 1.0000000
ukończone master 1.0000000
6 6th 0.6666667
miejsce 6th 0.3333333
NULL when 0.3333333
wtedy when 0.1666667
gdy when 0.5000000
Obrębski Obrębski 1.0000000
jest allocating 1.0000000
NULL edifice 1.0000000
Collect Collect 1.0000000
) Laboratory 0.2500000
Laboratory Laboratory 0.2500000
Investigator Laboratory 0.2500000
Associate Laboratory 0.2500000
edukacyjnym education-profile 0.2500000
międzynarodowymi education-profile 0.2500000
profilu education-profile 0.2500000
organizacjami education-profile 0.2500000
Maciej Maciej 0.6666667
NULL Maciej 0.3333333
wskazał referred 1.0000000
programów manuals 0.1666667
akademickich manuals 0.1666667
podręczników manuals 0.1666667
autorzy manuals 0.1666667
ciekawych manuals 0.1666667
to manuals 0.1666667
za defects 0.3333333
nabytych defects 0.3333333
pomocą defects 0.3333333
największe considered 0.2000000
polską considered 0.2000000
uznawanych considered 0.2000000
za considered 0.4000000
Toruniu Nicolaus 1.0000000
ustawowych requirements 0.2000000
Wymagania requirements 0.2000000
opis requirements 0.2000000
pracy requirements 0.4000000
komercjalizacyjnym iv 1.0000000
G receptors 1.0000000
zadawać added 0.1111111
zaznaczyła added 0.1111111
NULL added 0.1111111
spotkaniu added 0.1111111
dodała added 0.2222222
dodał added 0.1111111
podkreśliła added 0.1111111
dodaje added 0.1111111
2008-2011 2008-2011 1.0000000
wypełniać fill 1.0000000
4. 4th 0.5000000
Mieście 4th 0.5000000
ministra preference 0.3333333
sympatii preference 0.3333333
pierwszeństwo preference 0.3333333
chłodzeniem gases 0.3333333
gazów gases 0.3333333
atomowych gases 0.3333333
brutto gross 1.0000000
uczelnie schools 0.5000000
szkołach schools 0.1000000
i schools 0.2000000
NULL schools 0.1000000
zawodowe schools 0.1000000
analizy internal 0.3333333
wewnętrznej internal 0.6666667
udziału states 0.2000000
EFTA states 0.2000000
stanowi states 0.2000000
członkowskich states 0.2000000
kraje states 0.2000000
materialną Spending 0.1666667
pomoc Spending 0.1666667
rosną Spending 0.1666667
nakłady Spending 0.1666667
na Spending 0.3333333
uzyskać try 0.5000000
odpowiedzi try 0.5000000
ono built 0.3333333
zbudowany built 0.6666667
okresowa assessment 1.0000000
Gdański Sciences 0.1666667
Sciences Sciences 0.3333333
Akademii Sciences 0.1666667
Nauk Sciences 0.3333333
Od From 1.0000000
Brazylii Brazil 1.0000000
społeczno-emerytalne security 1.0000000
zaszły place 0.1250000
znalazł place 0.1250000
się place 0.5000000
miejsce place 0.2500000
uczestniczyło centres 0.0555556
egzaminacyjnych centres 0.0555556
ośrodkach centres 0.2222222
naukowymi centres 0.0555556
NULL centres 0.1666667
sześć centres 0.0555556
ośrodki centres 0.0555556
naukowych centres 0.0555556
lecz centres 0.0555556
akademickimi centres 0.0555556
sportowe centres 0.0555556
zespołami centres 0.0555556
żłobków centres 0.0555556
prowadzenia conducting 0.5000000
zakresie conducting 0.5000000
zajęli Russians 0.2000000
Rosjanie Russians 0.2000000
- Russians 0.2000000
sześcioma Russians 0.2000000
medalami Russians 0.2000000
przeszczepieniu bone 1.0000000
artystyczne art 1.0000000
eksploatacji exploitation 1.0000000
atomowych atomic 0.3333333
sieci atomic 0.3333333
laserowym atomic 0.3333333
się ownership 0.3333333
staną ownership 0.3333333
właścicielami ownership 0.3333333
Marie Máire 1.0000000
) thoroughly 0.1666667
strona thoroughly 0.1666667
klawiszowych thoroughly 0.1666667
opis thoroughly 0.1666667
( thoroughly 0.1666667
skrótów thoroughly 0.1666667
udziałem consultations 1.0000000
intensywny intense 0.5000000
czas intense 0.5000000
innymi debated 0.3333333
wzmocnieniu debated 0.3333333
między debated 0.3333333
obroną defended 0.3333333
ich defended 0.3333333
przed defended 0.3333333
marsjańskiego rover 0.2500000
spektrometrach rover 0.2500000
łazika rover 0.2500000
Hyperion rover 0.2500000
dwuletnie two 0.1111111
Dwoje two 0.1111111
partnerskimi two 0.2222222
NULL two 0.2222222
dwa two 0.1111111
dwóch two 0.1111111
kolejne two 0.1111111
status Krajowy 0.2500000
Naukowego Krajowy 0.2500000
zyskały Krajowy 0.2500000
które Krajowy 0.2500000
obecnego Trio 0.3333333
badań Trio 0.3333333
Trio Trio 0.3333333
możliwej prospective 0.2500000
współpracy prospective 0.2500000
zakres prospective 0.2500000
naukowej prospective 0.2500000
Waldemar Waldemar 1.0000000
europejskimi other 0.0588235
NULL other 0.2352941
inne other 0.1176471
rządów other 0.0588235
dwumiesięcznych other 0.0588235
strategiczne other 0.0588235
i other 0.0588235
sobą other 0.0588235
popularyzacji other 0.0588235
innych other 0.2352941
absolwentów jobs 0.3333333
przyszłych jobs 0.3333333
pracy jobs 0.3333333
V. V. 1.0000000
NULL Campus 1.0000000
regionach buildings 1.0000000
Ranking &apos;m 0.5000000
Academic &apos;m 0.5000000
przeciwko versus 1.0000000
NULL direct 0.5000000
korzyści direct 0.5000000
grupą participants 0.1666667
uczestników participants 0.6666667
uczestnicy participants 0.1666667
wzorem footsteps 1.0000000
Inteligentny Intelligent 1.0000000
Kreatywności Creativity 1.0000000
przypadku caseby-cases 1.0000000
Brytania Kingdom 1.0000000
NULL determine 0.7500000
zależy determine 0.2500000
złotych get 0.2500000
uzyskanie get 0.2500000
otrzymać get 0.2500000
milion get 0.2500000
2012 renamed 1.0000000
kraj competitive 0.1666667
oferta competitive 0.1666667
obecnie competitive 0.1666667
NULL competitive 0.3333333
oferuje competitive 0.1666667
razy times 1.0000000
850,2 850.2 1.0000000
było Studijos 0.1666667
polskie Studijos 0.1666667
podczas Studijos 0.1666667
Studijos Studijos 0.1666667
już Studijos 0.1666667
targów Studijos 0.1666667
molekularną Nałecz 1.0000000
i Coordination 1.0000000
Chiara Chiara 1.0000000
Duke Duke 1.0000000
NULL knowledge 0.1666667
mogą knowledge 0.1666667
wiedzy knowledge 0.6666667
ono Swedish 0.5000000
szwedzkim Swedish 0.5000000
przedsiębiorstwach businesses 0.3333333
uczestnicy businesses 0.3333333
przedsiębiorstwom businesses 0.3333333
wyboru choose 0.5000000
wybierał choose 0.2500000
właśnie choose 0.2500000
możliwych points 1.0000000
intelektualna property 0.1111111
praw property 0.1111111
NULL property 0.2222222
Przekazanie property 0.1111111
prawa property 0.1111111
naukowcom property 0.1111111
intelektualnej property 0.2222222
Letters Letters 1.0000000
pacjentki female 0.5000000
79-letniej female 0.5000000
uczelnie divide 0.5000000
NULL divide 0.5000000
roku 2008 0.5000000
2008 2008 0.5000000
zajmuje takes 1.0000000
naukowo-techniczny technical 0.3333333
habilitowanego technical 0.3333333
potencjał technical 0.3333333
społeczne Law 0.2000000
Prawa Law 0.2000000
zamówieniach Law 0.2000000
konsultacje Law 0.2000000
nowelizacji Law 0.2000000
milionów zlotys 0.5000000
złotych zlotys 0.5000000
styku junction 1.0000000
związane discussed 0.1000000
białostockich discussed 0.1000000
kwestie discussed 0.1000000
rozwijania discussed 0.1000000
m.in. discussed 0.1000000
NULL discussed 0.1000000
rządów discussed 0.1000000
omówiony discussed 0.1000000
Polski discussed 0.1000000
kwestię discussed 0.1000000
- Observatory 0.3333333
Południowe Observatory 0.6666667
przetestują test 0.3333333
sprawdzenie test 0.3333333
je test 0.3333333
r. 1988 0.3333333
przeniosła 1988 0.3333333
1988 1988 0.3333333
dziedzinie Pharmacology 0.3333333
Pharmacology Pharmacology 0.3333333
farmakologii Pharmacology 0.3333333
skok 10.2 0.5000000
o 10.2 0.5000000
dla increasing 0.1111111
rzecz increasing 0.1111111
NULL increasing 0.1111111
podniesienia increasing 0.1111111
Researchers increasing 0.1111111
Zwiększamy increasing 0.1111111
uczonych increasing 0.1111111
polskich increasing 0.1111111
wynagrodzeń increasing 0.1111111
NULL venue 1.0000000
poprawić an 0.0222222
antyplagiatowego an 0.0222222
+ an 0.0222222
ciekawej an 0.0222222
doskonałą an 0.0222222
- an 0.0222222
międzynarodowym an 0.0222222
pomysł an 0.0222222
wskaże an 0.0222222
planują an 0.0222222
wzrost an 0.0222222
NULL an 0.2000000
samym an 0.0222222
stosując an 0.0222222
doświadczeń an 0.0222222
ważną an 0.0222222
dorosłego an 0.0222222
do an 0.0222222
rozmowę an 0.0222222
kolejną an 0.0222222
Kampusu an 0.0222222
utrzymujący an 0.0222222
nauką an 0.0222222
rzeczowy an 0.0222222
rynek an 0.0222222
zaplecze an 0.0222222
element an 0.0444444
nieformalnym an 0.0222222
Ważnym an 0.0222222
międzynarodowy an 0.0444444
istotną an 0.0222222
zrażajcie an 0.0222222
przyznaną an 0.0222222
ona an 0.0222222
Od an 0.0222222
Johns Johns 1.0000000
zmusza forces 1.0000000
narodowych fund 0.5000000
funduszy fund 0.5000000
źródeł sources 1.0000000
miliardów billion 0.4000000
mld billion 0.6000000
myślenie thinking 1.0000000
lotniczych aircraft 0.5000000
katastrof aircraft 0.5000000
Salonie ” 0.0370370
wyższym ” 0.0370370
” ” 0.5185185
Policy ” 0.0370370
programie ” 0.0370370
POLONEZA ” 0.0370370
panelu ” 0.0370370
NULL ” 0.0740741
„ ” 0.1851852
scharakteryzowała characterized 1.0000000
NULL ; 0.0500000
; ; 0.5500000
budowie ; 0.0500000
science ; 0.0500000
rozpoczynają ; 0.0500000
wydzielono ; 0.0500000
- ; 0.1500000
resortu ; 0.0500000
nic statements 0.3333333
wspólnego statements 0.3333333
wystąpień statements 0.3333333
NULL turn 0.2000000
zmienia turn 0.2000000
naukowców turn 0.2000000
dziś turn 0.2000000
Polskę turn 0.2000000
instytucję choice 0.3333333
wyborów choice 0.3333333
naukową choice 0.3333333
konkursowych informing 0.5000000
informowania informing 0.5000000
Koncepcja invested 0.1250000
utworzenia invested 0.1250000
Teaming invested 0.1250000
Excellence invested 0.1250000
inwestowała invested 0.1250000
NULL invested 0.1250000
dotyczy invested 0.1250000
of invested 0.1250000
Studijos Fair 0.2000000
narodowe Fair 0.2000000
prezentowane Fair 0.2000000
Fair Fair 0.2000000
stoisko Fair 0.2000000
Uniwersytetu Adam 0.3333333
realizacji Adam 0.3333333
Adama Adam 0.3333333
za replaced 0.2000000
dotychczasowe replaced 0.2000000
wprowadzona replaced 0.2000000
stypendium replaced 0.2000000
zastąpiło replaced 0.2000000
wyższych seventeen 0.5000000
szkół seventeen 0.5000000
czerwca , 0.0016750
tą , 0.0016750
badacz , 0.0016750
ze , 0.0033501
dyscyplin , 0.0016750
zdobyło , 0.0016750
Chemii , 0.0016750
po , 0.0016750
Wczoraj , 0.0016750
zainaugurowała , 0.0016750
także , 0.0016750
rekomendowani , 0.0016750
sama , 0.0016750
pomiaru , 0.0016750
tym , 0.0033501
organizacje , 0.0016750
półroczu , 0.0016750
pracujemy , 0.0016750
ds. , 0.0016750
kluczowe , 0.0016750
został , 0.0016750
potencjale , 0.0016750
programowej , 0.0033501
, , 0.6482412
popularnie , 0.0016750
pory , 0.0033501
laboratoriach , 0.0016750
edukacyjnym , 0.0016750
pod , 0.0016750
organizują , 0.0016750
lub , 0.0050251
temu , 0.0016750
mieście , 0.0016750
debaty , 0.0016750
NULL , 0.1306533
dziś , 0.0033501
czerwcu , 0.0050251
dyskusja , 0.0016750
szkolnictwa , 0.0016750
środę , 0.0016750
ta , 0.0016750
Gowina , 0.0016750
Uniwersyteckiego , 0.0016750
USA , 0.0050251
umowy , 0.0016750
- , 0.0083752
spľaw , 0.0033501
m.in. , 0.0083752
Teamingowi , 0.0016750
Poprzednio , 0.0016750
uczelni , 0.0033501
( , 0.0016750
1999 , 0.0033501
realizację , 0.0016750
wydarzeniu , 0.0016750
grudnia , 0.0016750
MNiSW , 0.0016750
przy , 0.0016750
naukowiec , 0.0016750
czyli , 0.0016750
analizy , 0.0016750
których , 0.0016750
zajęć , 0.0016750
oraz , 0.0016750
Kwalifikacji , 0.0016750
powiększania , 0.0016750
możemy , 0.0016750
wodoru , 0.0016750
procedury , 0.0016750
uwag , 0.0016750
zajmując , 0.0016750
r , 0.0016750
trudnym , 0.0016750
innowacyjności , 0.0033501
materii , 0.0016750
ponadto , 0.0033501
rzeczywistości , 0.0016750
większą , 0.0016750
od , 0.0050251
zastosowano , 0.0016750
mówi , 0.0033501
r. , 0.0050251
i , 0.0033501
mogą , 0.0016750
przyciski , 0.0016750
wszystkim , 0.0016750
przyznano , 0.0016750
umowę , 0.0016750
kształcenie , 0.0016750
wolnej , 0.0016750
wartość , 0.0016750
roku , 0.0217755
Zainicjowany Initiated 1.0000000
jednostki Technologies 0.5000000
” Technologies 0.5000000
wymienili exchanged 0.3333333
tej exchanged 0.3333333
sprawie exchanged 0.3333333
NULL situations 0.5000000
sytuacjom situations 0.5000000
Szczegółowe information 0.1666667
przydatne information 0.1666667
informacji information 0.6666667
nie no 0.4000000
rozwiązania no 0.2000000
mizrach.pl no 0.2000000
KGHM no 0.2000000
NULL Missouri 1.0000000
Elektronicznych Material 0.5000000
Materiałów Material 0.5000000
którym area 0.1111111
nauk area 0.1111111
NULL area 0.4444444
zajmującymi area 0.1111111
się area 0.2222222
Cheltenham Cheltenham 1.0000000
przyniósł brought 0.1428571
też brought 0.2857143
uwagę brought 0.1428571
szerokim brought 0.1428571
iż brought 0.1428571
zwrócono brought 0.1428571
szpiku transplantation 1.0000000
współpracę cooperative 1.0000000
Drodze Milky 1.0000000
efekty economic 0.5000000
gospodarcze economic 0.5000000
trafiły put 1.0000000
pytania thriving 1.0000000
już winter 0.2500000
semestru winter 0.2500000
zimowego winter 0.2500000
od winter 0.2500000
Royem Roy 1.0000000
z entrusted 0.5000000
gospodarką entrusted 0.5000000
flagowych flagship 0.3333333
wizytówką flagship 0.3333333
projektach flagship 0.3333333
rozpoczęte began 1.0000000
wyróżnienia distinction 0.2000000
Komisję distinction 0.2000000
wyróżnienie distinction 0.2000000
Europejską distinction 0.2000000
otrzymują distinction 0.2000000
1,4-2,8 1.4-2.8 1.0000000
300 300 1.0000000
programów emphasised 0.1666667
oraz emphasised 0.1666667
publicznych emphasised 0.1666667
uczelni emphasised 0.1666667
podkreśliła emphasised 0.1666667
inwestycji emphasised 0.1666667
drugiej while 0.1666667
narodowe while 0.1666667
jednocześnie while 0.1666667
zapewnić while 0.1666667
Ogłaszając while 0.1666667
natomiast while 0.1666667
odrębnej define 0.1666667
określą define 0.1666667
procedurę define 0.1666667
ochrony define 0.1666667
wspólnych define 0.1666667
umowie define 0.1666667
Lounsbery Richard 0.5000000
Richard Richard 0.5000000
katalizy organometallic 0.3333333
metaloorganicznej organometallic 0.3333333
( organometallic 0.3333333
VIGO VIGO 1.0000000
aż many 0.1764706
NULL many 0.1764706
wiele many 0.2352941
szereg many 0.0588235
wskazanym many 0.0588235
wielu many 0.2941176
Chemii Marciniak 0.5000000
Wydziale Marciniak 0.5000000
jakość progresses 1.0000000
W. W. 1.0000000
rozwiązaniach technology 0.0833333
centrów technology 0.0833333
NULL technology 0.0833333
skutkiem technology 0.0833333
technologiczne technology 0.0833333
technologicznych technology 0.0833333
technologii technology 0.4166667
transferu technology 0.0833333
najniższych lowest 0.3333333
o lowest 0.3333333
NULL lowest 0.3333333
zakończenia chromosome 1.0000000
teraz suburb 1.0000000
prestiżowe kind 1.0000000
Zapytam I 0.0434783
tematykę I 0.0434783
Zapraszam I 0.0434783
Liczę I 0.0434783
miałam I 0.0434783
związkami I 0.0434783
Ogromnie I 0.0434783
zaproponowałam I 0.0434783
zdziwiło I 0.0434783
Mam I 0.0434783
infrastruktury I 0.0434783
dzieliłam I 0.0434783
Chciałabym I 0.0434783
Jestem I 0.1304348
NULL I 0.1304348
Postaram I 0.0434783
się I 0.0869565
Ranking I 0.0434783
WOLNOŚĆ FREEDOM 1.0000000
każdej week 0.1666667
nowy week 0.1666667
tym week 0.1666667
tygodniu week 0.1666667
Europejskiej week 0.1666667
przyjęto week 0.1666667
pokojowe peaceful 1.0000000
lutym February 0.2500000
lutego February 0.2500000
października February 0.2500000
tagów February 0.2500000
NULL maximum 0.2857143
list maximum 0.1428571
maksymalna maximum 0.1428571
782,6 maximum 0.1428571
( maximum 0.1428571
ich maximum 0.1428571
wybrane-uchwaly-rady-wydzialu wybrane-uchwaly-rady-wydzialu 1.0000000
Wydziału Mathematics 0.5000000
Matematyki Mathematics 0.5000000
efektów outcomes 0.2000000
nich outcomes 0.2000000
realizowanych outcomes 0.2000000
przez outcomes 0.2000000
NULL outcomes 0.2000000
kwoty 3.8 0.3333333
3,8 3.8 0.3333333
tysiąca 3.8 0.3333333
łupkowego gas 1.0000000
690 risen 1.0000000
rozwojem raise 0.3333333
naukowym raise 0.3333333
NULL raise 0.3333333
działalność title 0.1666667
naukowo-badawczą title 0.1666667
tytułem title 0.1666667
środowisko title 0.1666667
uczelni title 0.1666667
doceniło title 0.1666667
stopień post-doctoral 1.0000000
uproszczonych payments 0.2500000
procedur payments 0.2500000
odpłatności payments 0.2500000
kontrolnych payments 0.2500000
publikacji publication 1.0000000
aż proud 0.1666667
Warszawy proud 0.1666667
do proud 0.1666667
przyjechało proud 0.1666667
dumna proud 0.1666667
ich proud 0.1666667
indywidualnych passions 0.2500000
ministra passions 0.2500000
pasji passions 0.2500000
dotyczących passions 0.2500000
daje gives 0.2500000
szansę gives 0.2500000
to gives 0.2500000
ogromne gives 0.2500000
Muzeum Archaeological 1.0000000
a thanks 0.1111111
dzięki thanks 0.7777778
członkiem thanks 0.1111111
cała whole 0.1666667
całej whole 0.1666667
gospodarka whole 0.1666667
polska whole 0.1666667
i whole 0.1666667
NULL whole 0.1666667
zwróciła She 1.0000000
Podstawą “ 0.1000000
NULL “ 0.3000000
Jesteśmy “ 0.1000000
POLONEZA “ 0.1000000
Doświadczenie “ 0.1000000
stypendialny “ 0.1000000
„ “ 0.2000000
NULL here 0.3333333
się here 0.3333333
tutaj here 0.3333333
audytora Supreme 0.5000000
zewnętrznego Supreme 0.5000000
języku : 0.0114943
SKŁADANIA : 0.0114943
edukacyjnych : 0.0114943
- : 0.0344828
r : 0.0114943
: : 0.6781609
www.go-poland.pl : 0.0114943
wynikająca : 0.0114943
studiujących : 0.0114943
Staszica : 0.0114943
Changing : 0.0114943
znajduje : 0.0114943
dążenie : 0.0114943
Południowe : 0.0114943
staż : 0.0114943
. : 0.0114943
NULL : 0.0574713
tylu : 0.0689655
mógł Furthermore 0.1666667
będzie Furthermore 0.1666667
polski Furthermore 0.1666667
przemysł Furthermore 0.1666667
liczyć Furthermore 0.1666667
także Furthermore 0.1666667
sumę EUR 0.1250000
NULL EUR 0.2500000
euro EUR 0.5000000
naukowe EUR 0.1250000
kontrolę greater 0.5000000
większe greater 0.5000000
nad responsibilities 0.5000000
dziećmi responsibilities 0.5000000
czyli platform 0.1666667
wspólnych platform 0.1666667
platforma platform 0.1666667
aktywnych platform 0.1666667
warsztatów platform 0.1666667
politycznie platform 0.1666667
generalny Director 0.3333333
dyrektorem Director 0.3333333
Wykonawczego Director 0.3333333
Chemicznych Warehouse 1.0000000
2007 2007 0.4000000
funkcje 2007 0.2000000
pełniła 2007 0.2000000
tam 2007 0.2000000
rozwiązanie particularly 0.2500000
stali particularly 0.2500000
mechanizmów particularly 0.2500000
zużycia particularly 0.2500000
Wilnie Vilnius 0.3333333
International Vilnius 0.3333333
Fair Vilnius 0.3333333
specjalista specialist 0.3333333
specjalistycznych specialist 0.3333333
kursach specialist 0.3333333
European ESS 0.0769231
Spalacyjne ESS 0.0769231
Source ESS 0.0769231
NULL ESS 0.0769231
Źródła ESS 0.0769231
ESS ESS 0.4615385
Spallation ESS 0.0769231
uroczystości ESS 0.0769231
uczonych presence 0.2500000
obecność presence 0.5000000
polskich presence 0.2500000
spółek KGHM 0.5000000
tych KGHM 0.5000000
biznesu business 0.2000000
Nauk business 0.1000000
NULL business 0.1000000
biznesem business 0.4000000
z business 0.2000000
dochodowe eligibility 0.2500000
kryteria eligibility 0.2500000
również eligibility 0.2500000
zostały eligibility 0.2500000
chip atom 0.5000000
laser atom 0.5000000
rezerwą unused 1.0000000
NULL appreciated 0.5000000
oryginalną appreciated 0.5000000
pracowników workers 0.5000000
naukowych workers 0.5000000
środowiska Rectors 0.3333333
stoisku Rectors 0.3333333
rektorów Rectors 0.3333333
Archeologicznego Archaeology 0.5000000
Muzeum Archaeology 0.5000000
- continues 0.3333333
realizacja continues 0.3333333
trwa continues 0.3333333
zawodowy earned 0.2500000
lekarza earned 0.2500000
tytuł earned 0.2500000
( earned 0.2500000
izolatora Mott 1.0000000
( excellence 0.2000000
zasadę excellence 0.2000000
excellence excellence 0.2000000
doskonałości excellence 0.4000000
NULL actions 0.1428571
Lena actions 0.1428571
działań actions 0.2857143
działania actions 0.1428571
Kolarska-Bobińska actions 0.1428571
zobowiązały actions 0.1428571
wskazanym British 0.3333333
stronie British 0.3333333
MNiSW British 0.3333333
Akademickie Centres 0.5000000
Centra Centres 0.2500000
Ośrodków Centres 0.2500000
stałej constant 0.1428571
dokładne constant 0.1428571
Rydberga constant 0.1428571
stało constant 0.1428571
możliwe constant 0.1428571
wyznaczenie constant 0.1428571
się constant 0.1428571
Ułatwienie Facilitating 1.0000000
Przyznał admitted 1.0000000
odpowiednio did 0.2000000
pracowników did 0.2000000
naukowych did 0.2000000
wzrastają did 0.2000000
wynagrodzenia did 0.2000000
Międzyrządowych Consultations 1.0000000
Poloński Poloński 0.2500000
ministra Poloński 0.2500000
nagrody Poloński 0.2500000
otrzymali Poloński 0.2500000
problemy problems 0.5000000
bieżące problems 0.5000000
Założono planned 0.2500000
programów planned 0.2500000
planowanych planned 0.2500000
badawczych planned 0.2500000
urząd taken 0.2000000
zaszły taken 0.2000000
ministra taken 0.2000000
na taken 0.2000000
zaprzysiężona taken 0.2000000
2013-2015 auditor 1.0000000
budować build 0.2500000
badawczy build 0.2500000
zespół build 0.2500000
nowoczesny build 0.2500000
of University 0.1090909
University University 0.3090909
podbiła University 0.0181818
Uniwersytet University 0.0727273
Wynalazców University 0.0181818
istniejących University 0.0181818
lewy University 0.0181818
NULL University 0.1636364
Szpitala University 0.0181818
UW University 0.0181818
Jagiellońskim University 0.0181818
Toruniu University 0.0181818
Mickiewicza University 0.0181818
realizacji University 0.0181818
Uniwersytetu University 0.0909091
Górniczo-Hutnicza University 0.0545455
Politechniki University 0.0181818
telomerazy telomerase 0.3750000
skracaniem telomerase 0.1250000
telomeraza telomerase 0.1250000
ludzkiej telomerase 0.1250000
telomerazą telomerase 0.1250000
telomerazę telomerase 0.1250000
właścicielami owners 0.5000000
praw owners 0.5000000
dyplomowych works 0.6666667
fundamentalnych works 0.3333333
pacjenta adult 1.0000000
NULL services 0.5000000
towarów services 0.5000000
900 900 1.0000000
studia studies 0.0400000
europeistyka studies 0.0800000
NULL studies 0.1200000
praktycznym studies 0.1200000
międzyuczelniane studies 0.0400000
studiów studies 0.5600000
studiami studies 0.0400000
ścisłe exact 0.5000000
drogi exact 0.5000000
laureatami talked 1.0000000
NULL creativity 1.0000000
Program Competency 1.0000000
przedstawił highlighted 1.0000000
HHMI HHMI 1.0000000
tak so 0.3333333
harmonijnie so 0.1111111
nasza so 0.1111111
dialogu so 0.1111111
NULL so 0.3333333
z intergovernmental 0.3333333
organizacji intergovernmental 0.3333333
największych intergovernmental 0.3333333
częściową hearing 0.2500000
dziecko hearing 0.2500000
Kajetanach hearing 0.2500000
NULL hearing 0.2500000
dawniej earlier 0.3333333
NULL earlier 0.3333333
naukowe earlier 0.3333333
Pomorzu addition 0.1428571
ministrowie addition 0.1428571
NULL addition 0.1428571
ponadto addition 0.2857143
dyskutowali addition 0.1428571
dodatkowo addition 0.1428571
komórek senescence 0.5000000
się senescence 0.5000000
debaty peer-to-peer 0.5000000
partnerskiej peer-to-peer 0.5000000
uczelniom extend 0.2000000
ofertę extend 0.2000000
znacznie extend 0.2000000
poszerzyć extend 0.2000000
one extend 0.2000000
ponad exceeds 0.2500000
mld exceeds 0.2500000
to exceeds 0.2500000
26,3 exceeds 0.2500000
posiadają doktor 1.0000000
można combined 0.1428571
łączyć combined 0.1428571
ze combined 0.1428571
prowadzone combined 0.1428571
wspólnie combined 0.1428571
pracodawcą combined 0.1428571
z combined 0.1428571
rok past 0.3333333
Mijający past 0.3333333
przyniósł past 0.3333333
pozarządowe statutory 0.2000000
dotacji statutory 0.4000000
statutowej statutory 0.2000000
zobowiązania statutory 0.2000000
Innowacyjno-Wdrożeniowym UNISIL 0.3333333
UNISIL UNISIL 0.3333333
Przedsiębiorstwie UNISIL 0.3333333
przygotowanie Choose 1.0000000
4 presidents 1.0000000
badacze researchers 0.0606061
podlegają researchers 0.0303030
naukowców researchers 0.2121212
naukowcami researchers 0.0303030
NULL researchers 0.1212121
badaczy researchers 0.1818182
Naukowców researchers 0.0303030
naukowcy researchers 0.0606061
badawczy researchers 0.0303030
pracowników researchers 0.0909091
warunków researchers 0.0303030
naukowcom researchers 0.0909091
uczonych researchers 0.0303030
Fizyki Nuclear 0.5000000
Jądrowych Nuclear 0.5000000
Rozwój Programme 0.0555556
Operacyjnego Programme 0.1111111
programu Programme 0.1666667
Kompetencji Programme 0.1666667
” Programme 0.1111111
ramowego Programme 0.0555556
Erasmus Programme 0.0555556
10-minutowe Programme 0.0555556
NULL Programme 0.2222222
pakiet package 1.0000000
umowy sign 0.2000000
podpisanie sign 0.6000000
o sign 0.2000000
Adamów Toruń 0.5000000
z Toruń 0.5000000
odpowiadały respond 1.0000000
zawsze always 0.5000000
kwestią always 0.5000000
enzym enzyme 0.5000000
skracaniem enzyme 0.5000000
działaniami zones 0.5000000
terenów zones 0.5000000
spośród State 0.0833333
nowych State 0.0833333
stanu State 0.0833333
spółki State 0.0833333
NULL State 0.1666667
tzw. State 0.0833333
UAM State 0.0833333
członkowskich State 0.0833333
jedynym State 0.0833333
państwem State 0.0833333
Białostockiej State 0.0833333
powinny should 0.2941176
powinno should 0.0588235
pójść should 0.0588235
należy should 0.1176471
instytucje-pracodawcy should 0.0588235
Dlaczego should 0.0588235
NULL should 0.2352941
powinien should 0.0588235
jednostka should 0.0588235
Wielkiego Magellanic 0.5000000
Obłoku Magellanic 0.5000000
Gdańskiej Pomerania 0.5000000
NULL Pomerania 0.5000000
organizacjami organisations 0.2222222
o organisations 0.1111111
organizacji organisations 0.1111111
organizacje organisations 0.3333333
NULL organisations 0.1111111
gremiach organisations 0.1111111
znalazł third 0.3333333
NULL third 0.3333333
III third 0.3333333
własnym series 1.0000000
częściach parts 1.0000000
ułatwianie facilitate 1.0000000
poprzez offering 0.3333333
zapewnienie offering 0.3333333
twórcom offering 0.3333333
program back 1.0000000
które stand 0.1428571
” stand 0.1428571
NULL stand 0.5714286
POLAND stand 0.1428571
podobną star 0.5000000
gwiazdę star 0.5000000
opisuje specifies 1.0000000
uczestniczyć communist 0.2000000
było communist 0.2000000
warunkach communist 0.2000000
socjalistycznej communist 0.2000000
trudno communist 0.2000000
rogu reach 0.1666667
po reach 0.1666667
dotrzeć reach 0.1666667
NULL reach 0.1666667
przeznaczyć reach 0.1666667
sięgania reach 0.1666667
badań Forest 1.0000000
instrumentów introduce 0.5000000
jasny introduce 0.5000000
farmakologia pharmacology 1.0000000
6 6 0.6666667
proc 6 0.3333333
badania narrowband 0.2500000
przestrajanym narrowband 0.2500000
nad narrowband 0.2500000
prowadził narrowband 0.2500000
odbiega thematic 0.3333333
W thematic 0.3333333
nie thematic 0.3333333
szczegółowego consultation 0.2500000
konsultacje consultation 0.2500000
konsultacji consultation 0.2500000
NULL consultation 0.2500000
opłat be 0.0099010
kierować be 0.0099010
592,8 be 0.0099010
przygotowanie be 0.0198020
ważną be 0.0099010
promocja be 0.0099010
Operacyjnego be 0.0099010
zdobędzie be 0.0099010
tam be 0.0099010
powstać be 0.0099010
polską be 0.0099010
odbędzie be 0.0099010
wprowadzanie be 0.0099010
pokryć be 0.0099010
dziecięcych be 0.0099010
niesie be 0.0099010
miały be 0.0297030
wysłać be 0.0099010
staną be 0.0099010
mogły be 0.0198020
wypłacane be 0.0099010
ze be 0.0198020
zostanie be 0.0198020
nominacji be 0.0099010
związki be 0.0099010
znakomitą be 0.0099010
NULL be 0.1683168
Humanistyki be 0.0099010
są be 0.0198020
będą be 0.0495050
będzie be 0.0693069
dyskusja be 0.0099010
być be 0.0693069
powinny be 0.0198020
obowiązek be 0.0099010
zostaną be 0.0297030
można be 0.0198020
uczelniami be 0.0099010
otrzymywały be 0.0099010
współwłasność be 0.0099010
- be 0.0099010
mają be 0.0198020
bardzo be 0.0099010
kolejne be 0.0297030
znajdziecie be 0.0099010
wynosić be 0.0099010
właścicielami be 0.0099010
Szczytowi be 0.0099010
stypendiach be 0.0099010
zainaugurowane be 0.0099010
zostać be 0.0099010
bardziej be 0.0099010
kontynuowany be 0.0099010
rzadko be 0.0099010
otrzyma be 0.0099010
Kvitem Kvit 0.5000000
Kvit Kvit 0.5000000
wyprawy Polish-Venezuelan 0.5000000
polsko-wenezuelskiej Polish-Venezuelan 0.5000000
obwodów Lugansk 0.1666667
teraz Lugansk 0.1666667
działaniami Lugansk 0.1666667
z Lugansk 0.1666667
militarnymi Lugansk 0.1666667
ługańskiego Lugansk 0.1666667
celem end 0.1428571
Unia end 0.1428571
samym end 0.1428571
ona end 0.1428571
NULL end 0.2857143
Europejska end 0.1428571
który speech 0.2000000
podkreślił speech 0.2000000
wystąpieniu speech 0.2000000
swoim speech 0.2000000
przemówieniu speech 0.2000000
zdobywając scored 1.0000000
naukowe allocation 0.1666667
funduszy allocation 0.1666667
badania allocation 0.1666667
przeznaczania allocation 0.1666667
na allocation 0.3333333
INSTYTUCJA institution 0.3333333
NULL institution 0.3333333
jednym institution 0.3333333
profilach curricula 0.5000000
studiów curricula 0.5000000
NULL looking 1.0000000
organizując organizing 1.0000000
reprezentujący free 0.1666667
swobodnego free 0.1666667
członkowskich free 0.1666667
poszczególne free 0.1666667
krajów free 0.1666667
resorty free 0.1666667
trakcie on-going 0.3333333
w on-going 0.3333333
realizacji on-going 0.3333333
wartość value 1.0000000
Jackiem Jack 1.0000000
NULL heart 0.5000000
podjęło heart 0.5000000
Specjalizuje leaders 0.5000000
się leaders 0.5000000
” reaction 1.0000000
białkami G 0.3333333
sprzężonymi G 0.3333333
receptorami G 0.3333333
dzięki meet 1.0000000
wyników derived 0.5000000
badań derived 0.2500000
danych derived 0.2500000
Ocenia is 0.0069444
niezwykłe is 0.0069444
leku is 0.0069444
duże is 0.0069444
Specjalizuje is 0.0069444
ważne is 0.0069444
realizuje is 0.0069444
zainaugurowane is 0.0069444
ma is 0.1041667
Marciniec is 0.0069444
Ukraińcom is 0.0069444
przyjęciu is 0.0069444
potrzebuje is 0.0069444
wpisuje is 0.0138889
Narodowe is 0.0069444
stanowi is 0.0069444
on is 0.0138889
serwisu is 0.0069444
kwoty is 0.0069444
opracowano is 0.0069444
Założono is 0.0069444
pracujemy is 0.0069444
Nie is 0.0069444
uczynienie is 0.0069444
to is 0.1805556
kończy is 0.0069444
aktywnym is 0.0069444
sektora is 0.0069444
jest is 0.3333333
trwałe is 0.0069444
umiędzynarodowianie is 0.0069444
propozycja is 0.0069444
międzynarodowa is 0.0069444
Widać is 0.0069444
fotosyntezy is 0.0069444
kolejna is 0.0069444
służą is 0.0069444
otrzymują is 0.0069444
publiczne is 0.0069444
NULL is 0.1180556
projektów large 0.1000000
spółki large 0.1000000
NULL large 0.1000000
dużymi large 0.1000000
dużych large 0.3000000
wielki large 0.1000000
międzynarodowa large 0.2000000
- &apos;In 0.5000000
W &apos;In 0.5000000
I And 0.5000000
Im And 0.5000000
OGŁOSZENIODAWCÓW EMPLOYERS 1.0000000
telomery maintenance 1.0000000
β2 receptor 0.5000000
adrenergicznego receptor 0.5000000
wykładów lectures 1.0000000
węgielny Multi-Million 0.5000000
pod Multi-Million 0.5000000
wprowadzaliśmy have 0.0161290
Kosmosie have 0.0161290
ostatnich have 0.0161290
trafiły have 0.0161290
źródło have 0.0161290
mieć have 0.0322581
drugim have 0.0322581
pokazali have 0.0161290
złożyło have 0.0161290
spowodowały have 0.0161290
uczestniczyło have 0.0322581
zostali have 0.0322581
współpracownicy have 0.0161290
takiego have 0.0161290
otrzymało have 0.0322581
Naukowiec have 0.0161290
zainwestowaliśmy have 0.0322581
większość have 0.0161290
Enrico have 0.0161290
zobowiązały have 0.0161290
przedstawili have 0.0161290
Przedsiębiorstwie have 0.0161290
znakomitą have 0.0161290
NULL have 0.1935484
RobotChallenge have 0.0161290
uległy have 0.0161290
wybraną have 0.0161290
ukończyły have 0.0161290
TO have 0.0161290
środki have 0.0161290
miałam have 0.0161290
które have 0.0161290
przyjął have 0.0161290
zostały have 0.0161290
wydziały have 0.0161290
autorzy have 0.0161290
mają have 0.1129032
zrealizować have 0.0161290
31 have 0.0161290
zawiera good 0.1250000
dobry good 0.1250000
spotkać good 0.1250000
wykształcenie good 0.1250000
badania good 0.1250000
solidne good 0.1250000
zapewnioną good 0.1250000
dobre good 0.1250000
należałoby WUR 1.0000000
powstało combines 1.0000000
wbudowano cornerstone 1.0000000
Rosji Estonia 1.0000000
uzyskanej belongs 1.0000000
oferta offer 0.0666667
przemyślanego offer 0.0666667
oczekuje offer 0.0666667
oferty offer 0.2000000
ofertę offer 0.0666667
nasz offer 0.0666667
NULL offer 0.0666667
oferują offer 0.0666667
kierunkach offer 0.0666667
dojrzałym offer 0.0666667
zapewniają offer 0.0666667
zapewniać offer 0.0666667
na offer 0.0666667
wdrożeniowe spends 1.0000000
pracodawców competencies 1.0000000
zastanowić consider 1.0000000
do news 0.2000000
informacji news 0.2000000
wiadomością news 0.2000000
opinii news 0.2000000
publicznej news 0.2000000
prowadzenia conduction 1.0000000
124 124 0.3333333
inwestycje 124 0.3333333
ostatnio 124 0.3333333
pionierskich pioneer 1.0000000
systemu trio 1.0000000
wybitne lifetime 0.3333333
osiągnięcia lifetime 0.3333333
za lifetime 0.3333333
oraz advancement 0.5000000
rozwijać advancement 0.5000000
sierpniu August 0.5000000
się August 0.2500000
wylądowała August 0.2500000
weszła entered 0.5000000
która entered 0.5000000
przeprowadzanych experiments 0.3333333
ból experiments 0.3333333
doświadczenia experiments 0.3333333
Parlament Parliament 0.2000000
Sejm Parliament 0.4000000
Sejmu Parliament 0.2000000
debaty Parliament 0.2000000
Abroad Abroad 1.0000000
) 1987-2003 1.0000000
wolne income 0.3333333
Podniesione income 0.3333333
od income 0.3333333
receptora β2-adrenergic 0.5000000
klonowaniem β2-adrenergic 0.5000000
MNiSW Foreign 1.0000000
elektroniki electronics 1.0000000
Korei Vietnam 0.3333333
Republiką Vietnam 0.3333333
Wietnamem Vietnam 0.3333333
bieżącej chair 0.2000000
rozporządzenia chair 0.2000000
wersji chair 0.2000000
do chair 0.2000000
projektu chair 0.2000000
serwisu determining 0.2500000
strony determining 0.2500000
głównej determining 0.2500000
otwarcie determining 0.2500000
jednostka whether 0.5000000
zastanowić whether 0.5000000
stabilność stability 1.0000000
ponadto head 1.0000000
dwutygodniowe two-week 0.3333333
okresy two-week 0.3333333
ustaliła two-week 0.3333333
poniżej below 0.5000000
stosuje below 0.5000000
spójnego comprehensive 0.5000000
aż comprehensive 0.5000000
przyjęta approved 1.0000000
edycja expanding 1.0000000
cywilizacyjne civilization 0.5000000
problemy civilization 0.5000000
NULL tbc 1.0000000
zobowiązane obliged 0.2500000
obowiązek obliged 0.5000000
miały obliged 0.2500000
Ulgur Ulusal 1.0000000
samorządu local 0.3333333
NULL local 0.3333333
jednostki local 0.3333333
zaangażowane engaged 0.5000000
Norwegii engaged 0.5000000
Europą challenges 0.1428571
przed challenges 0.1428571
które challenges 0.1428571
Badawczych challenges 0.1428571
NULL challenges 0.1428571
challenges challenges 0.1428571
stoją challenges 0.1428571
Skarżyńskiego method 0.1666667
NULL method 0.1666667
przez method 0.1666667
metoda method 0.3333333
niego method 0.1666667
czwartkowej it 0.0166667
kluczowe it 0.0166667
taki it 0.0166667
zrobią it 0.0166667
wyniosła it 0.0166667
je it 0.0333333
ułatwienia it 0.0166667
przeznacza it 0.0166667
Warto it 0.0333333
był it 0.0166667
zobowiązał it 0.0166667
zadaniem it 0.0166667
ma it 0.0833333
pozwolą it 0.0166667
Wykorzystano it 0.0166667
Byliśmy it 0.0166667
astronomicznych it 0.0166667
kontynuowany it 0.0166667
edukacyjnych it 0.0166667
Podkreślono it 0.0166667
Ocenia it 0.0166667
Działa it 0.0166667
NULL it 0.0833333
Oszałamiające it 0.0166667
jakim it 0.0166667
towarzyszy it 0.0166667
łatwiejsze it 0.0166667
daje it 0.0166667
konieczne it 0.0333333
to it 0.2500000
Stworzy it 0.0166667
było it 0.0500000
Założono it 0.0166667
Stanami United 0.2857143
Zjednoczonymi United 0.4285714
NULL United 0.1428571
Wielka United 0.1428571
Programu Skills 1.0000000
Podstaw Technical 1.0000000
ról roles 0.5000000
rolę roles 0.5000000
wyróżnienie dedicated 0.5000000
dla dedicated 0.5000000
udziałem substantial 0.3333333
funduszy substantial 0.3333333
dużym substantial 0.3333333
NULL simplified 0.5000000
uproszczonego simplified 0.5000000
Curiosity probe 1.0000000
mogło being 0.1666667
będzie being 0.1666667
negocjacje being 0.1666667
toku being 0.1666667
zrażajcie being 0.1666667
przygotowywanych being 0.1666667
kapitału building 0.2000000
budowanie building 0.2000000
Narodowym building 0.2000000
społecznego building 0.2000000
budujemy building 0.2000000
Nobli Nobel 0.0833333
Nagrodę Nobel 0.1666667
Spotkanie Nobel 0.0833333
noblisty Nobel 0.0833333
Nagroda Nobel 0.0833333
noblistami Nobel 0.1666667
. Nobel 0.0833333
pytali Nobel 0.0833333
NULL Nobel 0.1666667
medycyny residency 1.0000000
Autonomous Autonomous 1.0000000
polskiego command 0.5000000
znajomość command 0.5000000
B B 1.0000000
Opracowała Contact 0.2500000
ona Contact 0.2500000
szybszej Contact 0.2500000
zbiór Contact 0.2500000
przeprowadzać review 0.5000000
analizy review 0.5000000
program until 0.1666667
będzie until 0.1666667
kontynuowany until 0.1666667
do until 0.3333333
roku until 0.1666667
dostosowania adapt 1.0000000
wynosiła 1300 0.2500000
ministra 1300 0.2500000
1300 1300 0.2500000
stypendiów 1300 0.2500000
profesor Associate 0.5000000
kierownika Associate 0.5000000
1000 1000 1.0000000
informujemy agreed 0.3333333
zgodę agreed 0.3333333
uznały agreed 0.3333333
Odczynników Chemical 1.0000000
wagę relevance 1.0000000
programy similar 0.0909091
założeniu similar 0.1818182
NULL similar 0.0909091
jak similar 0.1818182
takim similar 0.0909091
podobną similar 0.0909091
podkreślał similar 0.0909091
podobnym similar 0.1818182
biurokratycznych bureaucratic 1.0000000
kwalifikacyjną interview 1.0000000
559 559 1.0000000
pomorskim Province 0.5000000
województwie Province 0.5000000
prawo emphasises 0.5000000
jeszcze emphasises 0.5000000
nich often 0.2000000
w often 0.2000000
często often 0.2000000
wielokrotnie often 0.2000000
częściej often 0.2000000
Wydarzeniem accompanying 1.0000000
Letty Letta 1.0000000
jak operate 0.5000000
działało operate 0.5000000
z industrialization 0.3333333
którymi industrialization 0.3333333
nawiążą industrialization 0.3333333
NULL operation 0.2500000
funkcjonowanie operation 0.2500000
eksploatacji operation 0.1250000
funkcjonowania operation 0.1250000
jednostki operation 0.1250000
pierwszego operation 0.1250000
NULL find 0.3333333
pytania find 0.3333333
o find 0.3333333
NULL awards 0.3750000
nagrody awards 0.1250000
one awards 0.1250000
nagrodami awards 0.2500000
nagród awards 0.1250000
zapobiegać prevent 0.5000000
sytuacjom prevent 0.5000000
cypryjskiej Cypriot 1.0000000
wprowadzone address 0.5000000
uwzględniać address 0.5000000
przejmuje assume 0.3333333
lub assume 0.3333333
Naukowo-Technologicznego assume 0.3333333
The Queensland 0.2000000
( Queensland 0.2000000
Queensland Queensland 0.6000000
unijnej transposed 0.3333333
grunt transposed 0.3333333
polski transposed 0.3333333
) M.D. 0.5000000
M.D. M.D. 0.5000000
poparcie Kopacz 0.3333333
Kopacz Kopacz 0.3333333
uzyskała Kopacz 0.3333333
leśnych forestry 1.0000000
wzięła participated 0.2000000
które participated 0.1000000
udział participated 0.2000000
forum participated 0.1000000
27 participated 0.1000000
uczestniczyło participated 0.1000000
Łącznie participated 0.1000000
Izraelu participated 0.1000000
Białymstoku performed 0.5000000
po performed 0.5000000
kryształem particle-like 0.3333333
Motta particle-like 0.3333333
izolatora particle-like 0.3333333
Biotechnologii Biotechnology 1.0000000
uczelnia instance 0.5000000
urząd instance 0.5000000
Stanford Stanford 0.6000000
do Stanford 0.4000000
) postdoctoral 0.2000000
Roberta postdoctoral 0.2000000
( postdoctoral 0.2000000
Missouri postdoctoral 0.2000000
prowadził postdoctoral 0.2000000
europejskiego purpose 0.2000000
cel purpose 0.2000000
NULL purpose 0.4000000
pieniądze purpose 0.2000000
Kobilka recipient 0.2500000
został recipient 0.2500000
laureatem recipient 0.2500000
profesor recipient 0.2500000
odpowiedzialną responsible 0.1428571
z responsible 0.1428571
przywództwa responsible 0.1428571
współpracę responsible 0.1428571
prowadzić responsible 0.2857143
będzie responsible 0.1428571
zaufaniu trust 0.5000000
wzajemnym trust 0.5000000
skorzysta laboratories 0.1250000
laboratoriów laboratories 0.2500000
naukowe laboratories 0.1250000
laboratoria laboratories 0.5000000
mówcą speaker 0.5000000
był speaker 0.5000000
Świata Collegiate 0.5000000
Mistrzostwach Collegiate 0.5000000
w Details 0.5000000
Szczegóły Details 0.5000000
Greider Greider 0.8000000
wybrana Greider 0.2000000
finansowych benefits 0.5000000
regulaminy benefits 0.5000000
ocenił evaluated 1.0000000
przekaże send 0.2000000
Włoskie send 0.2000000
nauki send 0.2000000
ds. send 0.2000000
ministerstwo send 0.2000000
Akademickich coordinated 0.2000000
konferencji coordinated 0.2000000
Szkół coordinated 0.2000000
Polskich coordinated 0.2000000
Rektorów coordinated 0.2000000
NULL Republic 0.6666667
RP Republic 0.3333333
wszytkim fields 0.1250000
shift fields 0.1250000
NULL fields 0.3750000
przede fields 0.1250000
kierunków fields 0.2500000
odkryciom protecting 1.0000000
EW O 0.5000000
WO O 0.5000000
konstruktorzy constructors 0.6666667
polskimi constructors 0.1666667
konstruktorami constructors 0.1666667
dla endorsement 0.5000000
Karty endorsement 0.5000000
naukowych Ludowe 0.5000000
jednostek Ludowe 0.5000000
1,3 1.3 1.0000000
28.02.2017 28.02.2017 1.0000000
element element 1.0000000
Karta Charter 0.4000000
karcie Charter 0.2000000
Karty Charter 0.2000000
Europejska Charter 0.2000000
uprawniające criteria 0.2500000
kryteriów criteria 0.7500000
leki drugs 0.5000000
kiedy drugs 0.5000000
wraz improvement 0.5000000
poprawić improvement 0.5000000
najbardziej most 0.3636364
wręczenia most 0.0454545
najważniejszych most 0.0454545
najwięcej most 0.0454545
najambitniejszych most 0.0454545
uruchomiona most 0.0454545
Najbardziej most 0.0454545
najcięższych most 0.0454545
najzdolniejszych most 0.0454545
większości most 0.0454545
najważniejszymi most 0.0454545
cele most 0.0454545
najskuteczniejszy most 0.0454545
NULL most 0.0909091
północnej northern 1.0000000
pracowników employees 0.5000000
łączeniu employees 0.2500000
pracownicy employees 0.2500000
najmniej three-months 1.0000000
Hospital Hospital 0.5000000
Klinicznego Hospital 0.5000000
przygotowany sent 0.2500000
należy sent 0.2500000
wysłać sent 0.2500000
dokument sent 0.2500000
niedyskryminacji discriminating 0.5000000
m.in. discriminating 0.5000000
Etnograficznego Ethnography 1.0000000
Parku E. 0.3333333
Poznańskiego E. 0.3333333
Dyrektora E. 0.3333333
ruszył programme 0.0185185
głuchoty programme 0.0185185
realizowanym programme 0.0185185
skierowany programme 0.0185185
programie programme 0.0185185
antyplagiatowego programme 0.0185185
komputerowego programme 0.0185185
autonomii programme 0.0185185
programu programme 0.2592593
Turcji programme 0.0185185
unijnym programme 0.0185185
2020 programme 0.0555556
całe programme 0.0185185
słowem programme 0.0185185
przedsięwzięcie programme 0.0185185
program programme 0.3333333
NULL programme 0.0740741
zamawianych programme 0.0185185
70 programme 0.0185185
perspektywy financial 0.0526316
perspektywie financial 0.0526316
finansowych financial 0.0526316
zapomogę financial 0.0526316
zapomogi financial 0.0526316
NULL financial 0.2631579
pomocy financial 0.2105263
instrumentów financial 0.0526316
europejskiego financial 0.0526316
materialnej financial 0.1578947
RYYCCH PRRA 0.5000000
BR PRRA 0.5000000
Pakiecie Package 1.0000000
Uniwersytet Medical 0.5000000
Medical Medical 0.5000000
15 15 0.6666667
27 15 0.1666667
Brak 15 0.1666667
ogromnego leap 1.0000000
NULL enrollment 1.0000000
powinni professional 0.1111111
zdobywać professional 0.1111111
zawodowej professional 0.1111111
absolwenci professional 0.1111111
zawodowego professional 0.1111111
zaś professional 0.1111111
zawodowe professional 0.1111111
NULL professional 0.1111111
uzupełnienia professional 0.1111111
Wielkiego Large 1.0000000
nagroda result 0.1250000
wynik result 0.2500000
temu result 0.1250000
to result 0.2500000
zwykle result 0.1250000
Rezultat result 0.1250000
kolejna &apos;This 0.2000000
To &apos;This 0.2000000
duża &apos;This 0.2000000
międzynarodowa &apos;This 0.2000000
- &apos;This 0.2000000
zakończył completed 0.2000000
drugim completed 0.4000000
NULL completed 0.4000000
prace PhD 0.1666667
doktorskie PhD 0.0833333
stopów PhD 0.0833333
doktoratem PhD 0.0833333
doktorantów PhD 0.2500000
doktoranckie PhD 0.0833333
doktora PhD 0.0833333
doktorat PhD 0.0833333
doktorantom PhD 0.0833333
poziomie standards 0.2000000
standardów standards 0.2000000
standardy standards 0.4000000
najwyższe standards 0.2000000
proporcjonalnie proportion 0.2500000
do proportion 0.2500000
wkładu proportion 0.2500000
Stron proportion 0.2500000
energii boost 0.2500000
wszystkim boost 0.2500000
dodatkowej boost 0.2500000
nabrać boost 0.2500000
umowa negotiations 1.0000000
znana specialty 0.5000000
specjalność specialty 0.5000000
największych largest 0.2857143
wzięła largest 0.1428571
największego largest 0.1428571
największe largest 0.4285714
żłobków day 0.5000000
dnia day 0.5000000
Andrychowicz Andrychowicz 1.0000000
odkrywania solving 1.0000000
pozytywna positive 0.5000000
opinia positive 0.2500000
spojrzeć positive 0.2500000
parametrycznej depend 1.0000000
wielu interests 0.2500000
zainteresowań interests 0.2500000
naukowych interests 0.2500000
rozwijanie interests 0.2500000
osobom would 0.3333333
tym would 0.3333333
Chciałabym would 0.3333333
władzach representation 0.2500000
Fundacji representation 0.2500000
we representation 0.2500000
reprezentację representation 0.2500000
okres period 0.2000000
transformacji period 0.2000000
2008-2011 period 0.2000000
ustrojowej period 0.2000000
przez period 0.2000000
przed against 0.5000000
dodatkowymi against 0.5000000
skutecznie comercialise 0.5000000
komercjalizować comercialise 0.5000000
NULL interested 0.2000000
zainteresowanych interested 0.2000000
taką interested 0.2000000
zainteresowanym interested 0.2000000
współpracą interested 0.2000000
Badań cooperate 0.0833333
strategiczne cooperate 0.0833333
dla cooperate 0.0833333
nadzorować cooperate 0.0833333
realizację cooperate 0.0833333
Programu cooperate 0.0833333
akceleratora cooperate 0.0833333
państwa cooperate 0.0833333
mieli cooperate 0.0833333
określającego cooperate 0.0833333
Krajowego cooperate 0.0833333
rozmowy cooperate 0.0833333
o developing 0.2000000
się developing 0.2000000
opracowanie developing 0.2000000
rozwija developing 0.2000000
badawczo-rozwojowego developing 0.2000000
grupą group 0.1666667
Grupa group 0.1666667
NULL group 0.3333333
absolwentów group 0.1666667
grono group 0.1666667
rzeczywistości Indeed 0.5000000
w Indeed 0.5000000
miesięcy application 0.5000000
zgłoszeń application 0.5000000
publicznych Procurement 0.5000000
zamówieniach Procurement 0.5000000
częstotliwości technique 0.6666667
światła technique 0.3333333
które manufactured 1.0000000
r 2025 0.5000000
2025 2025 0.5000000
Wszechświat universe 1.0000000
tryb periodical 0.5000000
dokonywania periodical 0.5000000
Molekularnej Biology 0.5000000
NULL Biology 0.2500000
biologii Biology 0.2500000
NULL Mobility 1.0000000
światowej equipment 0.5000000
najlepszej equipment 0.5000000
10,7 mln 0.5000000
mln mln 0.5000000
laboratoriach Matlab-Simulink 1.0000000
„ New 0.2500000
Nowe New 0.2500000
programu New 0.2500000
Technologie New 0.2500000
NULL signing 0.5000000
wydarzenie signing 0.5000000
czasie presidency 0.3333333
NULL presidency 0.3333333
prezydencji presidency 0.3333333
przewidują amendments 0.1428571
ustawowym amendments 0.1428571
Prawa amendments 0.1428571
zmiany amendments 0.5714286
studentom enable 0.1428571
umożliwiają enable 0.1428571
polskim enable 0.1428571
umożliwienie enable 0.1428571
NULL enable 0.1428571
pozwolą enable 0.1428571
podjęcia enable 0.1428571
www.gorn.edu.pl www.gorn.edu.pl 1.0000000
kompetencje marketable 0.3333333
przez marketable 0.3333333
poszukiwane marketable 0.3333333
przekroczyć exceed 0.3333333
mogły exceed 0.3333333
3 exceed 0.3333333
60 60 1.0000000
odkryli discovered 0.4000000
odkrył discovered 0.2000000
uczeni discovered 0.2000000
telomerazę discovered 0.2000000
semestru starting 0.2000000
Starting starting 0.2000000
tego starting 0.2000000
rozpoczynających starting 0.2000000
od starting 0.2000000
Overseas Overseas 0.5000000
for Overseas 0.5000000
NULL Scientists 0.1666667
Naukowiec Scientists 0.1666667
naukowców Scientists 0.1666667
resortu Scientists 0.1666667
imię Scientists 0.1666667
ma Scientists 0.1666667
Robertem Robert 0.5000000
stażu Robert 0.5000000
63 63 1.0000000
kreatywności future-forward 1.0000000
Monika Monika 1.0000000
wrodzonych well 0.0357143
ludzi well 0.0357143
dobrze well 0.0357143
znana well 0.0357143
opracowania well 0.0357143
dorobku well 0.0357143
wyraźnie well 0.0357143
, well 0.0357143
przemyślanego well 0.0357143
konferencji well 0.0357143
osiągnięcia well 0.0357143
także well 0.3571429
NULL well 0.2142857
konkurencyjna well 0.0357143
zastępcą appointed 0.2000000
r. appointed 0.2000000
została appointed 0.2000000
NULL appointed 0.2000000
mianowana appointed 0.2000000
Wiodącego Wiodący 1.0000000
otwiera opens 1.0000000
socjalnego grant 0.1818182
statutowej grant 0.0909091
NULL grant 0.1818182
POLONEZA grant 0.0909091
uzależniona grant 0.0909091
dotacji grant 0.1818182
szersze grant 0.0909091
naukowe grant 0.0909091
przekształcaniem Polskie 1.0000000
oferowane perspectives 1.0000000
demokracji democracy 0.5000000
NULL democracy 0.2500000
budowania democracy 0.2500000
uczy do 0.0769231
Council do 0.0769231
zrobią do 0.0769231
NULL do 0.1538462
robimy do 0.0769231
, do 0.0769231
robić do 0.0769231
najlepiej do 0.0769231
umożliwią do 0.0769231
miałam do 0.0769231
kogo do 0.0769231
to do 0.0769231
przedstawicieli representatives 0.2000000
przedstawiciele representatives 0.8000000
Doctor Doctor 0.2500000
Science Doctor 0.2500000
NULL Doctor 0.2500000
of Doctor 0.2500000
danych principle 0.5000000
przeznaczanych principle 0.5000000
kwalifikacji essential 0.5000000
wymaganych essential 0.5000000
częściej hear 0.3333333
coraz hear 0.3333333
słyszymy hear 0.3333333
wymianami exchanges 1.0000000
żelaza iron 0.5000000
stopy iron 0.5000000
Academy Academy 0.1818182
of Academy 0.1818182
Akademii Academy 0.2727273
NULL Academy 0.0909091
Nauk Academy 0.1818182
Obywatelska Academy 0.0909091
okazja opportunity 0.1666667
szansę opportunity 0.1666667
jest opportunity 0.0833333
NULL opportunity 0.1666667
okazję opportunity 0.1666667
okazją opportunity 0.1666667
do opportunity 0.0833333
21 21st 1.0000000
wiceminister Minister 0.0322581
NULL Minister 0.1451613
wicepremier Minister 0.0483871
Ministra Minister 0.0322581
nauki Minister 0.0161290
ministrem Minister 0.0161290
dodała Minister 0.0322581
stwierdziła Minister 0.0161290
australijską Minister 0.0161290
rozporządzenie Minister 0.0161290
ministra Minister 0.0483871
premier Minister 0.0161290
minister Minister 0.5645161
Polacy triumphed 0.2000000
trzeci triumphed 0.2000000
rzędu triumphed 0.2000000
triumfowali triumphed 0.2000000
z triumphed 0.2000000
się enjoy 1.0000000
Hughes Hughes 1.0000000
przed met 0.2000000
dziś met 0.2000000
południem met 0.2000000
spełniać met 0.2000000
spełnianych met 0.2000000
się stage 0.2500000
etap stage 0.5000000
wybrani stage 0.2500000
kolejnej context 0.3333333
kontekście context 0.3333333
NULL context 0.3333333
zainteresowanych talents 1.0000000
ten 907 0.2500000
przeznaczono 907 0.2500000
907 907 0.2500000
cel 907 0.2500000
znaleźliśmy ourselves 0.3333333
ścisłej ourselves 0.3333333
ich ourselves 0.3333333
wraz along 0.4000000
to along 0.2000000
NULL along 0.2000000
przyczyniła along 0.2000000
przewidziane decision 1.0000000
nowy NSC 1.0000000
elektronicznym electronic 1.0000000
oczekiwań expectations 0.5000000
oczekiwania expectations 0.5000000
to whom 0.3333333
robimy whom 0.3333333
kogo whom 0.3333333
stypendia Rector 0.5000000
rektora Rector 0.5000000
ESA General 1.0000000
Zdrowia + 0.2000000
+ + 0.8000000
studentów mature 0.2857143
dojrzałej mature 0.1428571
dojrzałych mature 0.2857143
dojrzałą mature 0.1428571
dojrzałym mature 0.1428571
objęła Investigator 0.3333333
HHMI Investigator 0.3333333
zespołu Investigator 0.3333333
formie directed 0.2000000
skierowane directed 0.2000000
NULL directed 0.2000000
przede directed 0.2000000
skierowany directed 0.2000000
pozwalają allow 0.4000000
astrofizycy allow 0.2000000
na allow 0.2000000
umożliwić allow 0.2000000
NULL creation 0.6666667
tworzeniu creation 0.3333333
Wydział Scientific 0.5000000
NULL Scientific 0.5000000
Regionu Norway 1.0000000
doktoranci post-graduate 1.0000000
innymi with 0.0102041
programami with 0.0102041
mogą with 0.0102041
wspieranie with 0.0102041
ośrodkom with 0.0102041
jako with 0.0102041
ze with 0.0204082
z with 0.5510204
Nagrodami with 0.0102041
konkurować with 0.0102041
zagranicznymi with 0.0102041
tą with 0.0102041
udziale with 0.0102041
udziałem with 0.0102041
spółki with 0.0102041
wybitnym with 0.0102041
krótkich with 0.0102041
wzięło with 0.0102041
kształcić with 0.0102041
nabywanym with 0.0102041
instytucjami with 0.0102041
gronie with 0.0102041
rozwiązania with 0.0204082
Ranking with 0.0102041
problematyką with 0.0102041
dochodach with 0.0102041
ośrodkami with 0.0102041
strategiczne with 0.0102041
inne with 0.0102041
duży with 0.0102041
NULL with 0.1326531
NULL action 0.5000000
pracę action 0.5000000
specjalizacji Centre 0.0588235
Centrum Centre 0.5882353
funduszy Centre 0.0588235
Onkologii Centre 0.0588235
wynegocjowany Centre 0.0588235
NULL Centre 0.0588235
realizacji Centre 0.0588235
Wiodącego Centre 0.0588235
jaki questions 1.0000000
Polki logo 0.2000000
logo logo 0.6000000
NULL logo 0.2000000
operacyjnych operational 0.5000000
programów operational 0.5000000
z due 0.1428571
ze due 0.2857143
względu due 0.2857143
na due 0.2857143
Diamentowego Diamond 0.4117647
NULL Diamond 0.0588235
Diamentowy Diamond 0.4705882
konkursu Diamond 0.0588235
eksploatacji Spallation 0.1428571
Europejskiego Spallation 0.4285714
Źródła Spallation 0.4285714
życiu life-threatening 0.5000000
reakcji life-threatening 0.5000000
dochód royalties 1.0000000
badania investigation 0.3333333
przyczyn investigation 0.3333333
zakresie investigation 0.3333333
pracowało been 0.0322581
zaproponowany been 0.0322581
31 been 0.0322581
WOLNOŚĆ been 0.0322581
w been 0.0322581
otrzymało been 0.0645161
przyznawany been 0.0322581
większość been 0.0322581
zostały been 0.0645161
Enrico been 0.0322581
prestiżowymi been 0.0322581
trafiły been 0.0322581
umiędzynarodowienia been 0.0322581
wydzielono been 0.0322581
Innowacyjno-Wdrożeniowym been 0.0322581
organizowane been 0.0322581
NULL been 0.3225806
dotychczas been 0.0322581
320 been 0.0322581
ostatnich been 0.0322581
Genetyki Genetics 0.6666667
genetyki Genetics 0.3333333
mogliśmy wherever 1.0000000
zaś euros 0.3333333
otrzymała euros 0.3333333
euro euros 0.3333333
Jednak But 1.0000000
ruszył pilot 1.0000000
kontynuowała continued 0.1666667
trwały continued 0.1666667
kontynuować continued 0.1666667
Humanistyki continued 0.1666667
roku continued 0.1666667
kontynuowany continued 0.1666667
NULL Loba 1.0000000
ogólne practices 0.5000000
zawiera practices 0.5000000
znaczenie important 0.0476190
istotne important 0.0476190
ważne important 0.1904762
tematem important 0.0476190
propozycji important 0.0476190
najważniejszych important 0.0476190
uniwersytety important 0.0476190
ważną important 0.0476190
Instytutów important 0.0476190
uwłaszczenia important 0.0476190
ważniejsze important 0.0476190
ważny important 0.0952381
istotną important 0.0952381
osiągnięciami important 0.0476190
określenie important 0.0476190
cele important 0.0476190
drugiej pass 0.1666667
Programowaniu pass 0.1666667
przekazania pass 0.1666667
określi pass 0.1666667
Stronie pass 0.1666667
( pass 0.1666667
Dofinansowanie living 0.5000000
utrzymanie living 0.5000000
materiałów characterization 1.0000000
zawartego compromise 0.1666667
kompromisu compromise 0.1666667
wyrazem compromise 0.1666667
naukowcami compromise 0.1666667
Kompromis compromise 0.1666667
między compromise 0.1666667
za grateful 0.3333333
Jesteśmy grateful 0.3333333
wdzięczni grateful 0.3333333
120 120 1.0000000
studentom aims 0.2500000
NULL aims 0.2500000
pomóc aims 0.2500000
ma aims 0.2500000
możliowści constructed 0.2500000
nich constructed 0.2500000
skonstruowanego constructed 0.2500000
robota constructed 0.2500000
energetycznych shift 0.2500000
Lamba shift 0.2500000
poziomów shift 0.2500000
atomu shift 0.2500000
zgłasza Byrne 1.0000000
Chargés Chargé 1.0000000
zebranie collecting 0.3333333
także collecting 0.3333333
a collecting 0.3333333
propozycję Collaboration 1.0000000
krótkich light 0.5000000
światłem light 0.5000000
realizowanym implemented 0.2222222
ramowego implemented 0.1111111
podejmowane implemented 0.1111111
już implemented 0.1111111
realizowanych implemented 0.1111111
wdrożone implemented 0.1111111
UNISIL implemented 0.1111111
wprowadzono implemented 0.1111111
zatrudnienia employment 0.6000000
NULL employment 0.2000000
wymiarze employment 0.2000000
Wydziale Zbigniew 1.0000000
1984 1984 0.5000000
r 1984 0.5000000
telomerów mouse 1.0000000
fachowców safety 1.0000000
pionierską frequency 0.2000000
krótkich frequency 0.2000000
grzebienia frequency 0.4000000
technikę frequency 0.2000000
tematów pays 0.1666667
- pays 0.1666667
Warto pays 0.1666667
unikalnych pays 0.1666667
badawczych pays 0.1666667
szukać pays 0.1666667
południowo-wschodniej south-eastern 1.0000000
UW Mechanics 0.5000000
Mechaniki Mechanics 0.5000000
trzeba you 0.7500000
interesują you 0.2500000
Uniwersytetem associated 0.3333333
stowarzyszonych associated 0.3333333
związana associated 0.3333333
zwycięzców announcing 0.5000000
konkursu announcing 0.5000000
rankingu OECD 1.0000000
protestów protests 1.0000000
opublikowany published 0.1250000
publikowane published 0.2500000
ukazała published 0.1250000
będą published 0.1250000
zużycia published 0.1250000
Rezultat published 0.1250000
Wydał published 0.1250000
stroną foreign 0.1000000
NULL foreign 0.1000000
zagraniczni foreign 0.2000000
wykazali foreign 0.1000000
zagranicznych foreign 0.4000000
zagraniczną foreign 0.1000000
przy Conduct 0.5000000
postępowania Conduct 0.2500000
Postępowania Conduct 0.2500000
plebiscytu Skarżyński 0.2000000
metoda Skarżyński 0.2000000
Henryk Skarżyński 0.2000000
Skarżyński Skarżyński 0.4000000
stypendium win 1.0000000
Mąkosza Mąkosza 1.0000000
drużyny teams 0.1111111
grup teams 0.1111111
drużyn teams 0.1111111
NULL teams 0.1111111
zespołach teams 0.2222222
zespołów teams 0.1111111
zespoły teams 0.1111111
badawczych teams 0.1111111
o 690 0.5000000
690 690 0.5000000
słów words 1.0000000
BR P 0.5000000
DOOB P 0.5000000
sto hundred 0.4000000
stypendiów hundred 0.2000000
NULL hundred 0.2000000
setka hundred 0.2000000
pracujemy currently 0.2500000
z currently 0.2500000
trakcie currently 0.2500000
obecnie currently 0.2500000
a.i. a.i. 1.0000000
głównie mostly 0.2500000
oprzeć mostly 0.2500000
jak mostly 0.2500000
największym mostly 0.2500000
problematyką dealing 0.2000000
międzynarodowej dealing 0.2000000
zajmującą dealing 0.2000000
edukacji dealing 0.2000000
się dealing 0.2000000
Council scope 0.2000000
Research scope 0.2000000
NULL scope 0.2000000
zakresu scope 0.2000000
European scope 0.2000000
z premium 1.0000000
neutronów source 0.2857143
NULL source 0.1428571
używanych source 0.1428571
technologicznie source 0.1428571
źródła source 0.1428571
źródło source 0.1428571
postaw involves 0.5000000
uczestniczy involves 0.5000000
52 52 1.0000000
zagranicy partners 0.3333333
partnerzy partners 0.3333333
z partners 0.3333333
» » 1.0000000
przyjazna friendly 0.2000000
przyjazne friendly 0.4000000
- friendly 0.2000000
zaznaczyła friendly 0.2000000
jeszcze available 0.1428571
kolejne available 0.1428571
podaje available 0.1428571
NULL available 0.1428571
wersję available 0.1428571
korzystanie available 0.1428571
czterysta available 0.1428571
ciągu Over 0.3333333
ostatnich Over 0.3333333
W Over 0.3333333
poparcia declaration 1.0000000
programu Coordinator 0.5000000
koordynator Coordinator 0.5000000
specyfikę specificity 0.2500000
uwzględniać specificity 0.2500000
nauk specificity 0.2500000
NULL specificity 0.2500000
odsłonili Skłodowska-Curie 0.2000000
Skłodowskiej-Curie Skłodowska-Curie 0.4000000
Marie Skłodowska-Curie 0.4000000
propozycji choices 1.0000000
podpisywania contracts 1.0000000
organizacyjne organizational 0.4000000
zaplecze organizational 0.2000000
zbudować organizational 0.2000000
m.in. organizational 0.2000000
OGLE OGLE 0.5000000
projektu OGLE 0.5000000
zewnętrznego Audit 1.0000000
- &apos;It 0.5000000
Widać &apos;It 0.5000000
- Podlasie 0.2000000
Tutaj Podlasie 0.2000000
zainwestowaliśmy Podlasie 0.2000000
na Podlasie 0.2000000
Podlasiu Podlasie 0.2000000
projektowe design 1.0000000
planują pursue 0.2000000
zawodowej pursue 0.2000000
rozpocząć pursue 0.2000000
naukową pursue 0.2000000
karierę pursue 0.2000000
techniką Doppler-free 1.0000000
a 1983 1.0000000
celem goal 0.8000000
strategicznym goal 0.2000000
zawarte specified 1.0000000
udział bachelor 0.5000000
NULL bachelor 0.5000000
Europejskiego Free 0.3333333
Stowarzyszenia Free 0.3333333
państw Free 0.3333333
najlepsi Championship 1.0000000
Użycie 03 1.0000000
mianem popularly 0.2000000
- popularly 0.2000000
popularnie popularly 0.2000000
Polskiej popularly 0.2000000
określane popularly 0.2000000
Krzysztof Krzysztof 1.0000000
rozwiązań innovative 0.1111111
innowacyjnej innovative 0.1111111
innowacyjnych innovative 0.4444444
rozwiązaniach innovative 0.1111111
nowatorskich innovative 0.1111111
innowacyjne innovative 0.1111111
barier barriers 0.3333333
bariery barriers 0.3333333
uczestnictwa barriers 0.3333333
prac \ 1.0000000
40 40 0.8000000
lat 40 0.2000000
rozdzielane proportions 0.1666667
się proportions 0.1666667
są proportions 0.1666667
jakich proportions 0.1666667
proporcje proportions 0.1666667
m.in. proportions 0.1666667
ćwiczeń coordinators 0.2500000
„ coordinators 0.2500000
” coordinators 0.2500000
szkołach coordinators 0.2500000
Znamy know 0.5000000
Wiemy know 0.5000000
ds. simpler 1.0000000
uczelni funding 0.0833333
in funding 0.0833333
akademickiej funding 0.0833333
finansowania funding 0.1666667
finansowaniu funding 0.0833333
NULL funding 0.1666667
poziomie funding 0.0833333
finansowanie funding 0.1666667
stałego funding 0.0833333
NULL includes 0.2500000
wszytkim includes 0.2500000
wąskopasmowym includes 0.2500000
sesja includes 0.2500000
wszystkie analysed 0.5000000
analizowane analysed 0.5000000
Mistrzowie Algorithmic 1.0000000
Akademii organising 1.0000000
Parku Orłowska 0.1428571
Orłowska Orłowska 0.5714286
naukowo-badawczą Orłowska 0.1428571
uczelnię Orłowska 0.1428571
MSCA MSCA 1.0000000
Investigator Spring 0.3333333
Spring Spring 0.3333333
Cold Spring 0.3333333
NULL higher 0.2307692
stymulują higher 0.0256410
zawodowe higher 0.0256410
obowiązek higher 0.0256410
prac higher 0.0256410
konsorcjum higher 0.0256410
uczelnie higher 0.0512821
szkolnictwie higher 0.1538462
szkolnictwa higher 0.2820513
szkolnictwo higher 0.0769231
wyższe higher 0.0769231
działań Ukrainians 0.2500000
mieszkających Ukrainians 0.2500000
terenach Ukrainians 0.2500000
Ukraińców Ukrainians 0.2500000
wrodzonych inborn 0.5000000
wad inborn 0.5000000
pracowników determination 0.5000000
nauki determination 0.5000000
wymienił mentioned 0.1111111
Kudrycka mentioned 0.1111111
Barbara mentioned 0.1111111
też mentioned 0.1111111
zaznaczyła mentioned 0.3333333
Prof. mentioned 0.1111111
zapowiedzi mentioned 0.1111111
ang rounds 1.0000000
kształcić accordance 0.5000000
nowocześnie accordance 0.5000000
naukowych mysteries 1.0000000
momentu moment 1.0000000
dla www.go-poland.pl 0.2000000
studiujących www.go-poland.pl 0.2000000
serwis www.go-poland.pl 0.2000000
www.go-poland.pl www.go-poland.pl 0.4000000
uczelnie subsidies 0.2500000
dotację subsidies 0.2500000
otrzymują subsidies 0.2500000
dzielone subsidies 0.2500000
swoje consortium 1.0000000
ustawa Act 0.5000000
wyrazem Act 0.1250000
o Act 0.2500000
- Act 0.1250000
mają specific 0.1250000
zostać specific 0.1250000
odrębna specific 0.1250000
poszczególnych specific 0.1250000
określenie specific 0.1250000
NULL specific 0.2500000
którzy specific 0.1250000
dożylnie intravenously 1.0000000
instytuty institutes 0.5714286
badawcze institutes 0.4285714
Radzie Presidency 0.1666667
przewodnictwo Presidency 0.1666667
prezydencji Presidency 0.5000000
NULL Presidency 0.1666667
dlatego therefore 0.1666667
ii therefore 0.1666667
wzorem therefore 0.1666667
uzyskanych therefore 0.1666667
) therefore 0.1666667
( therefore 0.1666667
z however 0.2000000
że however 0.2000000
pierwszeństwo however 0.2000000
tym however 0.2000000
jednak however 0.2000000
NULL proposal 1.0000000
był included 0.1666667
temat included 0.3333333
też included 0.3333333
NULL included 0.1666667
spełniać fulfill 0.2500000
Muszę fulfill 0.2500000
jeden fulfill 0.2500000
także fulfill 0.2500000
dojrzałej vision 0.5000000
wizji vision 0.5000000
lewy analyses 1.0000000
mieszkaniowego housing 1.0000000
milionów much 0.2500000
przeznaczyć much 0.2500000
NULL much 0.2500000
dialogu much 0.2500000
sukcesów success 0.0909091
Polaków success 0.0909091
NULL success 0.1818182
sukcesy success 0.0909091
sukces success 0.4545455
sukcesu success 0.0909091
renomowanych renowned 1.0000000
programie organizations 0.3333333
organizacji organizations 0.3333333
NULL organizations 0.3333333
studia reliable 0.3333333
uzyskanie reliable 0.3333333
rzetelnej reliable 0.3333333
„ &gt; 0.5000000
Paktu &gt; 0.5000000
innowacjom innovation-friendly 0.3333333
państwem innovation-friendly 0.3333333
przyjaznym innovation-friendly 0.3333333
całkowicie implants 1.0000000
Europą facing 0.2000000
uczelniami facing 0.2000000
przed facing 0.2000000
jakie facing 0.2000000
stoją facing 0.2000000
już right 0.3333333
doktoratem right 0.3333333
NULL right 0.3333333
zaangażowanych involved 0.0714286
NULL involved 0.0714286
się involved 0.0714286
uczestniczą involved 0.0714286
osób involved 0.0714286
, involved 0.0714286
dyskutujących involved 0.0714286
zajmuje involved 0.0714286
humanistycznymi involved 0.0714286
zaangażowani involved 0.0714286
naukami involved 0.0714286
podejmują involved 0.0714286
aktywny involved 0.0714286
zaangażowane involved 0.0714286
program i.e. 0.3333333
czyli i.e. 0.6666667
sięgać obtain 0.2000000
krokiem obtain 0.2000000
pozyskiwania obtain 0.2000000
zdobycia obtain 0.2000000
otrzymać obtain 0.2000000
stypendiami scholarships 0.0434783
rektora scholarships 0.0869565
stypendiów scholarships 0.0869565
rządowych scholarships 0.0434783
stypendia scholarships 0.3913043
stypendiach scholarships 0.0434783
dla scholarships 0.1739130
